{"size":[1000,1000],"entities":{"329582542":{"nn":{"node_layers":[{"biases":[-0.39171987660002144,-5.603330203919989,3.012444663460174,9.513811287620141,0.4068994860999802,-9.608975235599857,-3.3464295728600453,-8.551580792539927],"activation_ref":"sigmoid"},{"biases":[2.5883835386602025,0.9648175788200216],"activation_ref":"sigmoid"}],"connection_layers":[{"input_size":8,"output_size":2,"weights":[[0.029441258320072723,-1.7125295852799625],[1.547240182380182,5.106313653220131],[-15.95739035974006,-4.585096653259864],[9.591613377840254,-10.448421495840023],[1.4185998753200515,0.10431639992012623],[2.5603703166800873,-1.8108119804797376],[-7.395088930619994,-3.30443837923988],[-4.500127019319884,3.646274989460062]],"dyn_weights":[[-12.389708354360039,7.277790089099844],[1.1034442119600294,-1.1882663260400925],[6.605322638740169,2.4237564084998615],[-8.11895321093997,-0.6353897183799523],[2.1438650960598347,-4.730045216719917],[4.168895621180106,-2.5806861050400003],[17.790604909980722,-3.3099405973199505],[-5.2898314644599855,-5.9590772129599126]]}]},"type_":"predator","pos":[263.7404909225704,125.2228433325404],"orientation":160.73028910917338,"health":0.6155340219999991,"energy_copy":17.0,"age":219.91458899999992,"gen":309825,"fitness":17.0},"329583682":{"nn":{"node_layers":[{"biases":[-0.4629288517200213,-5.791288081119987,3.002239300140172,9.602650502500135,0.4537202846599804,-9.45227480315985,-3.1972200567400453,-8.938424630059933],"activation_ref":"sigmoid"},{"biases":[2.559701234900202,1.1407078526600214],"activation_ref":"sigmoid"}],"connection_layers":[{"input_size":8,"output_size":2,"weights":[[0.18470617724007282,-1.565251218679963],[1.5233371086601826,4.87537213822013],[-15.869144768580055,-4.669628489099868],[9.826322223560261,-10.249310932720032],[1.3702683152800514,0.29837443812012626],[2.484156891680088,-2.079487089199738],[-7.403729091859994,-3.4201744835998777],[-4.4350618261198775,3.757155146700061]],"dyn_weights":[[-12.545893385680035,7.204519553299846],[1.39462297272003,-1.0819569101200925],[-6.64188815806017,2.4877420570198607],[-8.06406486429997,0.5866329246999527],[2.095073588419833,4.67052925335992],[4.344399005580106,-2.7023106815600006],[17.722482122460736,-3.355575896759951],[-5.425320598939984,-5.881174180959909]]}]},"type_":"predator","pos":[84.15918837207992,4.760286335794655],"orientation":76.07120053097333,"health":0.17868566800000024,"energy_copy":0.0,"age":45.62857399999996,"gen":309827,"fitness":0.0},"329583688":{"nn":{"node_layers":[{"biases":[-0.4626671740800213,-5.787143668359987,3.011591967020172,9.632409984020134,0.4617930645799804,-9.47202057407985,-3.204703128020045,-8.938062902379931],"activation_ref":"sigmoid"},{"biases":[2.5578678462202022,1.1608939212200213],"activation_ref":"sigmoid"}],"connection_layers":[{"input_size":8,"output_size":2,"weights":[[0.1599891013600728,-1.590302590159963],[1.5131831289401825,4.85874666062013],[-15.879828813220055,-4.696896734539868],[9.819802686480262,-10.244006132320031],[1.3580444687200515,0.2821149508401262],[2.496333369560088,-2.0738192845597383],[-7.419321419419994,-3.434483884719878],[-4.444540705599878,3.7366885747000613]],"dyn_weights":[[-12.551288878520035,7.1901451486598456],[1.3822770612800301,-1.0646878152400925],[-6.6454289354201705,2.5241699231798607],[-8.060996150299971,0.5915772025399527],[-2.123130354179833,4.6675043681999195],[4.332663213980107,-2.7385270621600006],[17.725379387420734,-3.3392194972799514],[5.419758143899984,-5.86914996647991]]}]},"type_":"predator","pos":[824.6552429733631,48.44706614414887],"orientation":77.86060654571762,"health":0.20498156200000003,"energy_copy":0.0,"age":44.16769099999996,"gen":309827,"fitness":0.0},"329583703":{"nn":{"node_layers":[{"biases":[-0.4380268462000213,-5.781292963679987,3.0112637457801723,9.637608544940134,0.45192937029998037,-9.46050104063985,-3.2088003594600454,-8.939094041539931],"activation_ref":"sigmoid"},{"biases":[2.535531486620202,1.1673419414200215],"activation_ref":"sigmoid"}],"connection_layers":[{"input_size":8,"output_size":2,"weights":[[0.1767999397600728,-1.595235888839963],[1.5387464998601825,4.84110760126013],[-15.874158245100055,-4.684307587779868],[9.809124674760263,-10.251413844240032],[1.3561698916000515,0.30551031660012623],[2.492019259160088,-2.0594480516397384],[-7.422018620539993,-3.4128647293198777],[-4.456171421159878,3.756631651700061]],"dyn_weights":[[-12.579844554640035,7.183968811379846],[1.36704563608003,-1.0981841097600924],[-6.63863245434017,2.5024801869398607],[-8.064943192339971,0.5916669291399527],[2.1339746026998334,4.657386552319919],[4.338826647540106,-2.7036689151200006],[17.716978769580734,-3.3478053249199515],[5.443694517899984,-5.864270055359909]]}]},"type_":"predator","pos":[338.9764012426739,854.7072161131609],"orientation":-9.810672337467317,"health":0.26706698199999995,"energy_copy":0.0,"age":40.71850099999999,"gen":309827,"fitness":0.0},"329583595":{"nn":{"node_layers":[{"biases":[11.233859987940628,4.662750448200095,0.16033138205997222,-0.48744755872000145,27.51537717170015,-0.3825164536199434,-0.5642988292199556,4.846228368360451],"activation_ref":"sigmoid"},{"biases":[3.405402712659971,7.016883595500183],"activation_ref":"sigmoid"}],"connection_layers":[{"input_size":8,"output_size":2,"weights":[[-2.669225129100396,31.412171629559168],[-14.009731882779786,-28.86582836830063],[31.81671889598003,5.408178673940952],[-8.996903134119165,26.656964260700274],[16.148349572780038,-5.615011974279592],[13.523988970080525,-10.50643079787966],[-0.038407957699529066,1.476535316280547],[13.586050385640846,-25.121493702899862]],"dyn_weights":[[-7.07074871893992,-27.99081202237882],[6.432648021820026,6.19101063766038],[-4.685634868860101,1.2638674424998053],[-17.783417974140047,-1.5412114309201865],[-5.4039493119205195,5.142170012079931],[-18.68728102892104,-1.2566006618194736],[-7.877235011839987,-3.079386662199764],[8.31983152794043,24.103477511380774]]}]},"type_":"prey","pos":[478.2312415556643,175.81090364979502],"orientation":255.92715466491848,"health":1.0,"energy_copy":7.099591624999995,"age":56.79673299999996,"gen":1194686,"fitness":56.79673299999996},"329583825":{"nn":{"node_layers":[{"biases":[-0.42257914772002136,-5.758259077279987,2.9993472551801728,9.610432838260135,0.5097967761799804,-9.496985221919852,-3.2482912239800457,-8.884426016979932],"activation_ref":"sigmoid"},{"biases":[2.5472804986202027,1.0416763495800214],"activation_ref":"sigmoid"}],"connection_layers":[{"input_size":8,"output_size":2,"weights":[[0.2480159377600728,-1.5499011980799633],[1.5154659770201824,4.91401027370013],[-15.851493570740054,-4.6842513872198674],[9.820584267280264,-10.251355043200032],[1.3158977958400517,0.26806449380012626],[2.5173396593600885,-2.0725728482397376],[-7.415783077699993,-3.3463486631198784],[-4.387377182239876,3.7385610661000617]],"dyn_weights":[[12.581606271640036,7.160538064819846],[1.3577056620000303,-1.1008840522800925],[-6.63883435882017,2.5070207909398605],[8.093155867859972,0.6223502673399527],[2.107618233539834,4.681815704919919],[4.3054277535401075,-2.7418907636400007],[17.741302590540734,-3.2683400664799507],[5.460966011139984,-5.889203455799909]]}]},"type_":"predator","pos":[343.88844333308475,676.7517498479],"orientation":116.50267495139983,"health":0.908659432,"energy_copy":1.0,"age":10.681295999999998,"gen":309827,"fitness":1.0},"329583734":{"nn":{"node_layers":[{"biases":[11.223656403540627,4.801322111040095,0.21556049785997222,-0.5283928021200013,27.58714287898015,-0.37905125793994354,-0.5217837673799555,4.902460766080451],"activation_ref":"sigmoid"},{"biases":[3.3654814804199726,7.069618191900184],"activation_ref":"sigmoid"}],"connection_layers":[{"input_size":8,"output_size":2,"weights":[[-2.6402442246603957,31.271681010879167],[-13.970401506899789,-28.90725199430063],[31.84082083654003,5.533172077020953],[-8.88238904067917,26.703495922740263],[16.078478621580036,-5.557252370799592],[13.433358011720525,-10.507193106199665],[-0.0553630401795291,1.459563851080547],[13.717418834200846,-24.967355987139864]],"dyn_weights":[[7.052028867259921,-27.916257930538826],[-6.398253876780027,6.214366932860383],[-4.7448242203401,1.2698241458198056],[17.809140668260056,-1.573699628720186],[-5.56800087344052,5.084335961239931],[-18.686930803881037,-1.3579842032594733],[7.786981191879988,-3.069270373519765],[8.417759928900434,24.2018690265808]]}]},"type_":"prey","pos":[371.7543202848339,310.63634887277226],"orientation":303.15117179014464,"health":1.0,"energy_copy":3.8331473749999985,"age":30.665178999999988,"gen":1194689,"fitness":30.665178999999988},"329581999":{"nn":{"node_layers":[{"biases":[-0.47256370232002126,-5.802198444479986,3.0074246191001732,9.629002536420137,0.5052609329399803,-9.45002935099985,-3.1920160971400455,-8.898196176659932],"activation_ref":"sigmoid"},{"biases":[2.5742198617402026,1.0958736326600211],"activation_ref":"sigmoid"}],"connection_layers":[{"input_size":8,"output_size":2,"weights":[[0.1998224211200728,-1.589192028839963],[1.5214654733401825,4.92191082330013],[-15.833308405740057,-4.711789458859868],[9.776851837440267,-10.244330946520032],[1.3523133883200518,0.2288297761201262],[2.542254936040089,-2.049489530919738],[-7.434432836299993,-3.4188503241198784],[-4.432197989359878,3.8765862769000616]],"dyn_weights":[[-12.524834498760036,7.214339640619845],[1.4307778783200302,-1.1582738273200925],[-6.610984641180171,2.5609704398198607],[8.090645571619973,0.5412473578999526],[2.162890284859833,-4.6362047087199185],[4.3103336766201075,-2.7396297377600005],[17.771493156060725,-3.2735842527199517],[-5.432402810939985,-5.858593010919909]]}]},"type_":"predator","pos":[923.4080450052378,529.1459058280683],"orientation":304.80497790949283,"health":0.25526368999999866,"energy_copy":25.0,"age":307.3658329999999,"gen":309826,"fitness":25.0},"329583840":{"nn":{"node_layers":[{"biases":[-0.44999048764002136,-5.756328072319986,2.9856600231801727,9.590221864140135,0.5065985025799804,-9.515674509159853,-3.2445930265800453,-8.911480876819931],"activation_ref":"sigmoid"},{"biases":[2.5438910628202023,1.0726112700200214],"activation_ref":"sigmoid"}],"connection_layers":[{"input_size":8,"output_size":2,"weights":[[0.2223576176400728,-1.5541176357999633],[1.5204473939001824,4.9147933477801296],[-15.840332638420055,-4.672742601779867],[9.804203498960263,-10.237197943000034],[1.2997366905200516,0.29421341436012627],[2.5077510207600886,-2.054779800639738],[-7.397530464259994,-3.3398131485998785],[-4.375376441199877,3.7594413366200614]],"dyn_weights":[[-12.605150371880034,7.184269938299846],[1.3609996093600303,-1.0829366315600926],[6.64152859422017,2.5207131641398606],[8.10778840673997,0.6106664601799527],[2.122292443819834,4.6614781562399195],[4.3103257119001075,-2.7499178658000005],[17.727594635380733,-3.2811340394399506],[5.467144164619984,-5.895196003319909]]}]},"type_":"predator","pos":[437.93910397747817,638.8560018236284],"orientation":225.91095637128572,"health":0.883711342,"energy_copy":0.0,"age":6.460481000000001,"gen":309827,"fitness":0.0},"329583791":{"nn":{"node_layers":[{"biases":[-0.4318473477200213,-5.780333346199987,2.998868555340173,9.590711755180134,0.49104362213998043,-9.487813174159852,-3.2499626472200456,-8.89428688789993],"activation_ref":"sigmoid"},{"biases":[2.5578317315002024,1.0569328401400213],"activation_ref":"sigmoid"}],"connection_layers":[{"input_size":8,"output_size":2,"weights":[[0.2483750101600728,-1.5499540705599633],[1.5188163905401824,4.90780464582013],[-15.839509645420055,-4.657618935939867],[9.806677963520263,-10.260076716800032],[1.3199638861600518,0.2790503616401263],[2.5139341839200884,-2.042574196639738],[-7.403989277019994,-3.3448421464398783],[-4.376685066159877,3.7321826253800614]],"dyn_weights":[[12.586883284640034,7.1526353018598465],[1.3702270457600303,-1.0971299292000924],[-6.61972330506017,2.4971060670998604],[8.107964334979972,0.6192772013399527],[2.123671979939834,4.658325075719919],[4.2783656883401076,-2.7458849635200004],[17.728008108980735,-3.266348250879951],[5.470997307699984,-5.869848798079909]]}]},"type_":"predator","pos":[344.93273202052563,402.5277000042593],"orientation":232.32825105234707,"health":0.666062109999999,"energy_copy":0.0,"age":18.552104999999997,"gen":309827,"fitness":0.0},"329583572":{"nn":{"node_layers":[{"biases":[11.315073105060629,4.768912504360096,0.23801540161997223,-0.4896888175600015,27.499724703740153,-0.3806433329399434,-0.5639581365399554,5.057662487760452],"activation_ref":"sigmoid"},{"biases":[3.3424078698199726,7.036337787100184],"activation_ref":"sigmoid"}],"connection_layers":[{"input_size":8,"output_size":2,"weights":[[-2.552597081100397,31.373269141319167],[-14.006285987739785,-28.82258760506063],[31.76455962938003,5.501812511540953],[-8.88309240339917,26.53009044606027],[16.136763002500036,-5.6025240801995935],[13.441145537760526,-10.442043030399661],[-0.11593322545952903,1.504463415040547],[13.685150762880843,-24.95946765909986]],"dyn_weights":[[-7.057394626419921,-28.050440327298826],[6.495140742700028,6.16532722826038],[4.6789607128201025,1.2216241000998056],[-17.827929072620048,-1.5793002395201858],[-5.510365029880517,5.119317545319929],[-18.708527978521033,-1.4443047752594733],[7.825508676479987,-3.0390401501197646],[8.349186764700432,24.083446777860793]]}]},"type_":"prey","pos":[966.2226971587116,463.06866211090613],"orientation":27.62475801738971,"health":1.0,"energy_copy":7.819448249999995,"age":62.55558599999996,"gen":1194687,"fitness":62.55558599999996},"329583741":{"nn":{"node_layers":[{"biases":[-0.4342877871200213,-5.7918908091199865,3.0084372612601724,9.626491626060133,0.4637711349399804,-9.48097599939985,-3.191998665420045,-8.944975025659932],"activation_ref":"sigmoid"},{"biases":[2.545259583860202,1.1409857970200215],"activation_ref":"sigmoid"}],"connection_layers":[{"input_size":8,"output_size":2,"weights":[[0.17043893028007281,-1.595243391519963],[1.5391499932201824,4.86445406326013],[-15.871731781620054,-4.685087613259868],[9.827931516200263,-10.252372064080031],[1.3704272644800515,0.3013895061601262],[2.4991201963600878,-2.0696696517597384],[-7.427419262939994,-3.414929877279878],[-4.434185810559878,3.732124419740061]],"dyn_weights":[[-12.561671726160036,7.185442065459846],[1.37983897348003,-1.0708112315200924],[-6.639519731020171,2.520530462099861],[-8.03665850285997,0.5890281559399527],[2.127443018499833,4.659777399199919],[4.354814513940107,2.732515892480001],[17.735651904500735,-3.3344501525599513],[5.446974980979984,-5.857773651759909]]}]},"type_":"predator","pos":[778.5012151293377,300.164022245605],"orientation":207.39389671858567,"health":0.4752984339999985,"energy_copy":0.0,"age":29.15008699999999,"gen":309827,"fitness":0.0},"329583822":{"nn":{"node_layers":[{"biases":[11.236176781980625,4.844264654320094,0.13735583613997226,-0.49130263208000147,27.52555381214016,-0.36851667445994346,-0.5279070358199558,4.859267658040452],"activation_ref":"sigmoid"},{"biases":[3.4128606736199725,7.055885980420183],"activation_ref":"sigmoid"}],"connection_layers":[{"input_size":8,"output_size":2,"weights":[[-2.652251034860396,31.383664933039164],[-14.08646428309978,-28.912186399340627],[31.82477756438004,5.482734427340953],[-8.853483307399166,26.633278360660267],[16.130129196420036,-5.582208587799593],[13.450562149640525,-10.481014286439658],[-0.11018684445952906,1.4172952330005468],[13.68645952616084,-25.036688279739863]],"dyn_weights":[[7.101416883699921,-27.97467229465883],[6.547792192380028,6.212668806020381],[-4.668563783660102,1.2415395943398058],[-17.73026920758005,-1.5214916970401864],[-5.505161543520519,5.108169417159932],[18.64705862528104,-1.2934626092194734],[7.917615768679988,-3.0788568059597634],[8.423919477780428,24.170919266500782]]}]},"type_":"prey","pos":[955.0216681425736,841.8714254644045],"orientation":275.0875797751443,"health":1.0,"energy_copy":1.4625151249999997,"age":11.700120999999998,"gen":1194688,"fitness":11.700120999999998},"329583843":{"nn":{"node_layers":[{"biases":[11.242334347980625,4.8019298058800945,0.1884389908999723,-0.47525875724000144,27.53459871542016,-0.3541393641399434,-0.5750212384199556,4.7945621010404516],"activation_ref":"sigmoid"},{"biases":[3.386325935259972,6.991165008060183],"activation_ref":"sigmoid"}],"connection_layers":[{"input_size":8,"output_size":2,"weights":[[-2.6525248115003963,31.33861138039916],[-14.070575173739782,-28.800486476660627],[31.832853036380044,5.439737188900953],[-8.861901685079165,26.57114239370027],[16.192279076820036,-5.583866967279592],[13.467049376600524,-10.494845928319663],[-0.12309753545952906,1.430408551400547],[13.69436373448084,-25.021726595139864]],"dyn_weights":[[7.00419077641992,-27.950361287338833],[6.468365620900027,6.249733296420382],[-4.588360223860102,1.234438033859806],[17.747849773740054,-1.556168512680186],[-5.53724624144052,5.056639329519931],[18.62511307508104,-1.3113492800994733],[7.854986840959986,-3.0213613907197643],[8.389167293700428,24.138869013020784]]}]},"type_":"prey","pos":[969.9575841665801,793.0783167974031],"orientation":-7.138883716289955,"health":1.0,"energy_copy":0.7764648749999999,"age":6.2117189999999995,"gen":1194689,"fitness":6.2117189999999995},"329583837":{"nn":{"node_layers":[{"biases":[11.300291445580626,4.7701483860800975,0.14530141845997224,-0.4430561148000015,27.50287565238016,-0.44805372301994345,-0.5719001050599554,5.011876131480452],"activation_ref":"sigmoid"},{"biases":[3.3197288229799717,7.031220739900183],"activation_ref":"sigmoid"}],"connection_layers":[{"input_size":8,"output_size":2,"weights":[[-2.5513400364603958,31.330984993079163],[-14.022421243179787,-28.826254186340623],[31.726681419820036,5.453356080260953],[-8.86763876491917,26.572881761860266],[16.17627435082003,-5.631603437639591],[13.447805053480526,-10.446604010159664],[-0.13204705741952905,1.526269483680547],[13.696277629360843,-24.906627011259857]],"dyn_weights":[[7.05877812529992,-28.078005070898822],[6.5596497887000265,6.17520701470038],[4.678423103780102,1.2403612562198059],[-17.85789816858005,-1.561921958440186],[-5.536494635040517,5.0682196835199305],[-18.650017458761038,-1.3816698862994736],[7.836994819079987,-3.042875946839765],[8.320806489020434,24.154792227460792]]}]},"type_":"prey","pos":[531.450830556426,466.4051564544631],"orientation":130.0403388166943,"health":1.0,"energy_copy":0.8974298750000002,"age":7.179439000000001,"gen":1194687,"fitness":7.179439000000001},"329583751":{"nn":{"node_layers":[{"biases":[11.261137579620625,4.756140718400096,0.25085564345997224,-0.49974426696000124,27.567500135260147,-0.42317516949994344,-0.5108155975399555,4.915603438400452],"activation_ref":"sigmoid"},{"biases":[3.328464212659972,7.075417210940183],"activation_ref":"sigmoid"}],"connection_layers":[{"input_size":8,"output_size":2,"weights":[[-2.6988633805003954,31.25996130911917],[-13.96452263325979,-28.879487002620632],[31.840515556300026,5.500291494980952],[-8.860549297199167,26.730819668140263],[16.055860100540034,-5.553379160439592],[13.448375798960525,-10.483614420039666],[-0.06872843289952908,1.422474327120547],[13.645905363920846,-24.948804881579864]],"dyn_weights":[[7.044883574699921,-27.926521642578823],[-6.395219224620027,6.192347112660381],[-4.761166124100099,1.2299481621398056],[17.780162868500057,-1.565158194440186],[-5.507252540800521,5.068898181119931],[-18.66513816820104,-1.3537709751794735],[7.821072142199988,-3.0623237589597645],[8.431241670060432,24.1804024076608]]}]},"type_":"prey","pos":[966.2735021791717,610.604357490512],"orientation":112.77125247891944,"health":1.0,"energy_copy":3.396621375,"age":27.172971,"gen":1194689,"fitness":27.172971},"329583868":{"nn":{"node_layers":[{"biases":[-0.45813062712002134,-5.764719996439986,2.9836596245001727,9.575591947540135,0.5053664989399804,-9.516761049559852,-3.2582602517800456,-8.894433934419931],"activation_ref":"sigmoid"},{"biases":[2.5555314694602025,1.0377269535000213],"activation_ref":"sigmoid"}],"connection_layers":[{"input_size":8,"output_size":2,"weights":[[0.2317606596800728,-1.5414786222799632],[1.5014407548601825,4.91776259610013],[-15.855905479100054,-4.649262244419868],[9.787434284000263,-10.242033378720032],[1.3074667815600516,0.2909087049601263],[2.5069788545200886,-2.070380852359738],[-7.386820186259993,-3.3612695534798784],[-4.405095078999877,3.7592584182200617]],"dyn_weights":[[-12.601088764760036,7.166481786779847],[1.3716335839600302,-1.0784492215600925],[-6.63943207630017,2.5293143659798605],[8.087608421259972,0.6314501992199527],[2.105437287299834,4.6741350617599196],[4.2843896225801075,-2.7298793524000007],[17.737775109180735,-3.2652747974399507],[5.471390533259984,-5.882282178319909]]}]},"type_":"predator","pos":[381.01319427166334,637.5621166913653],"orientation":138.0625791803307,"health":0.9464258260000001,"energy_copy":0.0,"age":2.976342999999999,"gen":309827,"fitness":0.0},"329583503":{"nn":{"node_layers":[{"biases":[11.326058855380627,4.807539924000096,0.1935508568599723,-0.5166901435200014,27.585870371540153,-0.3598432196599436,-0.5300007138999555,4.937232893360453],"activation_ref":"sigmoid"},{"biases":[3.413694486059972,7.054936669060184],"activation_ref":"sigmoid"}],"connection_layers":[{"input_size":8,"output_size":2,"weights":[[-2.649244459420396,31.314452106279166],[-14.085505053019789,-28.841937951620633],[31.71244339002003,5.389151640980954],[-8.894168062759167,26.570987813540267],[16.075011590700043,-5.554664815399592],[13.426430763880527,-10.491730944999665],[-0.07352894537952909,1.4492893135605476],[13.634835615720842,-25.09584030881986]],"dyn_weights":[[-7.055045743459919,-28.00525311753882],[6.477457030340027,6.26996535634038],[-4.660021549180099,1.194643927939806],[-17.718629969100043,-1.6370148705601866],[-5.521886750320518,5.079878157199929],[-18.718558856321035,-1.3326906104194733],[7.750264710879988,-2.953502247319764],[8.297547732220435,24.18903565514079]]}]},"type_":"prey","pos":[776.235308360177,781.73210770129],"orientation":21.74307253364077,"health":1.0,"energy_copy":0.1842927499999945,"age":73.47434199999995,"gen":1194687,"fitness":73.47434199999995},"329583554":{"nn":{"node_layers":[{"biases":[11.226633489500626,4.6830257486000955,0.14497939425997222,-0.45167893504000145,27.524372890420146,-0.3780091456999434,-0.5908481616599555,4.85984793200045],"activation_ref":"sigmoid"},{"biases":[3.394166576939971,7.012402452300184],"activation_ref":"sigmoid"}],"connection_layers":[{"input_size":8,"output_size":2,"weights":[[-2.680266794020396,31.430473858559168],[-14.021298048259785,-28.88189451222063],[31.81322600898003,5.412416925060953],[-8.996045154519166,26.647180899260274],[16.14118463534004,-5.590627948759591],[13.533297991240525,-10.50141935059966],[-0.07365748421952907,1.465483698200547],[13.566988080080845,-25.106079361139862]],"dyn_weights":[[-7.08827651121992,-28.00144571649882],[6.448171550420025,6.19224151054038],[-4.705236981700101,1.2322348767798055],[-17.795131992300046,-1.5434311938801866],[-5.391500094160519,5.120134979079931],[-18.68108133644104,-1.2466058370194737],[-7.885997442239987,-3.1051232702797638],[8.318966168060431,24.124219712660775]]}]},"type_":"prey","pos":[411.11047484427024,307.1113506768537],"orientation":106.47835772450536,"health":1.0,"energy_copy":6.421698874999995,"age":67.37359099999999,"gen":1194686,"fitness":67.37359099999999},"329583608":{"nn":{"node_layers":[{"biases":[11.275927435340627,4.816629014680097,0.1986149380599723,-0.5213392716000015,27.580588363820148,-0.3550561206599436,-0.5646576283399554,4.969888889320454],"activation_ref":"sigmoid"},{"biases":[3.396392746179972,7.0942688397401845],"activation_ref":"sigmoid"}],"connection_layers":[{"input_size":8,"output_size":2,"weights":[[-2.6236373959803956,31.283321742399163],[-14.08999807957979,-28.81780328470063],[31.69700573722003,5.357820653420953],[-8.868695320239166,26.655709415980265],[16.027789205300042,-5.5271042756795925],[13.472216191240527,-10.495659837799664],[-0.0583835026595291,1.4021546942805474],[13.691049635520843,-25.12632076137986]],"dyn_weights":[[-7.08718909017992,-27.963994634538825],[6.433497803780027,6.276489438860381],[-4.6299088603801,1.202619479659806],[-17.693560876180047,-1.6070741743201866],[-5.515701253440518,5.13796261427993],[-18.72807995580104,-1.3206877248594733],[7.811171581239988,-2.9656764040397636],[8.306125468340436,24.23312782114079]]}]},"type_":"prey","pos":[527.6301124648119,393.1921899235734],"orientation":-5.966766594456569,"health":1.0,"energy_copy":6.838873499999993,"age":54.710987999999944,"gen":1194687,"fitness":54.710987999999944},"329582034":{"nn":{"node_layers":[{"biases":[-0.4758976662400213,-5.773368668319986,3.010502945940173,9.625645557780137,0.49288578937998034,-9.43040260663985,-3.1896746043800452,-8.907344089299931],"activation_ref":"sigmoid"},{"biases":[2.5860254172202026,1.1113766974600212],"activation_ref":"sigmoid"}],"connection_layers":[{"input_size":8,"output_size":2,"weights":[[0.1931736804000728,-1.604829959559963],[1.5287497898601823,4.930382296700129],[-15.827363730660057,-4.698509813579868],[9.760242288520267,-10.271340090480033],[1.3318342126800518,0.24885866672012621],[2.5253204206000888,-2.012806219519738],[-7.440680845019993,-3.4280691459998787],[-4.414058847879878,3.849118222900062]],"dyn_weights":[[-12.531126486720035,7.200684526019844],[1.4134579795600302,-1.1252414223200926],[-6.624676024340171,2.5619685653398605],[8.098262116459972,0.5787655968599525],[2.152256824099833,-4.671832484599919],[4.324314055060108,-2.7203817488800004],[17.790684824180726,-3.2823148088799514],[-5.461232032699986,-5.85240882235991]]}]},"type_":"predator","pos":[185.04202066344223,647.7526939666524],"orientation":249.84279318193484,"health":0.2515472159999996,"energy_copy":24.0,"age":301.9050339999996,"gen":309826,"fitness":24.0},"329583865":{"nn":{"node_layers":[{"biases":[-0.45438191448002135,-5.781140856519986,3.0023511228601727,9.590005769980134,0.48598249009998046,-9.512644336359852,-3.2351810031800454,-8.87825287717993],"activation_ref":"sigmoid"},{"biases":[2.5413082561402023,1.0640983640600215],"activation_ref":"sigmoid"}],"connection_layers":[{"input_size":8,"output_size":2,"weights":[[0.2358151186400728,-1.5774815295599633],[1.5279297861801824,4.90150430470013],[-15.831413598940054,-4.669710287379868],[9.803025346960263,-10.249449663080032],[1.3167314747200516,0.2712141664001263],[2.5024651907600886,-2.0628662799997377],[-7.417040595019993,-3.3626484703198782],[-4.376826677399877,3.7422278882200617]],"dyn_weights":[[12.578896540400034,7.148181416659846],[1.3531626709600302,-1.0765864806000924],[-6.63232179118017,2.5124936518598604],[8.083569352139971,0.6167625796599527],[2.117163478899834,4.6659683651599195],[4.291401550540107,-2.7178244838400007],[17.740940792620734,-3.279962938319951],[5.4721829908199835,-5.872105057199909]]}]},"type_":"predator","pos":[350.756108552709,652.9534554039237],"orientation":116.95780827720287,"health":0.9290391400000001,"energy_copy":0.0,"age":3.94227,"gen":309827,"fitness":0.0},"329583714":{"nn":{"node_layers":[{"biases":[11.250069533740627,4.823369755520095,0.15116693921997226,-0.47959201912000143,27.55907338078016,-0.3596800419399434,-0.5467425482199556,4.802681232800452],"activation_ref":"sigmoid"},{"biases":[3.395859992979972,7.003370122620183],"activation_ref":"sigmoid"}],"connection_layers":[{"input_size":8,"output_size":2,"weights":[[-2.665816837980396,31.330648647039162],[-14.069351772379783,-28.781124515300625],[31.81841060382004,5.423437675860952],[-8.853928817559165,26.584293407500272],[16.156566464940035,-5.564722811679592],[13.467998125560523,-10.504911720399662],[-0.14459230813952909,1.4369709165205469],[13.67617341984084,-25.01060057985986]],"dyn_weights":[[7.009505754259919,-27.95033911409883],[6.473858830700027,6.224500171060381],[-4.603682000660101,1.2655853538998059],[17.763827857660054,-1.5209529603601863],[-5.50703657112052,5.079036478759931],[-18.60849075872104,-1.2965139090994733],[7.876897742919987,-3.0031203831997644],[8.361780487540429,24.10425118778079]]}]},"type_":"prey","pos":[128.7270496547366,617.3432788603727],"orientation":251.245648240016,"health":1.0,"energy_copy":4.481505,"age":35.85204,"gen":1194687,"fitness":35.85204},"329583612":{"nn":{"node_layers":[{"biases":[-0.4658948984400213,-5.782592567799987,3.0125627034601723,9.605309265860134,0.4747748112199804,-9.474773400319851,-3.1883698741800455,-8.930947719339931],"activation_ref":"sigmoid"},{"biases":[2.559332969860202,1.1675570864600213],"activation_ref":"sigmoid"}],"connection_layers":[{"input_size":8,"output_size":2,"weights":[[0.1707633317200728,-1.566072034239963],[1.5377324744601826,4.8618855768201295],[-15.884131757140056,-4.678879245379868],[9.804222861080262,-10.277571088640032],[1.3568684365600514,0.30790198336012625],[2.4937130024000878,-2.0657090207997384],[-7.425822190059994,-3.409142836279878],[-4.4496985518398775,3.7714692345400613]],"dyn_weights":[[-12.564748784240034,7.207429935139846],[1.37706854300003,-1.0854924555600924],[-6.6488004763001705,2.503533927739861],[-8.05838481677997,0.6178607153399527],[2.1130366615798333,4.666381941159919],[4.349169216540107,-2.7202818672800007],[17.743169600340735,-3.3421524689199513],[5.4289140830199845,-5.84883183315991]]}]},"type_":"predator","pos":[537.3677512636415,893.0780255367777],"orientation":257.19702679226447,"health":0.018525987999999317,"energy_copy":0.0,"age":54.52633399999995,"gen":309827,"fitness":0.0},"329583852":{"nn":{"node_layers":[{"biases":[11.242963168580626,4.824731036400094,0.15502521473997227,-0.4821674342400014,27.51883458582016,-0.3641412003399434,-0.5349268604999556,4.812288496760451],"activation_ref":"sigmoid"},{"biases":[3.3514027084599722,7.035184225300182],"activation_ref":"sigmoid"}],"connection_layers":[{"input_size":8,"output_size":2,"weights":[[-2.664307233980396,31.36271319851916],[-14.046907311659782,-28.785605250260627],[31.82774490094004,5.393996325500953],[-8.882978958599164,26.57990300830027],[16.155278267740034,-5.581952691759591],[13.481955622480525,-10.533024401679663],[-0.16950935069952908,1.4638600917205469],[13.65548533244084,-25.01097717357986]],"dyn_weights":[[7.0151275235799195,-27.99698043345883],[-6.513278838580027,6.23642319146038],[-4.614234470820101,1.2741394666598058],[17.766236198900053,-1.5316729294801863],[-5.49637435540052,5.0938939695199315],[-18.618440506601036,-1.3127035924594734],[7.864545857479987,-3.0446417102397643],[8.413969383860428,24.128920168980788]]}]},"type_":"prey","pos":[727.0133540500017,202.2811979831501],"orientation":196.37072896147427,"health":1.0,"energy_copy":0.6429938750000003,"age":5.143951000000002,"gen":1194688,"fitness":5.143951000000002},"329583681":{"nn":{"node_layers":[{"biases":[11.279842146980625,4.754943728800096,0.23639810073997225,-0.5202348740400012,27.54420478698015,-0.42202439433994343,-0.5456369864999555,4.892313898040452],"activation_ref":"sigmoid"},{"biases":[3.3255373182199723,7.045266259060183],"activation_ref":"sigmoid"}],"connection_layers":[{"input_size":8,"output_size":2,"weights":[[-2.7058692804603957,31.26524595627917],[-13.97391424741979,-28.866882142660632],[31.858675125300028,5.495723118060952],[-8.874647262279169,26.745614752820263],[16.069973116780034,-5.527816916079591],[13.423049404680524,-10.481554808519666],[-0.050306041899529086,1.421277899720547],[13.670613156120847,-24.963547193339863]],"dyn_weights":[[7.038610263619921,-27.935767421298824],[-6.409679730980026,6.198370480700381],[-4.755658316300099,1.2326710747398055],[17.776423281220058,-1.554578108160186],[-5.504761766080521,5.081600560839931],[18.667276888961037,-1.3419936634194736],[7.8244516255599885,-3.0455771703597647],[8.434647103420433,24.1611206489408]]}]},"type_":"prey","pos":[931.9808264606977,474.70012318337405],"orientation":327.43553060955946,"health":1.0,"energy_copy":5.741059874999996,"age":45.92847899999997,"gen":1194689,"fitness":45.92847899999997},"329583347":{"nn":{"node_layers":[{"biases":[-0.45105142212002136,-5.762697945639987,2.970972687740173,9.613339206460134,0.4745610901399803,-9.444665950079854,-3.1940406393800456,-8.925039299699932],"activation_ref":"sigmoid"},{"biases":[2.568887784860203,1.0481969644600213],"activation_ref":"sigmoid"}],"connection_layers":[{"input_size":8,"output_size":2,"weights":[[0.2333955570000728,-1.5554484251599632],[1.5601120501001824,4.8910585867801295],[-15.858249768940055,-4.707207665859867],[9.818185009080265,-10.294235157520033],[1.3562201720400517,0.25484129296012625],[2.5079098968800886,-2.030602259759738],[-7.4284869800999935,-3.3956063792798785],[-4.426699531439877,3.7130585029000613]],"dyn_weights":[[-12.584081455760035,7.179567946219846],[1.3993583773200302,-1.1001308993600925],[-6.631572440740171,2.51331574197986],[8.06476509445997,0.5930450894199527],[2.136440291659834,4.6889406525599195],[4.318338214500106,-2.74575960012],[17.725257348860733,-3.278141074039951],[5.435737752379984,-5.868478577919909]]}]},"type_":"predator","pos":[183.82813612833297,708.9104908231986],"orientation":236.0319645958877,"health":0.5525587139999991,"energy_copy":11.0,"age":95.54612200000004,"gen":309826,"fitness":11.0},"329583725":{"nn":{"node_layers":[{"biases":[11.289189076060627,4.776497725520097,0.15143280833997225,-0.4707315009600015,27.526195819500156,-0.44314375977994347,-0.5736292110199553,4.986453928120452],"activation_ref":"sigmoid"},{"biases":[3.319943601499972,7.008522475820183],"activation_ref":"sigmoid"}],"connection_layers":[{"input_size":8,"output_size":2,"weights":[[-2.579558444300396,31.317903298799163],[-14.005140820219786,-28.844559302340624],[31.742540432020036,5.442361921460953],[-8.88096285255917,26.565321020180267],[16.150052558820033,-5.653716054079592],[13.477754569960526,-10.447289370959663],[-0.16557330345952906,1.5223498582005472],[13.677656922960843,-24.932334040779857]],"dyn_weights":[[7.03894069093992,-28.06137036497882],[6.526592490980026,6.1795828852203805],[4.678342663100102,1.2457667297798058],[-17.83398393350005,-1.558406366960186],[-5.524683040400517,5.03231548899993],[-18.678832503561036,-1.3596823521794736],[7.828345935119987,-3.0176953727197646],[8.358440999220432,24.138296847900794]]}]},"type_":"prey","pos":[322.03394812088345,380.79132529096296],"orientation":254.31377449936244,"health":1.0,"energy_copy":4.088441625000001,"age":32.707533000000005,"gen":1194687,"fitness":32.707533000000005},"329583877":{"nn":{"node_layers":[{"biases":[11.223360590820626,4.832007343360095,0.18686949821997229,-0.4791689945200014,27.54967031998016,-0.3651506580999434,-0.5669562978199556,4.802395290800451],"activation_ref":"sigmoid"},{"biases":[3.355038586059972,7.007494160420182],"activation_ref":"sigmoid"}],"connection_layers":[{"input_size":8,"output_size":2,"weights":[[-2.668812925620396,31.337908484679158],[-14.053514206099782,-28.816866588900623],[31.81521456366004,5.394539367220952],[-8.893591863199164,26.57657354874027],[16.158119122380036,-5.5680533239595915],[13.450320375240524,-10.530112418919662],[-0.16399503413952907,1.450561060080547],[13.67110791912084,-25.004709432099858]],"dyn_weights":[[6.9930851575399195,-27.98312385297883],[-6.486423707500027,6.23807914382038],[-4.630632998780102,1.276289021299806],[17.798221891700052,-1.5292393725601863],[-5.51649745624052,5.119815649839931],[-18.62604761976104,-1.3015903542194733],[7.864166484439987,-3.013676576559764],[8.403823551500427,24.098248932580788]]}]},"type_":"prey","pos":[649.5524769674748,251.56552845219448],"orientation":116.46675063971254,"health":1.0,"energy_copy":0.127252,"age":1.018016,"gen":1194688,"fitness":1.018016},"329583585":{"nn":{"node_layers":[{"biases":[11.222552854940625,4.805635848560094,0.10816622433997224,-0.4627667307200015,27.566197379140156,-0.38203128165994343,-0.5290788271399557,4.789550514760452],"activation_ref":"sigmoid"},{"biases":[3.439756488139972,7.076553312780183],"activation_ref":"sigmoid"}],"connection_layers":[{"input_size":8,"output_size":2,"weights":[[-2.625571285580396,31.37664976723916],[-14.037766986539781,-28.884623198540627],[31.79368688402004,5.473567721300953],[-8.834390555079166,26.678196365980266],[16.107166055740034,-5.596398465519592],[13.487006872120526,-10.47552983923966],[-0.09360370841952906,1.4535190860005471],[13.67411792424084,-25.029443173019864]],"dyn_weights":[[-7.1138791037399205,-27.923119960498834],[6.577767647020027,6.212566324860381],[-4.670499008260101,1.287439527019806],[-17.75029596894005,-1.501757316320186],[-5.509222062200519,5.1042278809199315],[18.662334449601037,-1.2949831795794733],[7.915344371879987,-3.057225255159763],[8.388746387020428,24.161931789540784]]}]},"type_":"prey","pos":[907.4836680824656,294.6896051738493],"orientation":219.02899009484096,"health":1.0,"energy_copy":7.356568249999997,"age":58.852545999999975,"gen":1194687,"fitness":58.852545999999975},"329583774":{"nn":{"node_layers":[{"biases":[-0.4364424771600213,-5.759765328879986,3.0181401877401726,9.589801271940134,0.5088183496199804,-9.508213539359852,-3.2245083713000455,-8.884188991699931],"activation_ref":"sigmoid"},{"biases":[2.5429947355002023,1.0483401503000214],"activation_ref":"sigmoid"}],"connection_layers":[{"input_size":8,"output_size":2,"weights":[[0.2220568790400728,-1.5651553924799633],[1.5223216087801825,4.90323691470013],[-15.863361780780053,-4.6560060449798675],[9.794018357960264,-10.233688551960032],[1.3238584476800517,0.2681212193201263],[2.5168580404800887,-2.042392750239738],[-7.400500483539994,-3.3550182522398786],[-4.373243400359876,3.7348547843800617]],"dyn_weights":[[12.601209645600035,7.1575592806998465],[1.3387610572400304,-1.0927571872800925],[-6.65505818206017,2.4957050315798606],[8.10097329345997,0.6408862934199527],[2.133497030779834,4.646000323599919],[4.277145263620107,-2.716755519520001],[17.731895820660736,-3.264139967799951],[5.436744135899984,-5.868664386479909]]}]},"type_":"predator","pos":[389.2316168498187,523.8169060208041],"orientation":22.743801560356324,"health":0.589043889999999,"energy_copy":0.0,"age":22.83089500000001,"gen":309827,"fitness":0.0},"329582711":{"nn":{"node_layers":[{"biases":[-0.40522429564002144,-5.604543697559989,3.0156302397801737,9.54147337094014,0.3857193810199802,-9.614092829959857,-3.3503077855000454,-8.542767410499927],"activation_ref":"sigmoid"},{"biases":[2.5880100403002024,0.9869256459800216],"activation_ref":"sigmoid"}],"connection_layers":[{"input_size":8,"output_size":2,"weights":[[0.05237246656007273,-1.7248848354399624],[1.536700606820182,5.097144221980131],[-15.94041098578006,-4.588616786779864],[9.585924749600254,-10.441943291880023],[1.4034425131600516,0.11381989580012622],[2.5516478132400873,-1.8056163281197375],[-7.402400330899994,-3.3196959113198803],[-4.471599701119884,3.613823944660062]],"dyn_weights":[[-12.387069002080038,7.286076107219845],[1.0990239298400295,-1.1767762710400926],[6.616277175300169,2.4185126951398614],[-8.12376596989997,0.6277910449399523],[2.155733256019835,-4.7413589780399175],[4.151996134100106,-2.5600410362400003],[17.815355890460722,-3.3127370910399505],[-5.289195385419985,-5.9675711403199125]]}]},"type_":"predator","pos":[151.13640943417172,712.2891053283644],"orientation":-76.90519698181171,"health":0.529467737999999,"energy_copy":23.0,"age":191.5033420000002,"gen":309825,"fitness":23.0},"329583808":{"nn":{"node_layers":[{"biases":[11.28759178942063,4.712744679320095,0.12590462989997225,-0.5290196139600013,27.551501994140153,-0.35983079789994343,-0.6346295668999555,4.835412566400452],"activation_ref":"sigmoid"},{"biases":[3.443484853339972,7.019234392540183],"activation_ref":"sigmoid"}],"connection_layers":[{"input_size":8,"output_size":2,"weights":[[-2.6469863138203964,31.415384452199167],[-14.038779685379787,-28.83346862810063],[31.84256675030003,5.428288075140952],[-8.973257891639166,26.679555376340275],[16.11700509294004,-5.609783687439592],[13.470227926680526,-10.544862166559662],[-0.055146219139529065,1.4644255774805468],[13.626894849480847,-25.10659634593987]],"dyn_weights":[[-7.101461749019921,-28.02654271865882],[6.528512008340026,6.25676373510038],[-4.696174668460102,1.2618812467798053],[-17.78684377834005,-1.5424420084401866],[-5.37302192392052,5.14251858371993],[-18.67872557336104,-1.2405913096194736],[7.851107236679987,-3.048666198599764],[8.363702156060432,24.120778769740777]]}]},"type_":"prey","pos":[513.1436454911028,781.445708130254],"orientation":318.3604230928404,"health":1.0,"energy_copy":1.8280866249999999,"age":14.624692999999999,"gen":1194685,"fitness":14.624692999999999},"329583755":{"nn":{"node_layers":[{"biases":[11.341977871340626,4.810389781520096,0.19460585121997231,-0.5333085081600014,27.591183331660154,-0.3665001954199436,-0.5414553244599555,4.934865028560453],"activation_ref":"sigmoid"},{"biases":[3.397360735819972,7.058180191540184],"activation_ref":"sigmoid"}],"connection_layers":[{"input_size":8,"output_size":2,"weights":[[-2.642383389740396,31.298742089719166],[-14.06990451593979,-28.85114313202063],[31.723859267300032,5.372189000660954],[-8.908590692799168,26.586898567940267],[16.061202072580045,-5.571362105559592],[13.433846827600526,-10.477492975199665],[-0.05937220389952909,1.4432792488005475],[13.619131389320842,-25.09662774721986]],"dyn_weights":[[-7.044549368419919,-28.02225031673882],[6.493685010220027,6.28359570650038],[-4.647701871820099,1.203918103259806],[-17.721701284540043,-1.6491550036001865],[-5.506462426880518,5.06498591115993],[-18.735217689561036,-1.3414485086594734],[7.730479351639988,-2.9593201142397643],[8.308393081300435,24.198237913180787]]}]},"type_":"prey","pos":[378.7582362936655,322.70957022418213],"orientation":132.50957818617815,"health":1.0,"energy_copy":3.3336512500000004,"age":26.669210000000003,"gen":1194688,"fitness":26.669210000000003},"329583798":{"nn":{"node_layers":[{"biases":[11.237291190540626,4.796924166120095,0.22387340157997224,-0.5260674338400013,27.60581555398015,-0.35952556977994354,-0.5476390565399556,4.896783196640452],"activation_ref":"sigmoid"},{"biases":[3.334702711699972,7.080305975580184],"activation_ref":"sigmoid"}],"connection_layers":[{"input_size":8,"output_size":2,"weights":[[-2.676082986340396,31.293774116079167],[-13.965392824419789,-28.86779426854063],[31.83685834266003,5.526107046460952],[-8.90320692075917,26.723336161060267],[16.05743095370003,-5.560199922519592],[13.456435816400523,-10.522070239519666],[-0.0644757872595291,1.4079015174005471],[13.670615632800846,-24.970333743699864]],"dyn_weights":[[7.039284274339921,-27.937930059698825],[-6.408497784340027,6.215751177820383],[-4.7374885956201,1.2611002007398058],[17.772955016820056,-1.567542997960186],[-5.56351039808052,5.104444999439931],[-18.656646150881038,-1.3318436586994735],[7.793214318479988,-3.0431662823197643],[8.420432892900434,24.207983568660797]]}]},"type_":"prey","pos":[139.67758654837334,643.4869727914296],"orientation":215.77164067759327,"health":1.0,"energy_copy":2.056335375,"age":16.450683,"gen":1194689,"fitness":16.450683},"329582467":{"nn":{"node_layers":[{"biases":[-0.4725459932400213,-5.800491784919987,3.0034882260601723,9.608282727940134,0.4504392402999804,-9.457577209479851,-3.198613953420045,-8.933127649339932],"activation_ref":"sigmoid"},{"biases":[2.5423484587802023,1.1425281425000213],"activation_ref":"sigmoid"}],"connection_layers":[{"input_size":8,"output_size":2,"weights":[[0.1694713742000728,-1.608536385359963],[1.5172326324201824,4.837734109540129],[-15.887816126460056,-4.666012692579868],[9.829763670880263,-10.279590405120032],[1.3710291072800516,0.29248124932012626],[2.485376644320088,-2.0487581765197382],[-7.371835940219993,-3.436667374839878],[-4.423433467559878,3.7636279767400613]],"dyn_weights":[[-12.562326936240035,7.208249139819847],[1.40620540540003,-1.0881934490800924],[-6.656841357380171,2.4961000102598607],[-8.07447345273997,0.6106501642599528],[2.1396189658998335,4.65575633051992],[4.3431678557001065,-2.6869029556000004],[17.739005397060733,-3.335918076439951],[5.459997695939984,-5.858758428519909]]}]},"type_":"predator","pos":[215.63906657081776,398.11779392741005],"orientation":240.12686181970042,"health":0.26030159199999997,"energy_copy":18.0,"age":229.49406399999998,"gen":309826,"fitness":18.0},"329583580":{"nn":{"node_layers":[{"biases":[-0.49998238428002134,-5.740006496279986,2.9992014330201724,9.611162132780136,0.49619138665998036,-9.443290619039852,-3.216697366940045,-8.896727356779932],"activation_ref":"sigmoid"},{"biases":[2.573008634580203,1.1287198667400211],"activation_ref":"sigmoid"}],"connection_layers":[{"input_size":8,"output_size":2,"weights":[[0.19988105852007282,-1.5702763033599632],[1.5437612464601824,4.893172843780129],[-15.848128719060057,-4.668596461259868],[9.830529878280265,-10.263869821400032],[1.3310755484400514,0.25799416320012625],[2.475393956360088,-2.078727521919738],[-7.4290223853799935,-3.4257960259998783],[-4.401538380399878,3.768591541300061]],"dyn_weights":[[-12.544581282320037,7.1720990307798465],[1.43371071696003,-1.1069665899200927],[-6.66558518022017,2.5192091259398603],[8.08095798721997,0.5963513454999527],[2.1173793270198336,4.67808470007992],[4.354708984380107,-2.7326942182400003],[17.731258806620733,-3.3167551460799514],[5.409994138739984,-5.923056532519909]]}]},"type_":"predator","pos":[29.78361641060761,965.6625231576082],"orientation":352.6290531327763,"health":0.4133792219999996,"energy_copy":2.0,"age":60.367820999999964,"gen":309826,"fitness":2.0},"329583821":{"nn":{"node_layers":[{"biases":[-0.41429690684002146,-5.595524263919989,3.0294708503401737,9.51243182358014,0.3936015233399802,-9.613790773679856,-3.3380115704600453,-8.537657208139928],"activation_ref":"sigmoid"},{"biases":[2.5741795235402023,0.9750432907800216],"activation_ref":"sigmoid"}],"connection_layers":[{"input_size":8,"output_size":2,"weights":[[0.056014556640072724,-1.7119448329199625],[1.513645563460182,5.093457287060131],[-15.96725732886006,-4.610794625499865],[9.568883139960255,-10.426716750280022],[1.4168810316400515,0.09463982792012622],[2.5605313348800873,-1.8084516005197375],[-7.384211556419994,-3.33151127579988],[-4.474246367919884,3.623556958340062]],"dyn_weights":[[-12.402212551640039,7.286192748499845],[1.1260305598800295,-1.1920526770000925],[6.593155632300169,2.4401217974598617],[-8.12250392453997,0.6250754962599523],[2.1531750178998346,-4.739003823039917],[4.1594659002201055,-2.5812381068800003],[17.81348957134072,-3.2968872534799503],[-5.306229959339985,-5.954526260799913]]}]},"type_":"predator","pos":[555.8673587476071,213.6402067808135],"orientation":59.60113771355475,"health":0.7863191019999999,"energy_copy":0.0,"age":11.871160999999995,"gen":309825,"fitness":0.0},"329583804":{"nn":{"node_layers":[{"biases":[-0.41095615052002143,-5.606476933239989,3.023001208900174,9.53081426126014,0.41156923389998024,-9.617588894079857,-3.3350608201000456,-8.536034880499928],"activation_ref":"sigmoid"},{"biases":[2.5953301149402024,0.9740295018200216],"activation_ref":"sigmoid"}],"connection_layers":[{"input_size":8,"output_size":2,"weights":[[0.05562072588007272,-1.6900707596399624],[1.533147298260182,5.102258814820131],[-15.97225496870006,-4.604780352659865],[9.594295983520254,-10.460578527040022],[1.4125365006800517,0.11977879376012622],[2.5531538276400876,-1.8263311509197375],[-7.379196943939994,-3.34035777311988],[-4.487916021559884,3.613260624180062]],"dyn_weights":[[-12.372881965600039,7.252285409899844],[1.1145673412400294,-1.1863095705200926],[6.5981677589401695,2.4161026870598614],[-8.13380377209997,0.6226407927399523],[2.138233611539835,-4.738923822679918],[4.155451616860106,-2.55751441512],[17.818999320740723,-3.2882222653599507],[-5.305107812779986,-5.970411685159913]]}]},"type_":"predator","pos":[28.35114206032694,923.1505425837634],"orientation":261.8028708232231,"health":0.7312842819999997,"energy_copy":0.0,"age":14.928650999999999,"gen":309825,"fitness":0.0},"329583864":{"nn":{"node_layers":[{"biases":[11.244210803460627,4.806062694520095,0.16808593049997228,-0.4922869093600014,27.52764528710016,-0.3465172162599434,-0.5517480505799557,4.8279864965204515],"activation_ref":"sigmoid"},{"biases":[3.380631153339972,7.0059807871001825],"activation_ref":"sigmoid"}],"connection_layers":[{"input_size":8,"output_size":2,"weights":[[-2.6627088298603963,31.33606728823916],[-14.066659417739782,-28.807663864180626],[31.82076534582004,5.405392387660953],[-8.873338682159165,26.56553750454027],[16.142627606980035,-5.5495708904795915],[13.473654583920524,-10.514927479559661],[-0.16029554397952905,1.4614205074005469],[13.68183274732084,-25.02131936329986]],"dyn_weights":[[7.01237816697992,-27.96063308457883],[-6.507635967380027,6.226925540500381],[-4.601559220980101,1.260184107699806],[17.771137009860052,-1.5081054952001862],[-5.51100960784052,5.098905643199931],[-18.649411145441036,-1.2924881647794735],[7.8609029187599875,-3.0210384860397643],[8.387306107620427,24.110731711660787]]}]},"type_":"prey","pos":[824.2736382310627,231.8859861786466],"orientation":22.155291755882878,"health":1.0,"energy_copy":0.49278375,"age":3.94227,"gen":1194688,"fitness":3.94227},"329583736":{"nn":{"node_layers":[{"biases":[-0.4522886641600213,-5.803142384599987,3.0204892907401724,9.627299442860133,0.4722611785799804,-9.48728479375985,-3.188783099940045,-8.948259800979931],"activation_ref":"sigmoid"},{"biases":[2.537339315380202,1.1519679546600214],"activation_ref":"sigmoid"}],"connection_layers":[{"input_size":8,"output_size":2,"weights":[[0.16607372084007282,-1.593867966239963],[1.5333342082201824,4.8421397232601295],[-15.884118826620055,-4.695973704739868],[9.800975137920261,-10.243666789480033],[1.3753639064800514,0.30485338568012627],[2.499182431040088,-2.053877984599738],[-7.414010192139994,-3.434729523519878],[-4.435025405879878,3.7673104971800613]],"dyn_weights":[[-12.562581923000035,7.199811255539846],[1.3781124260000301,-1.0769483965600926],[-6.65689719026017,2.5084810908198607],[-8.05227316409997,0.6026914657799527],[2.102171969899833,4.66376351675992],[4.323470798260106,-2.6997574245600005],[17.713596160020735,-3.342486003879951],[5.443968716459985,-5.85749310043991]]}]},"type_":"predator","pos":[182.0990987312492,456.5224532761969],"orientation":154.00563767574505,"health":0.899770456,"energy_copy":2.0,"age":30.249327999999984,"gen":309827,"fitness":2.0},"329583779":{"nn":{"node_layers":[{"biases":[11.266971550340628,4.717475632600094,0.09860016409997227,-0.5172597780000013,27.555212925980154,-0.37114108925994344,-0.6077409464599555,4.8457750388804515],"activation_ref":"sigmoid"},{"biases":[3.414777631939972,7.043053385980183],"activation_ref":"sigmoid"}],"connection_layers":[{"input_size":8,"output_size":2,"weights":[[-2.667808397980396,31.427043392279167],[-14.044802639699787,-28.82675441110063],[31.83071121322003,5.401545724860952],[-8.982145889759167,26.680218268900273],[16.100153234660038,-5.614948393079592],[13.502161817000525,-10.528623935119661],[-0.03364209533952907,1.4453595667205468],[13.608929725480845,-25.07676414013987]],"dyn_weights":[[-7.128184137899921,-28.02668957937882],[6.524988462700025,6.24998096318038],[-4.705733212060102,1.2608381375798052],[-17.78402768914005,-1.5618174049201865],[-5.39582111472052,5.15860167995993],[-18.69025005440104,-1.2458553786594735],[7.858888005439987,-3.053775716439764],[8.374244289700432,24.10426831130078]]}]},"type_":"prey","pos":[401.75310698660036,137.83883219245354],"orientation":313.4665033188712,"health":1.0,"energy_copy":2.7520082500000016,"age":22.016066000000013,"gen":1194685,"fitness":22.016066000000013},"329583597":{"nn":{"node_layers":[{"biases":[11.198194788620626,4.7098924548400944,0.14145222489997222,-0.4475867468400015,27.52587061502015,-0.3366941843799434,-0.5815158020199556,4.893761313400452],"activation_ref":"sigmoid"},{"biases":[3.3903617024999715,7.060351332300184],"activation_ref":"sigmoid"}],"connection_layers":[{"input_size":8,"output_size":2,"weights":[[-2.6598255596203964,31.413392991479167],[-14.000077397299785,-28.820510416220625],[31.80722679566003,5.404625492460952],[-8.968653625799167,26.65487722058027],[16.105350517300042,-5.585852572919592],[13.515882883920526,-10.52040166879966],[-0.02670549729952908,1.4645524454805472],[13.614341178840846,-25.142101572299865]],"dyn_weights":[[-7.1056678911399205,-28.02537723041882],[6.442827019940026,6.21768086846038],[-4.694815700700101,1.2558332228198055],[-17.78608703622005,-1.5049764403601866],[-5.38776426252052,5.177241680599931],[18.713515788121043,-1.2460957787394737],[-7.930650805319988,-3.069104845799764],[8.35801713774043,24.122054885340773]]}]},"type_":"prey","pos":[609.6301746529625,272.17174096754655],"orientation":92.69479185808419,"health":1.0,"energy_copy":7.0683069999999955,"age":56.546455999999964,"gen":1194686,"fitness":56.546455999999964},"329583713":{"nn":{"node_layers":[{"biases":[-0.4625802887600213,-5.778757144159987,2.993152590900172,9.623236928940134,0.46817260301998037,-9.47973101407985,-3.2196258669400453,-8.957893210619932],"activation_ref":"sigmoid"},{"biases":[2.530745047420202,1.1351578125000215],"activation_ref":"sigmoid"}],"connection_layers":[{"input_size":8,"output_size":2,"weights":[[0.1778890792400728,-1.590484666359963],[1.5059570279001826,4.846081889420129],[-15.887993121500054,-4.675101525779867],[9.813233774000262,-10.258413112440032],[1.3613601647600515,0.2790002437601262],[2.512522320720088,-2.047946344719738],[-7.412524853179994,-3.448467011399878],[-4.458193845359878,3.755670654060061]],"dyn_weights":[[-12.557521401200034,7.191110516339846],[1.3661391338800302,-1.0741008839600925],[-6.6488630376601705,2.488803033579861],[-8.05375721473997,0.6140000715399527],[2.098965711579833,4.6601957575199195],[4.348067570260106,-2.7386993237200006],[17.737126327060736,-3.3283543027599514],[5.438318580059985,-5.859090095159909]]}]},"type_":"predator","pos":[691.5215016362031,994.6778130413866],"orientation":226.81363184544395,"health":0.6006273740000003,"energy_copy":1.0,"age":36.076257,"gen":309827,"fitness":1.0},"329583008":{"nn":{"node_layers":[{"biases":[-0.3875350453600215,-5.590979652079989,3.0108220613801735,9.511022602180141,0.3892058605399802,-9.620572062359857,-3.3146780270200455,-8.540987020059926],"activation_ref":"sigmoid"},{"biases":[2.5654007134602024,0.9780499819000216],"activation_ref":"sigmoid"}],"connection_layers":[{"input_size":8,"output_size":2,"weights":[[0.03499672152007272,-1.6884359157599624],[1.522654278700182,5.099365050340131],[-15.95632728774006,-4.610039689699864],[9.588107626800253,-10.446400984160022],[1.4025854022400515,0.11526686344012622],[2.5707624815600876,-1.8028041928397376],[-7.382645046979994,-3.32606620827988],[-4.480244605279884,3.634092184380062]],"dyn_weights":[[-12.382492267760039,7.282049260299845],[1.1303578265600294,-1.1799747982000925],[6.611332689860169,2.4337899840998616],[-8.13980076741997,0.6341119373799523],[2.1235096758198346,-4.734261263999917],[4.181992813300106,-2.56480844012],[17.812480459940723,-3.3131282472399506],[-5.310346163539985,-5.936511735279913]]}]},"type_":"predator","pos":[925.5948645562734,505.02535583272976],"orientation":-42.832901182398686,"health":0.4168004039999985,"energy_copy":12.0,"age":146.2843220000001,"gen":309825,"fitness":12.0},"329583516":{"nn":{"node_layers":[{"biases":[-0.3907416264800215,-5.601210106119989,3.0264023606201738,9.52224139406014,0.3850657240599802,-9.619451155279856,-3.3171263956200456,-8.546730909259928],"activation_ref":"sigmoid"},{"biases":[2.5757173304602023,0.9650634547000216],"activation_ref":"sigmoid"}],"connection_layers":[{"input_size":8,"output_size":2,"weights":[[0.04298353920007272,-1.7214873865999625],[1.550515411580182,5.078619826100131],[-15.94860668438006,-4.617482323619864],[9.570234137680254,-10.452407522680023],[1.3982449250800515,0.12475171248012622],[2.5555292365600875,-1.8207372639597375],[-7.412945007619994,-3.31806489359988],[-4.4635735540398835,3.630458665500062]],"dyn_weights":[[-12.383844740720038,7.260179287059844],[1.1137667582400295,-1.1929073279200926],[6.599726672220169,2.4205729120198614],[-8.12289648293997,0.6240627780999523],[2.1481423886998345,-4.723946931439918],[4.147506660820106,-2.5612194268],[17.813138399940723,-3.3062364475199506],[-5.304458278299985,-5.944864150519913]]}]},"type_":"predator","pos":[992.6540216155369,945.0898701441208],"orientation":277.30298669084704,"health":0.32654599999999984,"energy_copy":3.0,"age":72.26635199999997,"gen":309825,"fitness":3.0},"329583839":{"nn":{"node_layers":[{"biases":[-0.4258775789200213,-5.7650461385999865,2.9941290570601726,9.587197058380134,0.48607337429998043,-9.498467014839852,-3.2268111431000457,-8.88692219057993],"activation_ref":"sigmoid"},{"biases":[2.5467543991402026,1.0400667191000215],"activation_ref":"sigmoid"}],"connection_layers":[{"input_size":8,"output_size":2,"weights":[[0.2236848872800728,-1.5437947356799633],[1.5192113015801825,4.9041673824201295],[-15.866512519220054,-4.652962554899868],[9.784669249560263,-10.261458401120032],[1.3174452804800516,0.28485089552012627],[2.5174508690400885,-2.0413222848797377],[-7.4156727716999935,-3.3638357733198783],[-4.374326896239877,3.7320457445400614]],"dyn_weights":[[12.586615086720036,7.177536454899847],[1.3604814254400304,-1.0961660150000925],[-6.61822603438017,2.5037891137798605],[8.09394299517997,0.6491171897399527],[2.135388694739834,-4.68508368515992],[4.270945475580107,-2.7214560471200007],[17.738002074220734,-3.2618605148399507],[5.449919131579984,-5.879447553159909]]}]},"type_":"predator","pos":[177.8754661619536,649.641002834457],"orientation":-145.5490755174788,"health":0.879231574,"energy_copy":0.0,"age":6.709357000000002,"gen":309827,"fitness":0.0},"329583828":{"nn":{"node_layers":[{"biases":[-0.41897360380002135,-5.746571715759986,3.0145061617801727,9.598270244540135,0.47639390053998043,-9.490654367919852,-3.2497628013000455,-8.91455403085993],"activation_ref":"sigmoid"},{"biases":[2.5283920495402024,1.0631006031000214],"activation_ref":"sigmoid"}],"connection_layers":[{"input_size":8,"output_size":2,"weights":[[0.2263214488400728,-1.5671520032399633],[1.5136968589401825,4.91024090942013],[-15.851025119660054,-4.684087783699868],[9.802236760320262,-10.269225086080032],[1.3277919431600518,0.2866673315601263],[2.4999097832000885,-2.059079195359738],[-7.382790515739994,-3.370678751999878],[-4.383841185439877,3.7308617866600615]],"dyn_weights":[[12.607372619920035,7.185695965779846],[1.3509358756000303,-1.0881670256000926],[-6.63768176230017,2.5145888310598603],[8.107174740419971,0.6362667848999527],[2.127526810339834,4.675137041199919],[4.301664745340108,-2.7418709875200005],[17.744126676380734,-3.298346110799951],[5.441856047659984,-5.890415130519909]]}]},"type_":"predator","pos":[363.5406955285292,670.0919359151001],"orientation":132.9071333990942,"health":0.8252517699999996,"energy_copy":0.0,"age":9.708234999999998,"gen":309827,"fitness":0.0},"329583711":{"nn":{"node_layers":[{"biases":[-0.42919117128002127,-5.784017599159987,3.0253560559801724,9.601880136780133,0.4504325736599804,-9.46639048059985,-3.219294844380045,-8.944786734899932],"activation_ref":"sigmoid"},{"biases":[2.527283059940202,1.1377929978200214],"activation_ref":"sigmoid"}],"connection_layers":[{"input_size":8,"output_size":2,"weights":[[0.1847509628800728,-1.576326027079963],[1.5332334880201826,4.87428058298013],[-15.870511003420054,-4.686027995139868],[9.806407825120262,-10.260640744600032],[1.3767755423600514,0.3014560722801262],[2.4965666790400878,-2.0641207677197384],[-7.406845757579993,-3.448214015279878],[-4.452143424439877,3.741441728700061]],"dyn_weights":[[-12.552109937040035,7.210369872099846],[1.3658151011200301,-1.0748886564800926],[-6.66223605894017,2.497893611259861],[-8.056945842739971,0.6167506314599527],[2.1078038350998334,4.65206824439992],[4.337707273300106,-2.7354886437200006],[-17.719419010140737,-3.3386542771999514],[5.422738333979984,-5.857586132799909]]}]},"type_":"predator","pos":[455.18151504349595,225.76561201465887],"orientation":182.96250404546208,"health":0.537079689999999,"energy_copy":1.0,"age":36.27470799999999,"gen":309827,"fitness":1.0},"329583445":{"nn":{"node_layers":[{"biases":[11.303154541220627,4.749000254440096,0.20040534321997222,-0.44892532052000145,27.528158572540153,-0.3977757969399434,-0.5519275819399554,5.025416717200452],"activation_ref":"sigmoid"},{"biases":[3.3479437994999723,7.002738074580184],"activation_ref":"sigmoid"}],"connection_layers":[{"input_size":8,"output_size":2,"weights":[[-2.5778928831003967,31.373230439239165],[-14.007507520699786,-28.853428200580627],[31.777640043340032,5.4979303364609535],[-8.87989443127917,26.57379480250027],[16.140292621340034,-5.631512038159593],[13.429401029280525,-10.422799451799662],[-0.12191996617952904,1.5111818218005468],[13.695166082400844,-24.994107027739858]],"dyn_weights":[[-7.04709456489992,-28.050392402058826],[6.498650736860028,6.13908033414038],[4.658365319380103,1.2547991984998057],[-17.818323857980047,-1.608818327720186],[-5.541505398400518,5.1059302127999295],[-18.709820143401032,-1.4058382167394734],[7.8017161300399875,-3.040636333199765],[8.335533422700433,24.131478469420795]]}]},"type_":"prey","pos":[146.72006015350817,617.5489258245047],"orientation":259.5839329678498,"health":1.0,"energy_copy":0.11790425,"age":80.94323399999995,"gen":1194686,"fitness":80.94323399999995},"329583754":{"nn":{"node_layers":[{"biases":[-0.4431090426800213,-5.757273473079986,3.0061833249801726,9.585526449500135,0.48790283701998044,-9.512169050399851,-3.2278439731400455,-8.908588218659931],"activation_ref":"sigmoid"},{"biases":[2.5585580586202026,1.0705250972600213],"activation_ref":"sigmoid"}],"connection_layers":[{"input_size":8,"output_size":2,"weights":[[0.2450016852400728,-1.5769632789599632],[1.5314087784201824,4.93448237266013],[-15.851924433620054,-4.658275070579868],[9.814917628040263,-10.243919530080033],[1.3127905428000517,0.2936811144001263],[2.5208357741200884,-2.061322277679738],[-7.403115065979994,-3.3561569430398785],[-4.405326286479877,3.7516810771800615]],"dyn_weights":[[12.603027969440035,7.173867263659846],[1.3483656560800303,-1.0896071714000926],[-6.63836850014017,2.5268039918998606],[8.106213359019971,0.6269994840199526],[2.124221527779834,4.682241907039919],[4.272776113340107,-2.723324924400001],[17.726275138620736,-3.2771453592399507],[5.447323699979984,-5.876131715119909]]}]},"type_":"predator","pos":[646.8681246971995,957.1211675565598],"orientation":121.41080638391225,"health":0.515436795999999,"energy_copy":0.0,"age":26.920178000000003,"gen":309827,"fitness":0.0},"329583790":{"nn":{"node_layers":[{"biases":[-0.4302988439200213,-5.755696794119986,2.9802580865401724,9.610735368580135,0.47716454037998046,-9.496416666719853,-3.2201168128200455,-8.90541122409993],"activation_ref":"sigmoid"},{"biases":[2.5266923251002025,1.0517981367800213],"activation_ref":"sigmoid"}],"connection_layers":[{"input_size":8,"output_size":2,"weights":[[0.2373566517200728,-1.5584052364799632],[1.5242271499401825,4.92536735870013],[-15.863122799580054,-4.680525228339867],[9.814627159480263,-10.269762726240034],[1.3128543003200517,0.2833306363201263],[2.5032005050400885,-2.0372061267597377],[-7.396654025339994,-3.3561527892398786],[-4.369167961639877,3.7427887028600617]],"dyn_weights":[[12.580790922360036,7.158116328699847],[1.3479923724400302,-1.0756795009200926],[-6.63664472426017,2.5099608808198606],[8.077107102699971,0.6482697219799527],[2.108393450139834,4.652461635679919],[4.284348973100108,-2.7199623177200007],[17.747892566580735,-3.292058411079951],[5.448363890859984,-5.875016862999909]]}]},"type_":"predator","pos":[190.4634870506785,444.4106241712946],"orientation":146.01552311460762,"health":0.8913634300000002,"energy_copy":4.0,"age":19.000248,"gen":309827,"fitness":4.0},"329583284":{"nn":{"node_layers":[{"biases":[-0.44737107272002136,-5.770111243039986,2.9508690055801727,9.618139037020134,0.47052018041998034,-9.454098637279854,-3.2255385060600457,-8.919250562579931],"activation_ref":"sigmoid"},{"biases":[2.580898824460203,1.0405708775000213],"activation_ref":"sigmoid"}],"connection_layers":[{"input_size":8,"output_size":2,"weights":[[0.2251739297600728,-1.566766972199963],[1.5589549799001825,4.891275433100129],[-15.883039429580057,-4.672937272659867],[9.828266042200266,-10.275148287640032],[1.3520313832000517,0.27835712824012626],[2.5191170274000885,-2.0299826048797383],[-7.433104162299993,-3.4228472519598783],[-4.431999984759877,3.7063370332200614]],"dyn_weights":[[-12.571926718600036,7.170464976819846],[1.4135141460000302,-1.0817388154400926],[-6.647929136700171,2.5183019472998605],[8.06431580309997,0.5792633551399528],[2.133291951659834,4.69535238947992],[4.326874005500106,-2.76699013084],[17.735028686940733,-3.298242646519951],[5.461044912819984,-5.861115912519909]]}]},"type_":"predator","pos":[971.9188082329644,20.950482916907994],"orientation":181.49994071810028,"health":0.22904190800000018,"energy_copy":5.0,"age":103.54862900000002,"gen":309826,"fitness":5.0},"329583606":{"nn":{"node_layers":[{"biases":[11.244800671500627,4.676097309760095,0.15797323053997223,-0.45845324212000144,27.532495545060147,-0.37801014469994343,-0.5777408612999555,4.8580668292004505],"activation_ref":"sigmoid"},{"biases":[3.400163697819971,7.004750616020184],"activation_ref":"sigmoid"}],"connection_layers":[{"input_size":8,"output_size":2,"weights":[[-2.6659388231003964,31.40606425495917],[-14.011182220539785,-28.88913483142063],[31.819241402820033,5.423552700580952],[-9.007257270319165,26.628606973660276],[16.13218615522004,-5.597024752679592],[13.511077198720525,-10.49743858427966],[-0.07162084881952907,1.457503910320547],[13.584574292960847,-25.127120201419864]],"dyn_weights":[[-7.10374762829992,-27.98006648805882],[6.436499648100026,6.19002067850038],[-4.702753566420101,1.2601934191798054],[-17.775731668340047,-1.5578135983601864],[-5.40776941860052,5.146820554679931],[-18.67374328292104,-1.2755049859794736],[-7.897458305679987,-3.081667961959764],[8.34727363930043,24.121513366100775]]}]},"type_":"prey","pos":[624.0889553047876,231.22419662187073],"orientation":71.93987971380001,"health":1.0,"energy_copy":6.847742499999994,"age":54.78193999999995,"gen":1194686,"fitness":54.78193999999995},"329583743":{"nn":{"node_layers":[{"biases":[-0.4580934582800213,-5.777675299519987,3.0239269309401724,9.602873506300133,0.4733024789399804,-9.48402866255985,-3.204655215460045,-8.953570018259931],"activation_ref":"sigmoid"},{"biases":[2.530775923540202,1.1360126836200213],"activation_ref":"sigmoid"}],"connection_layers":[{"input_size":8,"output_size":2,"weights":[[0.15706955080007282,-1.590529031519963],[1.5248080732601825,4.86877411934013],[-15.880771864620055,-4.660357158499868],[9.829827463120262,-10.269141644600031],[1.3672256091200514,0.28535849072012626],[2.512292640200088,-2.0529270745197383],[-7.395732025859994,-3.431311375639878],[-4.424482730879878,3.752951090100061]],"dyn_weights":[[-12.559746593760035,7.177081984299846],[-1.37072996064003,-1.0849225599200925],[-6.65196271518017,2.5104009445798607],[-8.03693889425997,0.5886994472199527],[2.1347336009798332,4.64608069111992],[4.324906536220107,-2.7244628070400005],[17.738430068900737,-3.3421270663999514],[5.422631969579984,-5.862055600439909]]}]},"type_":"predator","pos":[411.2375796186001,700.3873112774886],"orientation":255.54000156447404,"health":0.49828878999999904,"energy_copy":0.0,"age":27.872844999999998,"gen":309827,"fitness":0.0},"329583032":{"nn":{"node_layers":[{"biases":[-0.43935073104002137,-5.729143812159986,2.957209431820173,9.609521248460133,0.4866390145399803,-9.466269168559853,-3.2192158653800456,-8.944955560299931],"activation_ref":"sigmoid"},{"biases":[2.538293871180203,1.0692072781400213],"activation_ref":"sigmoid"}],"connection_layers":[{"input_size":8,"output_size":2,"weights":[[0.25540103716007284,-1.5757060327999632],[1.5343636405801824,4.899291799460129],[-15.857299602980056,-4.708371825299867],[9.804444109000265,-10.260697963080032],[1.3329936755600515,0.2657058691201262],[2.5167788789600887,-2.031667176079738],[-7.443614847419994,-3.4176794666398784],[-4.424726666999877,3.7211404024600614]],"dyn_weights":[[-12.583895310120035,7.159749175219846],[1.4080694320800302,-1.0849719398000925],[-6.641734694340171,2.5221739011398605],[8.08784454241997,0.6062416782199527],[2.132006764099834,-4.69251769943992],[4.3064888275801065,-2.7637434368000005],[17.717605674020735,-3.3055837223999514],[5.4573910975399835,-5.872305727399908]]}]},"type_":"predator","pos":[619.961563687703,133.55546077799536],"orientation":197.4716202679946,"health":0.9204810400000001,"energy_copy":15.0,"age":142.21197900000004,"gen":309826,"fitness":15.0},"329583809":{"nn":{"node_layers":[{"biases":[11.264163552100626,4.785033456640094,0.1783909131799723,-0.4876368536800014,27.54477903030016,-0.37115038525994337,-0.5503936162199555,4.813752021920451],"activation_ref":"sigmoid"},{"biases":[3.384334500459972,7.0189026627001825],"activation_ref":"sigmoid"}],"connection_layers":[{"input_size":8,"output_size":2,"weights":[[-2.6655629362203963,31.34898951719916],[-14.053689728539782,-28.798179378180624],[31.845243793620043,5.450675129540953],[-8.875332359199165,26.56350250578027],[16.207605005740035,-5.590098688599592],[13.484720560920524,-10.505281703079662],[-0.13326897937952906,1.4147680498805468],[13.67380927596084,-24.992929721459863]],"dyn_weights":[[7.00490598685992,-27.966542649578834],[6.478994616780027,6.227366043700381],[-4.6010660737401015,1.253928199179806],[17.758466284340052,-1.539348237160186],[-5.52891569532052,5.071826981119931],[18.60891554524104,-1.3015981280594733],[7.854575446719987,-3.006830489719764],[8.379018716740427,24.154213290620785]]}]},"type_":"prey","pos":[902.8972964507226,782.6948241519112],"orientation":299.11786438555237,"health":1.0,"energy_copy":1.790299125,"age":14.322393,"gen":1194689,"fitness":14.322393},"329583269":{"nn":{"node_layers":[{"biases":[-0.45139822908002136,-5.780398456079986,2.9334289684601726,9.607421625380134,0.5036077010599803,-9.433388489679853,-3.219283126180046,-8.886913655699932],"activation_ref":"sigmoid"},{"biases":[2.568551472340203,1.0751006688600213],"activation_ref":"sigmoid"}],"connection_layers":[{"input_size":8,"output_size":2,"weights":[[0.2365058112800728,-1.566531322319963],[1.5314446150201824,4.90587199354013],[-15.882647685620057,-4.689685607939867],[9.841013995280266,-10.286966229520033],[1.3666154497600518,0.2559962896801263],[2.5194329777600886,-2.021157084399738],[-7.423195849539994,-3.4193258243598783],[-4.4146213935998775,3.7311407238200616]],"dyn_weights":[[-12.570231314600035,7.177819184179846],[1.4310974520800301,-1.0965884684000926],[-6.658690526340171,2.5333171813798603],[8.07784500613997,0.5843129609799527],[2.125230370819834,-4.70173879227992],[4.315242780820107,-2.7412526772400003],[17.732256678820736,-3.275468138759951],[5.4218035674599845,-5.876456635319909]]}]},"type_":"predator","pos":[194.3196151927106,708.8231701523075],"orientation":255.49877755889585,"health":0.3360556619999983,"energy_copy":5.0,"age":106.33024100000003,"gen":309826,"fitness":5.0},"329583872":{"nn":{"node_layers":[{"biases":[11.237419015420626,4.800762617880094,0.15639044857997228,-0.4977256869200014,27.53215979714016,-0.3670580870199434,-0.5567938142199557,4.822744038920451],"activation_ref":"sigmoid"},{"biases":[3.373773585779972,7.013625841420183],"activation_ref":"sigmoid"}],"connection_layers":[{"input_size":8,"output_size":2,"weights":[[-2.655338842860396,31.33637730855916],[-14.048169804299782,-28.810035190020624],[31.81717830294004,5.419889706500952],[-8.890265321599164,26.564989427060272],[16.149673471260037,-5.574763478359592],[13.480048372800525,-10.538519489639663],[-0.17680761817952906,1.4658183286405468],[13.664559507600838,-25.01225546585986]],"dyn_weights":[[7.02699334217992,-27.98555100913883],[-6.523180990580027,6.206029940340381],[-4.614674423060102,1.2712570893398059],[17.768487659380053,-1.5121445269201863],[-5.50940409968052,5.115057466439931],[-18.64276307640104,-1.2968074250594734],[7.845884749439987,-3.020067616239764],[8.392055633100428,24.128111602380788]]}]},"type_":"prey","pos":[605.0521331142746,211.12997224598035],"orientation":143.85271680524633,"health":1.0,"energy_copy":0.22519362500000004,"age":1.8015490000000003,"gen":1194688,"fitness":1.8015490000000003},"329583813":{"nn":{"node_layers":[{"biases":[11.230204964100626,4.813017475200094,0.1588800683799723,-0.4837142894800014,27.539137725620158,-0.3676565110199434,-0.5585422820999555,4.806647964760451],"activation_ref":"sigmoid"},{"biases":[3.3669759356599718,7.005363587460183],"activation_ref":"sigmoid"}],"connection_layers":[{"input_size":8,"output_size":2,"weights":[[-2.6510661050603965,31.336247836159163],[-14.06263524441978,-28.811066120940627],[31.833055600060042,5.439874087460952],[-8.864570384559165,26.56913186010027],[16.168648185700036,-5.613033952959592],[13.485088943840523,-10.480871027399663],[-0.11103937581952907,1.4034737865205469],[13.67024882680084,-25.00978801157986]],"dyn_weights":[[7.03504489701992,-27.972046539818834],[6.464215478660027,6.234319719580381],[-4.5993323849001015,1.2529592734998058],[17.741476973700053,-1.5206534464801862],[-5.55174137332052,5.0733429713999305],[18.62167483756104,-1.3070868116594734],[7.875714661599987,-2.9988955257597643],[8.416133372340427,24.122279316060787]]}]},"type_":"prey","pos":[997.7505404440274,797.8011581477227],"orientation":-20.698921002316276,"health":1.0,"energy_copy":1.699763375,"age":13.598107,"gen":1194689,"fitness":13.598107},"329583731":{"nn":{"node_layers":[{"biases":[11.232588694700627,4.677102729880095,0.16131190697997222,-0.47734103392000143,27.500582227460146,-0.36795890245994345,-0.5852313417399555,4.8399827102404505],"activation_ref":"sigmoid"},{"biases":[3.403539563819971,7.013810755780184],"activation_ref":"sigmoid"}],"connection_layers":[{"input_size":8,"output_size":2,"weights":[[-2.667926016100396,31.397507733679166],[-14.007184552899785,-28.86550396134063],[31.83920290962003,5.419880436980953],[-9.015088031839166,26.640585235660275],[16.13681462614004,-5.617456766679592],[13.495896249000525,-10.51571550531966],[-0.06813268129952907,1.451470715800547],[13.569201266040846,-25.099694089139863]],"dyn_weights":[[-7.08481023061992,-27.98438775037882],[6.446110162380026,6.181781118060379],[-4.6909102518201005,1.2592012278998055],[-17.789069620500047,-1.5587998722401866],[-5.409119178760519,5.148850199759931],[-18.67627329188104,-1.2636096927794738],[-7.9017764829999875,-3.086095307439764],[8.33322280502043,24.120187801940773]]}]},"type_":"prey","pos":[588.5242412777102,265.3325431265436],"orientation":69.97178629726997,"health":1.0,"energy_copy":3.8707683749999977,"age":30.96614699999998,"gen":1194686,"fitness":30.96614699999998},"329583671":{"nn":{"node_layers":[{"biases":[11.226536139620627,4.8185556073200955,0.22724191437997224,-0.5351142150000012,27.588221862980152,-0.37357826901994357,-0.5308701891399555,4.908612602640451],"activation_ref":"sigmoid"},{"biases":[3.3696521531799726,7.072432418220184],"activation_ref":"sigmoid"}],"connection_layers":[{"input_size":8,"output_size":2,"weights":[[-2.653626930420396,31.28828837687917],[-13.98905916561979,-28.90172079762063],[31.84308773262003,5.520310908900952],[-8.86664937543917,26.690523411700262],[16.094884845500033,-5.551189291359592],[13.424689470160525,-10.530735684959664],[-0.07532434189952911,1.4501200494005473],[13.714272719840846,-24.969338507579863]],"dyn_weights":[[7.0506009146199204,-27.915284298698825],[-6.389826518260026,6.225462319380383],[-4.7399272591001,1.2650912797398057],[17.790130923460055,-1.5796313227201861],[-5.57003872444052,5.070689495119931],[-18.698675105361037,-1.3550662286594732],[7.806313967719988,-3.0669599879997644],[8.434638656780434,24.200592328100797]]}]},"type_":"prey","pos":[364.49714376201996,313.0502076835246],"orientation":276.39281524609135,"health":1.0,"energy_copy":6.014279874999994,"age":48.114238999999955,"gen":1194689,"fitness":48.114238999999955},"329583771":{"nn":{"node_layers":[{"biases":[-0.45354702704002137,-5.752263551319986,2.998347399060173,9.601001071540134,0.5046149874999805,-9.493612508399853,-3.2249246027000456,-8.909405059219932],"activation_ref":"sigmoid"},{"biases":[2.5570137727002025,1.0453036533000213],"activation_ref":"sigmoid"}],"connection_layers":[{"input_size":8,"output_size":2,"weights":[[0.2500802511600728,-1.5734841351599633],[1.5146128570601824,4.90239995794013],[-15.858338039260055,-4.656176309059868],[9.786349719480263,-10.244207123040033],[1.3055650814400517,0.2559404649601263],[2.5153880479200885,-2.0712413714797377],[-7.397614975859994,-3.353170760599878],[-4.385151836639877,3.7336454254600615]],"dyn_weights":[[12.604570994440035,7.160466980739846],[1.3572637978400304,-1.0850855347200925],[-6.65262021994017,2.5256095006998605],[8.082792179379972,0.6268443452199527],[2.127858087459834,4.6718934672399195],[4.298680374540107,-2.7380966189200007],[17.739720069740734,-3.270394078319951],[5.457099219659984,-5.877747609679909]]}]},"type_":"predator","pos":[693.5485677566969,188.979983900718],"orientation":120.53489576525033,"health":0.836184283999999,"energy_copy":1.0,"age":22.98976200000001,"gen":309827,"fitness":1.0},"329583762":{"nn":{"node_layers":[{"biases":[11.327487535500627,4.807321392800094,0.15961714269997224,-0.5513520015600016,27.507190049620153,-0.3537265984199434,-0.5946768281799554,4.932899534560451],"activation_ref":"sigmoid"},{"biases":[3.3579826646199717,7.060322836060183],"activation_ref":"sigmoid"}],"connection_layers":[{"input_size":8,"output_size":2,"weights":[[-2.6464843858603957,31.31577165447916],[-14.065935025259789,-28.812303826980628],[31.772367989500026,5.460594698740954],[-8.930183240239167,26.59909637314027],[16.06629814718004,-5.587617641319593],[13.442030467600526,-10.517669041599666],[-0.07233706273952906,1.3771891676405472],[13.684565478280843,-25.05392524349986]],"dyn_weights":[[-7.008280526779919,-27.946949881818824],[-6.4223983705000265,6.2371395750603815],[-4.643613909260101,1.208097620859806],[-17.69595030886004,-1.6362052390001862],[-5.54151104536052,5.215057641599929],[-18.711098279481035,-1.310797159579473],[7.7748623233199865,-3.051110441239764],[8.342745908220435,24.315107579100786]]}]},"type_":"prey","pos":[385.36312367009725,207.32169989942997],"orientation":140.13708444330797,"health":1.0,"energy_copy":3.2205299999999992,"age":25.764239999999994,"gen":1194686,"fitness":25.764239999999994},"329583794":{"nn":{"node_layers":[{"biases":[11.246730759620624,4.8327565410400934,0.13930048633997227,-0.49967243608000145,27.543832868540157,-0.33361514873994347,-0.5121344913399558,4.8462536280004525],"activation_ref":"sigmoid"},{"biases":[3.4215536216599722,7.049122154660183],"activation_ref":"sigmoid"}],"connection_layers":[{"input_size":8,"output_size":2,"weights":[[-2.6212881261403957,31.395264660239164],[-14.08892021917978,-28.891299135140628],[31.81725672106004,5.501067890420953],[-8.834694971439166,26.64717212698027],[16.154279387060036,-5.574907421799592],[13.438595732920525,-10.475257908839659],[-0.08438050229952906,1.419999282080547],[13.71327616744084,-25.033318966419863]],"dyn_weights":[[-7.102072204579921,-27.971691890978832],[-6.5424540727400275,6.176152912100381],[-4.6698748393801015,1.2543425798198058],[-17.72112291050005,-1.5296613975201863],[-5.538523789600519,5.122201540919932],[18.67540163032104,-1.3065374604594733],[7.921307320079988,-3.0914876489997636],[8.430213409460428,24.18373499342078]]}]},"type_":"prey","pos":[950.3368810551685,455.3705557759626],"orientation":331.9277575863774,"health":1.0,"energy_copy":2.1946727500000005,"age":17.557382000000004,"gen":1194688,"fitness":17.557382000000004},"329583628":{"nn":{"node_layers":[{"biases":[11.288185493260627,4.766958298320097,0.15283641805997225,-0.4587125026000015,27.533290565700156,-0.4410812936599435,-0.5728199607399553,4.994711903720452],"activation_ref":"sigmoid"},{"biases":[3.333505068659972,7.011846332540183],"activation_ref":"sigmoid"}],"connection_layers":[{"input_size":8,"output_size":2,"weights":[[-2.5546907800203957,31.33051371863916],[-13.998041592499787,-28.824549814020624],[31.717173361060038,5.445913436420954],[-8.88964846791917,26.544358122820267],[16.17119997822003,-5.663916132719591],[13.457724503280525,-10.472509752039663],[-0.14436489449952905,1.505681356000547],[13.668565918880843,-24.927643730059856]],"dyn_weights":[[7.03724732557992,-28.072680663138822],[6.554039684500027,6.18320928562038],[4.701680679020102,1.2571541977798057],[-17.856530106260053,-1.571362920320186],[-5.502688808480517,5.034030401279931],[-18.681756041441037,-1.3565955627394737],[7.850800251799987,-3.0129662319197648],[8.322908533140433,24.133149378300793]]}]},"type_":"prey","pos":[958.6183060097475,788.3089816741985],"orientation":-15.641995837669116,"health":1.0,"energy_copy":6.708824624999993,"age":53.670596999999944,"gen":1194687,"fitness":53.670596999999944},"329583465":{"nn":{"node_layers":[{"biases":[-0.46711925264002135,-5.766371108319986,2.9653980959801727,9.636123311220134,0.47408085729998034,-9.447478084919853,-3.2155186135800458,-8.905618656459932],"activation_ref":"sigmoid"},{"biases":[2.554499725380203,1.0655987335400212],"activation_ref":"sigmoid"}],"connection_layers":[{"input_size":8,"output_size":2,"weights":[[0.2286629405600728,-1.5739003779999632],[1.5489259063801823,4.914373594060129],[-15.883736135380056,-4.704037854539867],[9.839034322200265,-10.272586486760034],[1.3492313274400518,0.25274625080012625],[2.5262451916000885,-2.030459552199738],[-7.398329084059993,-3.4194643973598784],[-4.447796390199877,3.7251471724200615]],"dyn_weights":[[-12.559825469200035,7.172192687379846],[1.4177558247200301,-1.0874292766400926],[-6.647545100820171,2.5249635269398603],[8.063471532019971,0.5795395792999527],[2.1397849516598337,4.71224816043992],[4.314189250020107,-2.7438609952800004],[17.746127281460733,-3.284056483999951],[5.425575041979984,-5.862303307319909]]}]},"type_":"predator","pos":[939.4510343452397,24.69577762532434],"orientation":170.28244782173954,"health":0.11157342399999984,"energy_copy":5.0,"age":77.00602999999994,"gen":309826,"fitness":5.0},"329583757":{"nn":{"node_layers":[{"biases":[-0.4547082751600213,-5.753091534879986,2.9922055655001727,9.609800805540134,0.49967938961998043,-9.514927338399852,-3.2421902784200456,-8.89474862141993],"activation_ref":"sigmoid"},{"biases":[2.5256874259002027,1.0695102720600214],"activation_ref":"sigmoid"}],"connection_layers":[{"input_size":8,"output_size":2,"weights":[[0.2273903311200728,-1.5668335253599632],[1.5331284187001823,4.90672054174013],[-15.843739245580053,-4.657463314299868],[9.808037600000263,-10.268200424720034],[1.3368922684000517,0.2700238506001263],[2.5141051944000887,-2.062072797679738],[-7.399199747619994,-3.3735133391198784],[-4.3836280871998765,3.7560394730600617]],"dyn_weights":[[12.610112533560034,7.177612277019846],[1.3592904894000302,-1.1083900847200925],[-6.63361314198017,2.5288329353398606],[8.111996519739971,0.6167323505799527],[2.133052933939834,4.669603752879919],[4.278751301220107,-2.739125900160001],[17.724854600820734,-3.2760527087199507],[5.464962458259984,-5.876009513639909]]}]},"type_":"predator","pos":[987.5377143673921,47.24149351298159],"orientation":209.3282257338234,"health":0.604698669999999,"energy_copy":1.0,"age":26.491295,"gen":309827,"fitness":1.0},"329583376":{"nn":{"node_layers":[{"biases":[-0.46561613516002137,-5.766817241879987,2.9518620823801727,9.642979220340134,0.5003833163799803,-9.425021083519853,-3.2306659189800455,-8.898379113139931],"activation_ref":"sigmoid"},{"biases":[2.551707610860203,1.0751013190600214],"activation_ref":"sigmoid"}],"connection_layers":[{"input_size":8,"output_size":2,"weights":[[0.2357160332800728,-1.5524546713999632],[1.5537063863401825,4.901461096660129],[-15.870073318340056,-4.699725647019867],[9.835168282400264,-10.256354984240033],[1.3413355673600518,0.2696682149601263],[2.4994716667200887,-2.048547487439738],[-7.427309761379993,-3.3954776027998785],[-4.428002504959877,3.7198109867800615]],"dyn_weights":[[-12.552738952320036,7.1687417337398465],[1.4261377757200302,-1.0779175140000925],[-6.636633801260171,2.5191061327798603],[8.06624428593997,0.5629013759799527],[2.129930527579834,4.690219776279919],[4.303855860380106,-2.7618416258800003],[17.745815177900734,-3.2965143422399508],[5.443980300179984,-5.861885705159909]]}]},"type_":"predator","pos":[945.7857559234005,861.9307874027547],"orientation":260.91111102690485,"health":0.8086489119999999,"energy_copy":7.0,"age":90.52457900000002,"gen":309826,"fitness":7.0},"329582254":{"nn":{"node_layers":[{"biases":[-0.38210444728002146,-5.624701950719989,3.025879750860174,9.535457345660141,0.3918044312999802,-9.627270457199856,-3.3508428984200456,-8.531004318139928],"activation_ref":"sigmoid"},{"biases":[2.5614653094202025,0.9636777982600216],"activation_ref":"sigmoid"}],"connection_layers":[{"input_size":8,"output_size":2,"weights":[[0.031480784000072724,-1.7082036385999626],[1.534449463340182,5.102666116940131],[-15.95675477370006,-4.606880157699864],[9.583774787520253,-10.462035650400022],[1.3922567648000517,0.11361445940012622],[2.5729363051600873,-1.8130698189997376],[-7.386435641619994,-3.3085539750798802],[-4.4654060017198836,3.617502777500062]],"dyn_weights":[[-12.372964640920038,7.277670833779845],[1.1175545427200295,-1.1674822611600926],[6.621797259660169,2.4020769284998615],[-8.14189858101997,0.6063817729799523],[2.1537533209398347,-4.739060815399918],[4.171581496740106,-2.57754185484],[17.78359134830072,-3.3026528975999505],[-5.307488121779985,-5.952341554839912]]}]},"type_":"predator","pos":[937.259886706367,995.0632009614851],"orientation":198.8656305232755,"health":0.20452582199999877,"energy_copy":20.0,"age":260.94993499999964,"gen":309825,"fitness":20.0},"329583705":{"nn":{"node_layers":[{"biases":[-0.4500732150400213,-5.776520269519987,3.0028090315001723,9.620390000340134,0.4841310096199804,-9.46138581715985,-3.220791370900045,-8.963496663739932],"activation_ref":"sigmoid"},{"biases":[2.5446762927802022,1.1555346734600214],"activation_ref":"sigmoid"}],"connection_layers":[{"input_size":8,"output_size":2,"weights":[[0.1869601256800728,-1.573464521159963],[1.5097168429001826,4.84352309282013],[-15.872145275100054,-4.682596519979867],[9.820105075600262,-10.240381397320032],[1.3792523906000513,0.28950958572012625],[2.504241467520088,-2.0646866545997384],[-7.420389024139993,-3.414261443159878],[-4.449488182599878,3.767769252180061]],"dyn_weights":[[-12.562654546480035,7.188254164659846],[1.38544717444003,-1.0693141273200926],[-6.64325651862017,2.5254512490198606],[-8.06643424861997,0.6033658411399527],[2.109535605339833,4.656814670199919],[4.336679170300107,-2.7386126005200007],[17.714770372620734,-3.352497750719951],[5.4521453521399845,-5.879367725279909]]}]},"type_":"predator","pos":[771.070811364258,885.9838207614354],"orientation":-18.730907162624035,"health":0.753668953999999,"energy_copy":2.0,"age":39.58530499999998,"gen":309827,"fitness":2.0},"329583446":{"nn":{"node_layers":[{"biases":[11.307938853540627,4.780355792280098,0.14458008741997225,-0.4605893956000015,27.514708947940157,-0.44767482141994347,-0.5552597597399553,4.996524245320452],"activation_ref":"sigmoid"},{"biases":[3.338374294219972,7.013494017740183],"activation_ref":"sigmoid"}],"connection_layers":[{"input_size":8,"output_size":2,"weights":[[-2.570647311660396,31.33030655327916],[-14.007216661419786,-28.833363964540624],[31.732235173700037,5.447121817180953],[-8.87394713259917,26.563335734300267],[16.16758841866003,-5.643947558439591],[13.464288445280525,-10.463026317839663],[-0.15122738921952905,1.5163110892005471],[13.676575599440843,-24.925448435139856]],"dyn_weights":[[7.05671635709992,-28.06704923041882],[6.542549203100027,6.18503363698038],[4.688280644620102,1.2430782139398058],[-17.84021966562005,-1.574262229720186],[-5.517442538240517,5.05201189479993],[-18.666351436281037,-1.3629871326594736],[7.847216042479987,-3.0241813973597647],[8.338776650540433,24.148874854700793]]}]},"type_":"prey","pos":[312.25904536440095,388.45621846137044],"orientation":238.2034843183908,"health":1.0,"energy_copy":0.10253287500000004,"age":80.82026299999995,"gen":1194686,"fitness":80.82026299999995},"329583588":{"nn":{"node_layers":[{"biases":[-0.4399914128000213,-5.804570973839986,3.0197590211001724,9.610623125780133,0.45512397429998036,-9.47403157147985,-3.216083226140045,-8.938515324979932],"activation_ref":"sigmoid"},{"biases":[2.553950634100202,1.1397915777800214],"activation_ref":"sigmoid"}],"connection_layers":[{"input_size":8,"output_size":2,"weights":[[0.18128931988007282,-1.585364599999963],[1.5129364490601824,4.85991987930013],[-15.883269906260056,-4.697741300139867],[9.813546008880262,-10.26991164680003],[1.3738580938800515,0.2860699972801262],[2.508875518640088,-2.0816784308797383],[-7.408558925619993,-3.419081049799878],[-4.442983690759878,3.7405546713800613]],"dyn_weights":[[-12.541633191240035,7.199275432899846],[1.37173563256003,-1.0814928409200926],[-6.64097259170017,2.490167061739861],[-8.051020686899971,0.6063550090199527],[2.1182746653398334,4.64456204463992],[4.332259615940107,-2.7188432882000004],[17.712854734780734,-3.327578064679951],[5.431410715339984,-5.864428255039909]]}]},"type_":"predator","pos":[341.4655419435312,219.08647870852016],"orientation":333.5052780551569,"health":0.867977913999999,"energy_copy":5.0,"age":57.88018299999996,"gen":309827,"fitness":5.0},"329583756":{"nn":{"node_layers":[{"biases":[11.353135031020628,4.782150034920093,0.1604866756199722,-0.5334719003600017,27.52449227122015,-0.3417471094599434,-0.6190749575799553,4.937156734040451],"activation_ref":"sigmoid"},{"biases":[3.3424514592999715,7.0528550376201835],"activation_ref":"sigmoid"}],"connection_layers":[{"input_size":8,"output_size":2,"weights":[[-2.6535107515803955,31.330785878999162],[-14.057224304059789,-28.79106012682063],[31.766292362740028,5.435627664580955],[-8.909670159119166,26.603369084060272],[16.08950966418004,-5.574257460639593],[13.432479039600526,-10.513062698959665],[-0.09248401869952906,1.3806820282405472],[13.671788010600842,-25.075194915099864]],"dyn_weights":[[-7.0322865821799185,-27.939145259858822],[-6.459960719900026,6.205617020140382],[-4.642813077500101,1.226594977899806],[-17.71955123238004,-1.6145862900801862],[-5.51129524584052,5.215386179719928],[-18.709312700841036,-1.334116282939473],[7.7964246199199865,-3.0514261745197637],[8.345491377820435,24.303375390860786]]}]},"type_":"prey","pos":[394.1600471682579,203.35301025935146],"orientation":113.22801419281981,"health":1.0,"energy_copy":3.3336512500000004,"age":26.669210000000003,"gen":1194686,"fitness":26.669210000000003},"329583630":{"nn":{"node_layers":[{"biases":[11.318339243940626,4.802850231200096,0.21619601685997228,-0.5257444389600013,27.62370105678015,-0.36323287837994356,-0.5405004326199554,4.940533215080453],"activation_ref":"sigmoid"},{"biases":[3.361930330899972,7.078889856340185],"activation_ref":"sigmoid"}],"connection_layers":[{"input_size":8,"output_size":2,"weights":[[-2.6474767054603956,31.306573784879166],[-14.09085520701979,-28.791221145340632],[31.693491172700032,5.388947687420954],[-8.873338125439167,26.597826422100265],[16.045254959340042,-5.577640800959592],[13.422006310640526,-10.474971819079665],[-0.0693557843395291,1.3736622875605475],[13.680573288000843,-25.074248519299857]],"dyn_weights":[[-7.08302438069992,-28.01240285829882],[6.461066977980027,6.29027625450038],[-4.6546866462600995,1.186755879019806],[-17.728490155820047,-1.6188600826801864],[-5.504072435360519,5.15674345771993],[-18.71967453248104,-1.3145287760594735],[7.777802475599987,-3.0006558757197634],[8.326097239100436,24.21650233670079]]}]},"type_":"prey","pos":[547.5218257058102,394.11264945084787],"orientation":-12.526845637808087,"health":1.0,"energy_copy":6.670996749999993,"age":53.36797399999995,"gen":1194686,"fitness":53.36797399999995},"329582921":{"nn":{"node_layers":[{"biases":[-0.5074089124400213,-5.751100573599986,3.0073919333801724,9.597620165940135,0.4977487054199804,-9.440772608319852,-3.187728725540045,-8.900733982099933],"activation_ref":"sigmoid"},{"biases":[2.5429312879402026,1.140801284980021],"activation_ref":"sigmoid"}],"connection_layers":[{"input_size":8,"output_size":2,"weights":[[0.21681062652007282,-1.5670536423999633],[1.5384169131401824,4.885519001460129],[-15.816806234620056,-4.667604006779868],[9.802993646840266,-10.266188521320032],[1.3524295678800515,0.2914188599601263],[2.474684636680088,-2.053793107159738],[-7.428298132219994,-3.4123960236798783],[-4.436200677319878,3.7509794706200608]],"dyn_weights":[[-12.550872078360037,7.179806575059846],[1.4325280478400302,-1.0788374465600925],[-6.652766675980171,2.4879469922998605],[8.06946338437997,0.6210070651799527],[2.1202817766998336,4.69460592563992],[4.337824154940107,2.70946063588],[17.713022909260733,-3.3337860128399512],[5.442387200659985,-5.919825020199909]]}]},"type_":"predator","pos":[805.3086499249456,975.9573708849184],"orientation":205.05239270268157,"health":0.31308931800000034,"energy_copy":11.0,"age":158.85721799999982,"gen":309826,"fitness":11.0},"329583847":{"nn":{"node_layers":[{"biases":[11.297901718260627,4.746961486880097,0.16449189321997224,-0.45761100768000146,27.550401568940156,-0.41123570109994345,-0.5561271932999553,5.013947212440452],"activation_ref":"sigmoid"},{"biases":[3.347283686459972,7.022667576140184],"activation_ref":"sigmoid"}],"connection_layers":[{"input_size":8,"output_size":2,"weights":[[-2.552046380580396,31.32882933627916],[-14.010983533499786,-28.877180133860623],[31.711545682380038,5.425580529660953],[-8.84654118887917,26.539574946620267],[16.15786980642003,-5.649496497999592],[13.460585339840526,-10.445860124879664],[-0.13376583297952904,1.524352075240547],[13.656906933800842,-24.921602462819855]],"dyn_weights":[[-7.081761844939921,-28.031170137898823],[6.525766155820027,6.17164678738038],[4.676798397060102,1.2421685964198057],[-17.86931204534005,-1.572080159560186],[-5.503531910080517,5.067474420919931],[-18.685885042761033,-1.4071284033394735],[7.8163558599199865,-3.0217073630397646],[8.319809924260435,24.148856689420793]]}]},"type_":"prey","pos":[721.8472195924667,465.3101257923667],"orientation":-22.814338164423944,"health":1.0,"energy_copy":0.6718563750000001,"age":5.3748510000000005,"gen":1194685,"fitness":5.3748510000000005},"329583717":{"nn":{"node_layers":[{"biases":[-0.44411676200002126,-5.7860023540399865,3.0294533246201722,9.632199566300134,0.47741668501998036,-9.46618595575985,-3.2129468920200455,-8.939594479699933],"activation_ref":"sigmoid"},{"biases":[2.556073040300202,1.1576741097000214],"activation_ref":"sigmoid"}],"connection_layers":[{"input_size":8,"output_size":2,"weights":[[0.15150532120007282,-1.5740529923999629],[1.5312946672201826,4.84137121002013],[-15.863853409380054,-4.670279725259868],[9.825676061840262,-10.239119322400033],[1.3545407546800514,0.30171110968012627],[2.499881466000088,-2.0559901351597385],[-7.412490903179993,-3.444087660159878],[-4.458539963999878,3.7591330891400614]],"dyn_weights":[[-12.552870491360036,7.206115366179846],[1.38872436696003,-1.0775222794800925],[-6.64662975922017,2.518087617139861],[-8.05626532785997,0.6059508723399527],[2.114275250859833,-4.647362052759919],[4.357692080500106,-2.7021365301600007],[17.716235546300737,-3.3570966389599515],[5.440975703939984,-5.847016020799909]]}]},"type_":"predator","pos":[752.7740679276293,778.0810785644641],"orientation":308.77797661229255,"health":0.3819730779999995,"energy_copy":0.0,"age":34.334829,"gen":309827,"fitness":0.0},"329583860":{"nn":{"node_layers":[{"biases":[11.300604238420627,4.749807794120097,0.15886548257997224,-0.49006377020000147,27.531462916380157,-0.41906968673994344,-0.5520197992199554,5.000743801360452],"activation_ref":"sigmoid"},{"biases":[3.356166831899972,7.007053032460184],"activation_ref":"sigmoid"}],"connection_layers":[{"input_size":8,"output_size":2,"weights":[[-2.5559531865003957,31.31155933119916],[-14.039924793419786,-28.845467087540626],[31.730799955660036,5.429904434340953],[-8.86005093031917,26.544467406460267],[16.173456833900033,-5.642606509919592],[13.466749390800524,-10.448762992319663],[-0.15491102557952904,1.5035665527605468],[13.652312260760842,-24.95357562133986]],"dyn_weights":[[-7.061493752499921,-28.04690006565882],[6.558898937460027,6.16613222662038],[4.695933223860102,1.2406218574998058],[17.84917831718005,-1.5725580441601863],[-5.519964493160518,5.08113017863993],[-18.712156180401035,-1.3720837410594735],[7.845187653719987,-3.0184238496797646],[8.362949967580436,24.128687641260793]]}]},"type_":"prey","pos":[192.9382885968638,192.1364670889413],"orientation":-138.2396661624059,"health":1.0,"energy_copy":0.506336625,"age":4.050693,"gen":1194686,"fitness":4.050693},"329583684":{"nn":{"node_layers":[{"biases":[-0.44993892576002126,-5.793434191439987,3.0194812747001722,9.612434470540133,0.47344263189998037,-9.48496243959985,-3.218425928460045,-8.948945524379932],"activation_ref":"sigmoid"},{"biases":[2.547213755980202,1.1674391183000215],"activation_ref":"sigmoid"}],"connection_layers":[{"input_size":8,"output_size":2,"weights":[[0.1674464862400728,-1.569451497039963],[1.5229684853801826,4.84664108026013],[-15.878325161860054,-4.698737150299868],[9.804530239680261,-10.244531211640032],[1.3630058586000515,0.31102272116012625],[2.482966049240088,-2.0812726151197385],[-7.417589121019994,-3.414327003759878],[-4.457705629519878,3.7619145099400613]],"dyn_weights":[[-12.550659478360036,7.187729542739846],[1.3660524767200302,-1.0929216780800926],[-6.63735676230017,2.488018348499861],[-8.05633438117997,0.5987397696199527],[2.1270427622998334,4.63525736151992],[4.331673248020106,-2.7131474030000007],[17.743503671980736,-3.3283958739999515],[5.433346993139985,5.8626368463599094]]}]},"type_":"predator","pos":[847.7904287010524,394.8864580047152],"orientation":79.68316105654881,"health":0.18408849400000016,"energy_copy":0.0,"age":45.32841699999996,"gen":309827,"fitness":0.0},"329583760":{"nn":{"node_layers":[{"biases":[-0.43131065364002136,-5.7594589591599865,2.9880344527801728,9.597358183100134,0.5101348710199805,-9.512327442959853,-3.2576432315000456,-8.91079510165993],"activation_ref":"sigmoid"},{"biases":[2.5266780510202023,1.0590402799400214],"activation_ref":"sigmoid"}],"connection_layers":[{"input_size":8,"output_size":2,"weights":[[0.2438537264400728,-1.5730471557199632],[1.5365448237401824,4.92435648154013],[-15.839458926260054,-4.654443650179868],[9.821462613840263,-10.256431669440033],[1.3249475324800517,0.2937373567201263],[2.5078264528400886,-2.041839568719738],[-7.397448529659994,-3.3504078280798786],[-4.4027491929998765,3.7261549439800614]],"dyn_weights":[[12.598742835080035,7.1737747543798465],[1.3440556413600302,-1.0824915466800926],[-6.63113950894017,2.5156989559798606],[8.101289045699971,0.6360715992999527],[2.123491967459834,4.654756421399919],[4.285894263100107,-2.7494548849600005],[17.720924792060735,-3.2848712740399506],[5.468159763859984,-5.864389354679909]]}]},"type_":"predator","pos":[137.464907877289,518.2669231665153],"orientation":-185.7370774474182,"health":0.527599179999999,"energy_copy":0.0,"age":26.24449,"gen":309827,"fitness":0.0},"329582352":{"nn":{"node_layers":[{"biases":[-0.4471946801200213,-5.789223488039987,3.0114362167801723,9.620339035620134,0.4643503233399804,-9.46879381043985,-3.2040793631000453,-8.949636960459932],"activation_ref":"sigmoid"},{"biases":[2.546482727860202,1.1484442148200213],"activation_ref":"sigmoid"}],"connection_layers":[{"input_size":8,"output_size":2,"weights":[[0.1681160297600728,-1.580677970839963],[1.5246800179801825,4.85704617934013],[-15.882611461660055,-4.679820211499868],[9.818237462880262,-10.258488171280032],[1.3729368559600514,0.29236488020012624],[2.502652205080088,-2.0631825851597383],[-7.4074462622199935,-3.428814611999878],[-4.440748721839878,3.752071643940061]],"dyn_weights":[[-12.561295858040035,7.192790280019846],[1.38263487960003,-1.0846253560000925],[-6.65096823442017,2.507649505019861],