{"size":[1000,1000],"entities":{"400139791":{"nn":{"node_layers":[{"biases":[-0.022574526760018084,-2.394368774119924,-0.122269321019829,6.190155171700159,0.9006739250999782,-13.709524482479912,-2.6566109023000504,-5.938084207379962],"activation_ref":"sigmoid"},{"biases":[3.002380869020234,0.03527401518003408],"activation_ref":"sigmoid"}],"connection_layers":[{"input_size":8,"output_size":2,"weights":[[-0.09153964831994241,2.4331451290000627],[2.713837000660177,6.560051171820084],[-14.010486635379975,-4.975402430579894],[11.807641484400135,-8.58164580619994],[7.946378645240101,-1.2421449879198803],[2.1639356930000857,-1.2498677243197251],[-8.458225337059957,-0.1553632676798656],[-10.389986650999814,7.019139713900003]],"dyn_weights":[[12.126655193880152,9.747771823979846],[-1.8588285600399779,3.3386094540400792],[2.838660365820064,4.07303697473993],[-5.070077017900038,-0.1516507814599492],[-0.9277250054198348,4.911430502479933],[-5.245136337300128,-2.291152729559999],[-19.197456544060486,1.442213243080048],[-4.194436153659904,-2.481488370759883]]}]},"type_":"predator","pos":[813.105959175637,267.65946852891966],"orientation":-74.18260104495207,"health":0.992019628,"energy_copy":0.0,"age":0.44335399999999997,"gen":353925,"fitness":0.0},"400139595":{"nn":{"node_layers":[{"biases":[-0.02967295104001809,-2.378452148959924,-0.146609533979829,6.271130530900159,0.8933171885399781,-13.743853670159913,-2.607664736540049,-5.896130624499961],"activation_ref":"sigmoid"},{"biases":[3.024496381460234,-0.022774008659965927],"activation_ref":"sigmoid"}],"connection_layers":[{"input_size":8,"output_size":2,"weights":[[-0.07954400963994238,2.4015390694000627],[2.7972474619001777,6.582642889900084],[-14.023690859939975,-5.014610516019895],[11.811776735480136,-8.61842064319994],[7.9579059190801,-1.2780753646798804],[2.116068109160086,-1.284785927359725],[-8.395013238459956,-0.1853898546798656],[-10.318825049879814,6.984151548940002]],"dyn_weights":[[12.06149656540015,9.822937964619847],[-1.884277037999978,3.377793417120079],[2.898360909220064,-4.081378532859931],[5.07421653670004,-0.11618445473994919],[0.967456630099835,-4.928682579279934],[-5.269659983860126,-2.258755316],[-19.21154773122048,1.3893583017200481],[4.155036881859905,-2.3986601809998827]]}]},"type_":"predator","pos":[905.2543560536767,977.1430278802164],"orientation":319.33731090274847,"health":0.60150239,"energy_copy":1.0,"age":36.02764499999999,"gen":353924,"fitness":1.0},"400139415":{"nn":{"node_layers":[{"biases":[16.73305118414025,3.1680534910004017,-0.5259433172200438,-0.9138132372399995,22.923645503060115,-0.6081132759399253,-0.19934055033996748,3.252347110080693],"activation_ref":"sigmoid"},{"biases":[7.20337387357988,10.50085534346026],"activation_ref":"sigmoid"}],"connection_layers":[{"input_size":8,"output_size":2,"weights":[[-0.697251721060447,32.243544347878924],[-18.025200295660134,-30.34890166686154],[34.7641479127006,11.771451527981021],[-1.8316362449591352,35.61883186557963],[10.883290548179998,-4.664141340119545],[17.84421259552054,-23.7142556813201],[7.19580383794071,5.483018169520378],[9.562761154280798,-14.583306277219549]],"dyn_weights":[[7.5127118022598065,-28.498305343419112],[3.018894822140128,3.5024725005004718],[-3.211821759380067,2.8646516109799136],[17.681166770939566,0.019578894679777234],[-0.3958690600805388,-0.1590282821200472],[19.310864388040287,-1.701142562260485],[11.28816550564,-2.6033486246797954],[-5.709963888100379,17.713514980501284]]}]},"type_":"prey","pos":[804.4342126538423,646.2095826330944],"orientation":258.4029826514825,"health":1.0,"energy_copy":0.2286642500000058,"age":65.82931399999998,"gen":1436241,"fitness":65.82931399999998},"400139785":{"nn":{"node_layers":[{"biases":[16.74325747298025,3.1865819187204014,-0.5111645556600438,-0.9150800951999996,22.92024179994012,-0.5868009590599252,-0.2529861454199675,3.264864915680693],"activation_ref":"sigmoid"},{"biases":[7.201028245699879,10.535860818820261],"activation_ref":"sigmoid"}],"connection_layers":[{"input_size":8,"output_size":2,"weights":[[-0.701007463460447,32.247701632038925],[-18.042823867900136,-30.34234750586154],[34.7528326410206,11.804658684981021],[-1.8287284889591353,35.58333537701963],[10.876663752779999,-4.6719091906395445],[17.83569476540054,-23.7288489634401],[7.194406320220711,5.501447179960377],[9.544170382280798,-14.583075126659548]],"dyn_weights":[[7.500999911459806,-28.506862702379113],[3.0385235449801278,3.5128902800204718],[-3.2846937967000662,2.818097588979914],[-17.68829891065957,0.04501756075977723],[0.4179370592005388,0.1564155706000472],[19.28871905040029,-1.737458235860485],[11.26964476168,-2.622657885519795],[5.701003094660379,17.700007798381286]]}]},"type_":"prey","pos":[999.5112045221224,777.4396405559452],"orientation":272.9228254892202,"health":1.0,"energy_copy":0.18664850000000002,"age":1.4931880000000002,"gen":1436242,"fitness":1.4931880000000002},"400139591":{"nn":{"node_layers":[{"biases":[-0.03700072076001809,-2.3717884639199243,-0.13346667073982899,6.260829456260159,0.9138419962999781,-13.722377579559913,-2.6054677954600494,-5.868667365059961],"activation_ref":"sigmoid"},{"biases":[3.0488606968202343,0.007994283060034071],"activation_ref":"sigmoid"}],"connection_layers":[{"input_size":8,"output_size":2,"weights":[[-0.07881540563994238,2.3835234907200626],[2.807460220220178,6.602758428100085],[-14.005501091819974,-4.993709089739895],[11.827070153720134,-8.61725530759994],[7.9468950683601,-1.2575008962798804],[2.107290765400086,-1.283688749039725],[-8.371818156499957,-0.1849966282398656],[-10.331631725679815,7.000412879500002]],"dyn_weights":[[12.07440198512015,9.817866706379846],[-1.861460291599978,3.355243216120079],[2.894312600060064,-4.096911548699931],[5.07352688814004,-0.10262887033994919],[0.9816479669798349,-4.915077957719934],[-5.273497797100126,-2.2632097765999997],[-19.218801982580484,1.4112993693600482],[4.158647145699906,-2.4094638568798827]]}]},"type_":"predator","pos":[440.4792784043741,671.9522558698405],"orientation":162.9805151439223,"health":0.3358840599999998,"energy_copy":0.0,"age":36.895329999999994,"gen":353924,"fitness":0.0},"400139253":{"nn":{"node_layers":[{"biases":[-0.015488325160018083,-2.3646705231199237,-0.17223793641982904,6.20232143454016,0.9508852184599782,-13.682797428559908,-2.6105077619000503,-5.888879662379963],"activation_ref":"sigmoid"},{"biases":[3.005003926700234,0.00873585898003408],"activation_ref":"sigmoid"}],"connection_layers":[{"input_size":8,"output_size":2,"weights":[[-0.06073009279994239,2.383114817600063],[2.739672335620177,6.577750610580084],[-13.971320089899976,-5.031019237779894],[11.830227113760133,-8.59956369591994],[7.9660264377201,-1.2511018409998802],[2.135447991560086,-1.338079491959725],[-8.449137478659956,-0.16691534795986562],[-10.406244662039814,7.033457140660003]],"dyn_weights":[[12.072418642400152,9.777109299379847],[-1.9032509998399776,3.3732264007200787],[2.8251861317000637,-4.084386732019929],[5.083742643540039,-0.10701905681994921],[-0.908681106339835,-4.908338839599934],[-5.234373951420126,-2.301423662319999],[-19.260905058500484,1.4888392690000483],[-4.168379154859905,-2.500423322759883]]}]},"type_":"predator","pos":[534.9308312278786,682.4296382907905],"orientation":143.35201954247552,"health":0.48707391999999977,"energy_copy":5.0,"age":94.42712400000006,"gen":353925,"fitness":5.0},"400139719":{"nn":{"node_layers":[{"biases":[16.741634486660253,3.1852687341204016,-0.5336219027000438,-0.9214265732399995,22.937532209580116,-0.6163527711399254,-0.24822165073996744,3.2488306046806925],"activation_ref":"sigmoid"},{"biases":[7.19096172793988,10.535330258020261],"activation_ref":"sigmoid"}],"connection_layers":[{"input_size":8,"output_size":2,"weights":[[-0.689585104180447,32.25853805363892],[-17.98443143374013,-30.36984336098154],[34.769071168580595,11.833801285781023],[-1.8536286822391352,35.589497461179626],[10.860446032739999,-4.691622320119544],[17.86183836176054,-23.710712886440103],[7.21653341186071,5.465869523000378],[9.5484260129208,-14.59174636709955]],"dyn_weights":[[-7.483815847059806,-28.50855176781911],[3.076589449500127,3.541094076620472],[-3.227086389900067,2.855388359539914],[17.67630862481957,0.044826957879777224],[-0.3939489680405388,0.12542539568004718],[19.331423047000285,-1.694709225580485],[11.281091593880001,-2.568053031919795],[-5.70359612338038,17.695577897541284]]}]},"type_":"prey","pos":[99.86391600929984,658.8879940739995],"orientation":-101.93937571986935,"health":1.0,"energy_copy":1.916294625,"age":15.330357,"gen":1436242,"fitness":15.330357},"400139554":{"nn":{"node_layers":[{"biases":[-0.012312774720018082,-2.383545797119924,-0.146462362739829,6.200447279700159,0.8951492572199783,-13.707763032559912,-2.6561933653000502,-5.919961277219962],"activation_ref":"sigmoid"},{"biases":[3.0004685698602342,0.03220898674003408],"activation_ref":"sigmoid"}],"connection_layers":[{"input_size":8,"output_size":2,"weights":[[-0.06154109043994241,2.4277464783600626],[2.7216496045801772,6.565556981700084],[-14.004688026419974,-4.983008204019894],[11.825414054440134,-8.57456870707994],[7.9493845357601005,-1.2351760068398803],[2.1782819662800854,-1.2752170350797252],[-8.445771938419957,-0.1670447517598656],[-10.401310131719814,7.000515039380003]],"dyn_weights":[[12.121587130520151,9.754611455059846],[-1.858100510279978,3.332591287880079],[2.8288470550200637,4.05649134141993],[-5.093782441500038,-0.1404217905399492],[-0.9315114334598349,4.913523154239933],[-5.261287146580128,-2.262352079479999],[-19.162284894260484,1.443631212560048],[-4.178575381499904,-2.4823683510798826]]}]},"type_":"predator","pos":[675.2240255809932,711.9582646245422],"orientation":94.96100440390876,"health":0.8227421200000001,"energy_copy":3.0,"age":43.327445000000004,"gen":353925,"fitness":3.0},"400139764":{"nn":{"node_layers":[{"biases":[16.766396896620254,3.1788704109604016,-0.5186415434200439,-0.9060443739999996,22.930021001900116,-0.6258072328999253,-0.24623651453996745,3.2518291665206926],"activation_ref":"sigmoid"},{"biases":[7.20694786565988,10.53374265658026],"activation_ref":"sigmoid"}],"connection_layers":[{"input_size":8,"output_size":2,"weights":[[-0.662361276180447,32.25130235535892],[-18.00291753946013,-30.39906983214154],[34.790137277620595,11.827937995501022],[-1.8204859373191353,35.62552930345962],[10.862877499459998,-4.678202022759544],[17.88651917352054,-23.7311364209601],[7.21771317850071,5.463067792760378],[9.5503262813608,-14.59871723461955]],"dyn_weights":[[-7.507685533659806,-28.502453514699113],[3.0629925359001273,3.544128765780472],[-3.2465935826200667,2.850538019659914],[17.697215843979567,0.04189426151977722],[-0.3879761772405388,0.13296563108004716],[19.316955097520285,-1.7210964121004848],[11.265269230520001,-2.569056170079795],[-5.69708813826038,17.714642206861285]]}]},"type_":"prey","pos":[493.9968873762706,887.1636317732397],"orientation":289.273349531366,"health":1.0,"energy_copy":0.9416811250000002,"age":7.533449000000002,"gen":1436242,"fitness":7.533449000000002},"400139371":{"nn":{"node_layers":[{"biases":[16.82237435658024,3.3563160359204,-0.41433186046004356,-0.9314276985199994,23.025930948260118,-0.5955672113399256,-0.2231514776599674,3.3244540809606926],"activation_ref":"sigmoid"},{"biases":[7.15864704893988,10.581359813340264],"activation_ref":"sigmoid"}],"connection_layers":[{"input_size":8,"output_size":2,"weights":[[-0.7781426120204472,32.2439719780789],[-17.966299809620125,-30.443795984381556],[34.795865920620614,11.884928045461018],[-1.8109008811191352,35.65388368733962],[10.964246880740001,-4.589560713679543],[17.795139484360554,-23.7112396496801],[7.021848979180713,5.387306749240376],[9.584385514080795,-14.537702320899548]],"dyn_weights":[[7.4771821426598075,-28.292048909059115],[-3.090068210140128,3.4885029420204705],[3.225684268180067,2.795894470259913],[17.577583414139557,0.06158710971977718],[0.3148174976005388,0.26389325600004726],[19.41230859780028,-1.8464569595404852],[-11.28808156652,-2.6710758803997963],[5.626987831300381,17.77124632210128]]}]},"type_":"prey","pos":[831.0562511253185,743.5741913264128],"orientation":255.33166123014297,"health":1.0,"energy_copy":1.0565997500000042,"age":72.45279800000002,"gen":1436236,"fitness":72.45279800000002},"400139088":{"nn":{"node_layers":[{"biases":[-0.4739254050800179,-2.115140218119926,-0.155513009299829,6.220557691460156,0.9568936773799779,-13.697318333199929,-2.3976279297000507,-5.971176537939962],"activation_ref":"sigmoid"},{"biases":[2.9811771002602323,-0.19097122573996586],"activation_ref":"sigmoid"}],"connection_layers":[{"input_size":8,"output_size":2,"weights":[[-0.14145621019994234,2.216908834960066],[2.620194712860177,6.563629817420083],[-13.893098662579979,-4.953565774179896],[11.868053263360125,-8.46892381919995],[7.667836479160097,-1.1169585948398806],[2.251334294120087,-1.5469724103597267],[-8.380523145139959,-0.25619802739986564],[-10.355650224159817,6.9636574353799965]],"dyn_weights":[[-12.217815223720148,9.634670587699853],[-1.6726522304399773,-3.529962370960078],[-2.672038851140065,3.823424978259928],[-4.813489847180037,-0.10652249225994904],[-0.9219344398198359,4.651869392159943],[5.60096053990013,-2.249098943360004],[-19.08410914862048,-1.3681650670800485],[-4.1802761528199115,-2.385276837959885]]}]},"type_":"predator","pos":[921.3325291428358,707.9551526496945],"orientation":14.217793495895222,"health":0.6514924760000003,"energy_copy":8.0,"age":120.27211100000015,"gen":353927,"fitness":8.0},"400139393":{"nn":{"node_layers":[{"biases":[-0.5019623343600179,-2.117775043639926,-0.171879531979829,6.225476079820156,0.9481560086599778,-13.700192325119929,-2.3952770964200507,-5.958894015619961],"activation_ref":"sigmoid"},{"biases":[2.9814477544202322,-0.20613445117996587],"activation_ref":"sigmoid"}],"connection_layers":[{"input_size":8,"output_size":2,"weights":[[-0.14295572859994235,2.224633091560066],[2.6321969057401766,6.576788051500084],[-13.874338817259979,-4.954215332499896],[11.841716388600124,-8.47833691855995],[7.675058973400097,-1.1430968683998806],[2.239853147800087,-1.5485079077197266],[-8.39951790889996,-0.23363477383986567],[-10.356752287839816,6.986217288499997]],"dyn_weights":[[-12.198563616160149,9.629442730939854],[-1.6549321333999774,-3.509664514760078],[-2.6934183081000644,3.8199081322199278],[-4.820929410860036,-0.08007217317994905],[-0.921095369939836,4.669414557839943],[5.59002493086013,-2.249982547920004],[-19.094815015740483,-1.3843352748000484],[-4.1596616927799115,-2.3728223396798853]]}]},"type_":"predator","pos":[734.8055883803347,27.05800687231618],"orientation":123.53158043185257,"health":0.2591171519999996,"energy_copy":2.0,"age":68.93793599999997,"gen":353927,"fitness":2.0},"400139246":{"nn":{"node_layers":[{"biases":[-0.016266186640018082,-2.354460496079924,-0.17930224289982905,6.2202077755001595,0.9532037302199782,-13.71124515063991,-2.62753292838005,-5.918129468099963],"activation_ref":"sigmoid"},{"biases":[3.0180694237402346,0.003192859100034081],"activation_ref":"sigmoid"}],"connection_layers":[{"input_size":8,"output_size":2,"weights":[[-0.06819903403994239,2.409032425640063],[2.738188933180177,6.582948931940084],[-13.971093608619976,-5.004220132459894],[11.822580581480132,-8.60645700967994],[7.978498424840101,-1.2614427400398802],[2.127158502080086,-1.335461374559725],[-8.423254788659955,-0.16290968879986562],[-10.410263368799814,7.036821941540003]],"dyn_weights":[[12.064254820800151,9.776895120459848],[-1.8688511911199777,3.3995778656000786],[2.8421653942600633,-4.0933835938599294],[5.113920827100039,-0.09882536629994922],[-0.925919150699835,-4.925309429439934],[-5.243925046780126,-2.312609317079999],[-19.247660201780484,1.513904872120048],[-4.169207912259905,-2.5069628724398827]]}]},"type_":"predator","pos":[845.4224670992684,120.64211246389797],"orientation":74.48955804103895,"health":0.7733055340000002,"energy_copy":12.0,"age":95.24804600000009,"gen":353925,"fitness":12.0},"400139760":{"nn":{"node_layers":[{"biases":[16.83211712854024,3.3731637755604003,-0.47760073874004355,-0.9552327794799993,23.00285246702012,-0.5885931591399256,-0.18982903533996742,3.337717279680692],"activation_ref":"sigmoid"},{"biases":[7.20857727825988,10.591026150220264],"activation_ref":"sigmoid"}],"connection_layers":[{"input_size":8,"output_size":2,"weights":[[-0.7441077091804472,32.233450676438906],[-17.959409556460123,-30.44128559914156],[34.831251545180606,11.920420639021017],[-1.795146982119135,35.63926160477961],[10.95182895838,-4.5048560395195425],[17.768719294560555,-23.736189671520094],[6.9531184846607115,5.410270619200376],[9.559406805640794,-14.530066161939548]],"dyn_weights":[[7.472956989619808,-28.288200688939117],[3.0972535880601275,3.5442880742604705],[3.2733507807000666,2.765818173699913],[-17.60206085961956,0.06249811443977718],[0.2697442190805388,0.23554576648004724],[19.442452987840284,-1.779170807340485],[-11.307141437759999,-2.6802417673597962],[5.666656481500381,17.80509277222128]]}]},"type_":"prey","pos":[74.97948250511133,872.5652654401301],"orientation":12.101871888111816,"health":1.0,"energy_copy":0.9944721250000003,"age":7.955777000000002,"gen":1436238,"fitness":7.955777000000002},"400139763":{"nn":{"node_layers":[{"biases":[-0.01277640240001809,-2.375574093679924,-0.140251951219829,6.266344251740159,0.8861239184199781,-13.735930819679913,-2.6177867763400493,-5.878249614339961],"activation_ref":"sigmoid"},{"biases":[3.0488691351402344,0.002639946740034078],"activation_ref":"sigmoid"}],"connection_layers":[{"input_size":8,"output_size":2,"weights":[[-0.10582003967994238,2.397609877760063],[2.805019715780178,6.584094430100085],[-14.013790964899975,-5.024925857779894],[11.808937363120135,-8.59449377691994],[7.9341679094401,-1.2439455030798803],[2.125814569440086,-1.297462837919725],[-8.404066963339957,-0.15198481139986558],[-10.317927713999815,6.987908559940002]],"dyn_weights":[[12.06228869644015,9.786188997419845],[-1.869651981959978,3.3855547536400787],[2.893648331460064,-4.086362451059931],[5.0769064752200395,-0.1198906060599492],[0.9557576769398349,-4.920616708999933],[5.278544569060126,-2.24484182556],[-19.195161730820484,1.4069843079200484],[4.161711933179905,-2.425972835679883]]}]},"type_":"predator","pos":[774.5751142470033,441.2963263817455],"orientation":-59.077283833477566,"health":0.8603593840000001,"energy_copy":0.0,"age":7.757812000000001,"gen":353924,"fitness":0.0},"400139608":{"nn":{"node_layers":[{"biases":[-0.010468986480018087,-2.4003759058799243,-0.149229676099829,6.258843306980158,0.8836229549399781,-13.737939877479914,-2.600350409340049,-5.887292058059961],"activation_ref":"sigmoid"},{"biases":[3.0368712727402345,-0.004265533779965925],"activation_ref":"sigmoid"}],"connection_layers":[{"input_size":8,"output_size":2,"weights":[[-0.10860443107994239,2.3896473975200627],[2.786911853980178,6.605760324020085],[-14.029048325979975,-5.0305842688998945],[11.800950596280135,-8.606416641159939],[7.9496602059601,-1.2734289320798804],[2.104571806520086,-1.313543266679725],[-8.381292716579956,-0.1524861437198656],[-10.320530311759814,7.011161250860002]],"dyn_weights":[[12.06602417644015,-9.784260454059845],[-1.863879946559978,3.360355082840079],[2.8856523870600643,-4.066227142499931],[5.08722368710004,-0.09650012237994919],[0.952879372179835,-4.947389360719933],[-5.276017713740126,-2.2729215304799997],[-19.19642291614048,1.3981413491200483],[4.129387947659906,-2.4132647342798825]]}]},"type_":"predator","pos":[419.1222743443871,915.033894969564],"orientation":-323.9073555866743,"health":0.36851716,"energy_copy":0.0,"age":35.082379999999986,"gen":353924,"fitness":0.0},"400138627":{"nn":{"node_layers":[{"biases":[-0.011174184800018083,-2.3868747507199237,-0.16979226729982902,6.21845030590016,0.9446731428599782,-13.69627836563991,-2.63180845174005,-5.912421977259963],"activation_ref":"sigmoid"},{"biases":[3.0189355027002343,-0.03274389613996592],"activation_ref":"sigmoid"}],"connection_layers":[{"input_size":8,"output_size":2,"weights":[[-0.0982564705199424,2.382422845280063],[2.730973851540177,6.5744813070200845],[-13.988500426139977,-4.987779811779894],[11.805988062960132,-8.61854091927994],[7.943011252120101,-1.2553184855598802],[2.166791788760086,-1.3092961045997251],[-8.453306552019956,-0.15616144843986562],[-10.386389702959814,7.000268664300003]],"dyn_weights":[[12.060674274720151,9.774383332019848],[-1.8803839872399777,3.387379124160079],[2.8502046695800636,-4.07047344697993],[5.085433466060039,-0.11102724673994921],[-0.9192236712598351,-4.884228362639933],[-5.221124543020127,-2.313811146519999],[-19.235524417100482,1.5019215570400481],[-4.172618223899905,-2.4965941500798827]]}]},"type_":"predator","pos":[562.3471564047409,490.4986277535047],"orientation":77.12969886724932,"health":0.6096211040000007,"energy_copy":15.0,"age":209.3824270000001,"gen":353924,"fitness":15.0},"400139544":{"nn":{"node_layers":[{"biases":[16.774985678020247,3.3586822774404004,-0.5606934528600438,-0.9031962065199994,22.878379570180115,-0.5281773510599252,-0.3071890844599675,3.264779126720692],"activation_ref":"sigmoid"},{"biases":[7.21576856861988,10.635574512660263],"activation_ref":"sigmoid"}],"connection_layers":[{"input_size":8,"output_size":2,"weights":[[-0.744925013900447,32.15829363079892],[-18.041795145020135,-30.45989006374155],[34.67967628134061,11.960590308101017],[-1.815408157719135,35.59845089241962],[11.029949317179996,-4.579936576159545],[17.900901775000545,-23.7554297479601],[7.140727178700711,5.427259951560377],[9.504020058360794,-14.646218613179549]],"dyn_weights":[[7.650433811539808,-28.451091750819113],[3.114444771460128,3.5792346797804715],[3.104994218700066,2.821945603299913],[-17.790816376059563,-0.043131907680222785],[0.40566785072053874,-0.28997052204004725],[-19.291750532360275,-1.7616772927404853],[-11.3356757596,-2.632107161679796],[-5.586222180900379,17.806927120141285]]}]},"type_":"prey","pos":[36.826113155629464,768.7094091070322],"orientation":-152.59914166003347,"health":1.0,"energy_copy":5.500933874999999,"age":44.007470999999995,"gen":1436239,"fitness":44.007470999999995},"400139523":{"nn":{"node_layers":[{"biases":[16.748827562020246,3.3418119308804006,-0.5477447928200436,-0.9337915987599993,22.85080263446012,-0.49454249697992525,-0.27202005457996753,3.2654475068806925],"activation_ref":"sigmoid"},{"biases":[7.2277088121398805,10.681515913020263],"activation_ref":"sigmoid"}],"connection_layers":[{"input_size":8,"output_size":2,"weights":[[-0.675690205460447,32.21660730163893],[-18.105957368420135,-30.43002796658155],[34.73973086746061,11.906058771421018],[-1.7452683135191351,35.60647196185962],[10.980009525419996,-4.611606970679545],[17.905999167520545,-23.7937941970401],[7.135470785820711,5.438874421840377],[9.534391228320795,-14.60862357145955]],"dyn_weights":[[7.670898502699808,-28.462033104299106],[3.0359079513001275,3.653638136940472],[3.089375731500066,2.8839083738599136],[-17.79196626173956,0.05359359995977722],[0.42492320116053867,0.30776773912004723],[-19.27939127048028,-1.7524613946604854],[11.357905084840002,-2.6702882619997967],[-5.62726786450038,17.810007138741284]]}]},"type_":"prey","pos":[638.7478405149169,780.7275907461118],"orientation":118.45193000003486,"health":1.0,"energy_copy":5.9257242499999965,"age":47.40579399999997,"gen":1436240,"fitness":47.40579399999997},"400139779":{"nn":{"node_layers":[{"biases":[16.94824496198024,3.3603306867204004,-0.49992288342004343,-0.9726680179599992,22.987659876900118,-0.6307394660999256,-0.2056971227399674,3.2612188350406925],"activation_ref":"sigmoid"},{"biases":[7.246164477219878,10.545024663740262],"activation_ref":"sigmoid"}],"connection_layers":[{"input_size":8,"output_size":2,"weights":[[-0.7382930076604473,32.28619255843891],[-18.007928435700123,-30.47305037998155],[34.76258155590062,11.893350270621015],[-1.7084101021991354,35.79223020121962],[10.9477503563,-4.633698735239543],[17.851926366160555,-23.711845722040103],[7.001911927180712,5.433264683000376],[9.631817644480792,-14.569192497059552]],"dyn_weights":[[-7.542816909539806,-28.31509624085911],[3.126040672220128,3.508310450140472],[3.127845203340067,2.8121536796599127],[-17.640602832539557,0.049533851439777225],[0.32963606392053874,-0.16131812644004725],[-19.537928985120285,-1.8109827906204856],[-11.31727667576,-2.6795204605597966],[5.62015569694038,17.84965954634128]]}]},"type_":"prey","pos":[26.204105350820686,715.6670620501244],"orientation":-121.78603485254416,"health":1.0,"energy_copy":0.47987399999999997,"age":3.8389919999999997,"gen":1436241,"fitness":3.8389919999999997},"400139241":{"nn":{"node_layers":[{"biases":[-0.01569203020001808,-2.3714811642399236,-0.16828874725982904,6.215593754660159,0.9359526412999782,-13.69416689403991,-2.61965591902005,-5.915385554459962],"activation_ref":"sigmoid"},{"biases":[3.0080114740602344,0.004762762420034084],"activation_ref":"sigmoid"}],"connection_layers":[{"input_size":8,"output_size":2,"weights":[[-0.0865964031599424,2.3898451669600633],[2.758366132060177,6.553074175060084],[-14.003638534099977,-5.019931193699894],[11.827092857560132,-8.60124087811994],[7.996314362320101,-1.2528830631998802],[2.112197693280086,-1.328651375399725],[-8.455242578619956,-0.1705154280798656],[-10.390606470319813,7.013161024820003]],"dyn_weights":[[12.041432346240152,9.779197341299847],[-1.8647521028799776,3.3814661619200788],[2.8070009098200637,-4.08644319765993],[5.10628095234004,-0.09232057117994921],[-0.921274615339835,-4.910446243319933],[-5.242415028180127,-2.308705253319999],[-19.262070679580482,1.4973087985200482],[-4.163017613059905,-2.509424908319883]]}]},"type_":"predator","pos":[535.4610080745406,641.8957039526276],"orientation":161.3736451922209,"health":0.4547432980000005,"energy_copy":7.0,"age":96.18651600000008,"gen":353925,"fitness":7.0},"400139790":{"nn":{"node_layers":[{"biases":[16.837752820980242,3.3506985521204,-0.4205098647800436,-0.9007131219199994,23.03048370118012,-0.6008076252999256,-0.2096758796599674,3.3119282216006924],"activation_ref":"sigmoid"},{"biases":[7.14453916893988,10.594793132860262],"activation_ref":"sigmoid"}],"connection_layers":[{"input_size":8,"output_size":2,"weights":[[-0.7832620104604473,32.2780441261589],[-17.962783460900123,-30.427186883021555],[34.81913646398062,11.885100512341019],[-1.8042584099591352,35.664091283539626],[10.96553466238,-4.562870665799543],[17.798859721520554,-23.6777345857601],[7.014519209020713,5.418362786680377],[9.588945526120796,-14.561274893939549]],"dyn_weights":[[7.485737341419808,-28.280658054939114],[3.084682138740128,3.4983961651004707],[3.2101888845000666,2.831254612739913],[17.626288744819554,0.08685390415977717],[0.32397600268053883,0.24294252784004727],[19.39183800156028,-1.8761540342204852],[-11.295817596880003,-2.663663567159796],[5.644884716140381,17.742998507421284]]}]},"type_":"prey","pos":[358.2664242660618,407.30708055706026],"orientation":-291.47222438320426,"health":1.0,"energy_copy":0.12296337499999999,"age":0.9837069999999999,"gen":1436238,"fitness":0.9837069999999999},"400139673":{"nn":{"node_layers":[{"biases":[16.710420363300244,3.2639104288004006,-0.5187718495000436,-0.9654049611199997,22.99130937050012,-0.6350513178199254,-0.18607524073996742,3.325627334720691],"activation_ref":"sigmoid"},{"biases":[7.190381824099879,10.67928539526026],"activation_ref":"sigmoid"}],"connection_layers":[{"input_size":8,"output_size":2,"weights":[[-0.7153616840604472,32.22867441663891],[-17.94836386658013,-30.306765509421563],[34.71027492378061,11.816178762461018],[-1.6966105049591351,35.59057603633962],[10.975928626859996,-4.673705277679544],[17.765389424760546,-23.7987871768001],[7.059926573060711,5.394030147360375],[9.488357775480798,-14.518663862139546]],"dyn_weights":[[7.463283493539807,-28.35436765245911],[3.0707444453001282,3.483471867740472],[3.230338828780066,2.7270402413399135],[-17.564901327539562,0.04163495027977719],[0.3067564238805388,0.23124953040004728],[-19.34266178404028,-1.7828903268604852],[-11.266792755280001,-2.6260210203597953],[5.554165130700379,17.850725218341278]]}]},"type_":"prey","pos":[563.5069235082105,540.3461834513491],"orientation":121.34562768224875,"health":1.0,"energy_copy":2.979677249999999,"age":23.837417999999992,"gen":1436238,"fitness":23.837417999999992},"400139619":{"nn":{"node_layers":[{"biases":[16.76343329254025,3.3183069860804006,-0.5302167969800436,-0.9064634222399993,22.878525455900117,-0.5215603268999253,-0.28880419977996746,3.240520672520692],"activation_ref":"sigmoid"},{"biases":[7.209460865499881,10.631927958900263],"activation_ref":"sigmoid"}],"connection_layers":[{"input_size":8,"output_size":2,"weights":[[-0.699884039020447,32.19826581911893],[-18.126164578740134,-30.433814691501553],[34.7686050342606,11.910782137381018],[-1.770404703359135,35.56442196241962],[10.950917507579996,-4.624946385759546],[17.939391070560543,-23.780127104720098],[7.135789342780711,5.444221989120377],[9.521459503360795,-14.63201990005955]],"dyn_weights":[[7.665848548259808,-28.45027780969911],[3.0462997631401274,3.628401838580472],[3.0902866422600654,2.871621243859913],[-17.78092459865956,0.04176065975977722],[0.4392651528005386,0.3245262308800473],[-19.285906699240275,-1.7449296813804853],[11.377231352520003,-2.6566401746797967],[-5.6361584333803805,17.779421011061284]]}]},"type_":"prey","pos":[808.7854321991231,741.6289145140482],"orientation":207.69043455912788,"health":1.0,"energy_copy":4.0352091250000015,"age":32.28167300000001,"gen":1436240,"fitness":32.28167300000001},"400139605":{"nn":{"node_layers":[{"biases":[16.74088644730025,3.1846034415204016,-0.4469547488200437,-0.8688985548799996,22.985431575100115,-0.6494110964999251,-0.2718894355799675,3.194984070640693],"activation_ref":"sigmoid"},{"biases":[7.18225270297988,10.586537622260265],"activation_ref":"sigmoid"}],"connection_layers":[{"input_size":8,"output_size":2,"weights":[[-0.7120567934604469,32.22109951567892],[-17.958621584100136,-30.372451999021543],[34.80246564362061,11.81751193286102],[-1.8729755468791351,35.629294649459624],[10.83496183458,-4.657609280279544],[17.893191858560538,-23.731451571960093],[7.206847264900709,5.443094487200376],[9.577089445720798,-14.580365548859548]],"dyn_weights":[[7.490931852339806,-28.434370381579114],[3.0373590779001276,3.5290911116604717],[-3.2798219136200673,2.824071328859914],[17.690036487019565,0.04923485015977723],[-0.3398215256405388,0.2043111373600472],[19.296385499160284,-1.7036886989804851],[11.335679348280001,-2.5732251479197954],[5.7426152284203775,17.644919481821283]]}]},"type_":"prey","pos":[675.0706497763191,761.491008320658],"orientation":106.15027561788375,"health":1.0,"energy_copy":4.428097249999998,"age":35.42477799999998,"gen":1436243,"fitness":35.42477799999998},"400139677":{"nn":{"node_layers":[{"biases":[-0.035075623320018096,-2.351404337159924,-0.12642374089982902,6.2830888060601575,0.8777353801399781,-13.735098966479912,-2.6369261407000493,-5.889243651939962],"activation_ref":"sigmoid"},{"biases":[3.0558799192202346,0.026629825580034076],"activation_ref":"sigmoid"}],"connection_layers":[{"input_size":8,"output_size":2,"weights":[[-0.08996199111994238,2.3962077695200628],[2.802333464220178,6.567308120020085],[-14.013317987379974,-5.0190493898998945],[11.797666158920133,-8.56062435579994],[7.9564255934401,-1.2979993662398803],[2.151051785120086,-1.301238555319725],[-8.385417606459956,-0.1812811102798656],[-10.326616649279815,7.029207050980001]],"dyn_weights":[[12.04772900876015,9.760347442259846],[-1.8174023711599778,3.3645958714400788],[2.8841952297400644,-4.091796990179931],[5.077118057740039,0.11955240309994919],[0.976528779259835,-4.914907073399934],[-5.2713079781001255,-2.2358211789199998],[-19.230169099820486,1.4080234435200483],[-4.1358896856999054,-2.3935065811198823]]}]},"type_":"predator","pos":[207.04806595723326,296.05668532044456],"orientation":255.60522209737027,"health":0.7877581480000002,"energy_copy":1.0,"age":23.116683,"gen":353924,"fitness":1.0},"400139741":{"nn":{"node_layers":[{"biases":[16.72651167126025,3.1641079937604015,-0.5013878339800437,-0.9214913123199996,22.941281658060117,-0.5855842982999253,-0.25105354225996745,3.250495188920693],"activation_ref":"sigmoid"},{"biases":[7.221205293539879,10.538470059340261],"activation_ref":"sigmoid"}],"connection_layers":[{"input_size":8,"output_size":2,"weights":[[-0.690962354860447,32.232578070998926],[-18.042188596540136,-30.33747849586154],[34.7666018869806,11.81220367254102],[-1.8276584385591352,35.56639413405963],[10.86983609382,-4.685528104759545],[17.819664051200537,-23.7022282582401],[7.191488444580711,5.5070916548003765],[9.563682686560798,-14.577619539019548]],"dyn_weights":[[7.509717517659806,-28.508332760419115],[3.0433258052201277,3.500511985300472],[-3.255341622740066,2.8248937468199142],[-17.72388289821957,0.04168428111977723],[0.42160597400053884,0.1608695891200472],[19.30317301460029,-1.7203341239404852],[11.265474774840001,-2.602591158919795],[5.702245918180379,17.703962280381283]]}]},"type_":"prey","pos":[835.0025156379103,779.9911487398778],"orientation":217.20028468909487,"health":1.0,"energy_copy":1.4739017500000005,"age":11.791214000000004,"gen":1436242,"fitness":11.791214000000004},"400139603":{"nn":{"node_layers":[{"biases":[-0.013409952280018091,-2.405720358879924,-0.140196666139829,6.288753392580158,0.9015151892599781,-13.742150020599913,-2.621677056940049,-5.899182659859961],"activation_ref":"sigmoid"},{"biases":[3.0303396563802343,0.01450665882003408],"activation_ref":"sigmoid"}],"connection_layers":[{"input_size":8,"output_size":2,"weights":[[-0.08773317723994238,2.396519286080063],[2.7965463301801776,6.602349754340085],[-14.005210351459974,-5.009333801739894],[11.828735448440135,-8.59013407679994],[7.9630277920801,-1.2653508990798803],[2.132894561560086,-1.2960457529597251],[-8.395278214459957,-0.1861902559598656],[-10.325993524679815,6.986079550740002]],"dyn_weights":[[12.083463621200151,9.797283742339847],[-1.849569039079978,3.358790364840079],[2.891442898140064,-4.088447739819931],[5.0795460192200395,-0.1021421696199492],[0.9677471690998349,-4.930804611839934],[-5.255199545860126,-2.24233414292],[-19.210461152940482,1.3870634124800483],[4.147012833299906,-2.4058618314798825]]}]},"type_":"predator","pos":[511.30510481844874,351.3681434862381],"orientation":352.76164586696433,"health":0.7367248000000002,"energy_copy":2.0,"age":35.54277699999999,"gen":353924,"fitness":2.0},"400139707":{"nn":{"node_layers":[{"biases":[-0.02189484012001809,-2.369242572279924,-0.126693607259829,6.257600841460158,0.8993126866999781,-13.746215589959913,-2.6293233891800494,-5.897632712779962],"activation_ref":"sigmoid"},{"biases":[3.0493244461002345,0.016815471700034074],"activation_ref":"sigmoid"}],"connection_layers":[{"input_size":8,"output_size":2,"weights":[[-0.09639628515994238,2.3819136080400627],[2.805477052940178,6.5789890879400845],[-14.003424866139975,-5.019879968299894],[11.782650179280132,-8.55981656587994],[7.9440163592401,-1.2927885206798804],[2.122396851640086,-1.2915936793997251],[-8.393508218259957,-0.1945258010798656],[-10.325221958959816,7.0384029786600015]],"dyn_weights":[[12.043712335280151,9.793983691699847],[-1.823693948599978,3.364061480720079],[2.8567540949400643,-4.102899014299931],[5.068584170620039,-0.11349769253994918],[0.963751763819835,-4.935797439239934],[-5.287546832580126,-2.23330003476],[-19.242754390740483,1.4202403314800482],[-4.1350148972999055,-2.4004166683598824]]}]},"type_":"predator","pos":[196.06942071932312,913.2721126805193],"orientation":81.22097169783015,"health":0.8901154,"energy_copy":2.0,"age":17.339884000000005,"gen":353924,"fitness":2.0},"400138812":{"nn":{"node_layers":[{"biases":[-0.024801052720018084,-2.4060808019999236,-0.126125654899829,6.199647821580159,0.9486513797399783,-13.69003432295991,-2.6634993441800505,-5.925827532379963],"activation_ref":"sigmoid"},{"biases":[3.0343885154602344,-0.01828003613996592],"activation_ref":"sigmoid"}],"connection_layers":[{"input_size":8,"output_size":2,"weights":[[-0.08409416027994239,2.4767442241200626],[2.723391884540177,6.554815705220085],[-14.027980589259975,-5.011581243579893],[11.787725652360134,-8.58541903187994],[7.919732560720101,-1.1983045009998803],[2.1809811366400855,-1.3004197899597254],[-8.408654535579956,-0.13999804443986558],[-10.389409185479815,6.994134944220003]],"dyn_weights":[[12.155546790160152,9.792398594859847],[-1.862808412839978,3.341862020000079],[2.822751994820064,-4.08062201773993],[5.056078084980038,-0.14084307333994922],[-0.9722161853798349,4.932151666159933],[-5.222472279660128,-2.266307879159999],[-19.179042546220487,1.462946811680048],[-4.187863841779904,-2.472450191079883]]}]},"type_":"predator","pos":[606.7729593413274,407.4613912653289],"orientation":167.247081277351,"health":0.3267914980000006,"energy_copy":11.0,"age":171.45080600000009,"gen":353924,"fitness":11.0},"400139190":{"nn":{"node_layers":[{"biases":[-0.006410136920018086,-2.3745773759199236,-0.16727731341982902,6.2373438855401595,0.9462014054599782,-13.67781847311991,-2.6026861748200503,-5.914985670979962],"activation_ref":"sigmoid"},{"biases":[3.0048622593802343,-0.010289274419965919],"activation_ref":"sigmoid"}],"connection_layers":[{"input_size":8,"output_size":2,"weights":[[-0.0683655183599424,2.3943576913200633],[2.725767938860177,6.563135916660085],[-14.006133927779976,-5.030734205259893],[11.806679091280133,-8.57022821523994],[7.9763280879601,-1.2291561947198804],[2.123214411080086,-1.3082010919997251],[-8.443525821899955,-0.16053239363986563],[-10.428939891759814,7.014473493780003]],"dyn_weights":[[12.04795941688015,9.790814392819847],[-1.8884387378799776,3.404205028320079],[2.8059039152600636,-4.08237314717993],[5.090544218540039,-0.10843722225994921],[-0.914223410059835,-4.922562791119934],[-5.2515460229401265,-2.293647649719999],[-19.257957682940482,1.510325471840048],[-4.177556006579905,-2.521322488319883]]}]},"type_":"predator","pos":[396.7177709084903,356.02803783240984],"orientation":234.34890214171875,"health":0.25625422,"energy_copy":5.0,"age":102.20886100000006,"gen":353925,"fitness":5.0},"400139500":{"nn":{"node_layers":[{"biases":[-0.0024844358800180863,-2.3796287444399242,-0.12074682953982901,6.258380170500158,0.9010169544199781,-13.740253138399913,-2.635276833380049,-5.869570773699961],"activation_ref":"sigmoid"},{"biases":[3.0481014255002346,0.006126017460034078],"activation_ref":"sigmoid"}],"connection_layers":[{"input_size":8,"output_size":2,"weights":[[-0.11572544411994237,2.4009616426000626],[2.796220304660178,6.553603437420085],[-14.031953650699975,-4.996618407219894],[11.777252936360133,-8.56026898323994],[7.9325468423201,-1.2705588410398805],[2.1196184360000863,-1.284308112039725],[-8.395027292699956,-0.1973475017998656],[-10.321590685719816,7.039194006460002]],"dyn_weights":[[12.055848913000151,9.778626770779846],[-1.8294343295199778,3.359823867560079],[2.893975132540064,-4.095913170739931],[5.070685694300039,-0.12219672461994918],[0.9591664584198349,-4.934240978679934],[-5.265817727300125,-2.23302579988],[-19.217702625860486,1.4096230591200483],[-4.1347461378999055,-2.4096202222398824]]}]},"type_":"predator","pos":[277.1082629132366,348.8453819861587],"orientation":95.95368412001625,"health":0.7733055340000002,"energy_copy":6.0,"age":52.66312599999994,"gen":353924,"fitness":6.0},"400139504":{"nn":{"node_layers":[{"biases":[16.74304173890025,3.1728268959604016,-0.44684156178004375,-0.8623057744399996,22.980463278580114,-0.6373330654599252,-0.2743165179399675,3.1885138212806927],"activation_ref":"sigmoid"},{"biases":[7.19230273301988,10.594536099060264],"activation_ref":"sigmoid"}],"connection_layers":[{"input_size":8,"output_size":2,"weights":[[-0.7264397475404468,32.23197034155892],[-17.960304598700137,-30.346495805901544],[34.80589378642061,11.82920042338102],[-1.863875630079135,35.61477202321962],[10.808317150339999,-4.628218374199545],[17.891490980520537,-23.718263275360094],[7.20617253046071,5.449858598080377],[9.557738857960798,-14.575957471739548]],"dyn_weights":[[7.497971981659806,-28.471882023819116],[3.0331151319401277,3.5506053047404715],[-3.2657832839800673,2.8324419584599143],[17.692344274059568,0.06149099735977723],[-0.3502030244005388,0.20763341364004717],[19.284918184040286,-1.6924434639804853],[11.296999467760001,-2.6020788243597957],[5.7624063388603775,17.661477514781286]]}]},"type_":"prey","pos":[979.3410783262104,837.2586263132033],"orientation":208.67849160121415,"health":1.0,"energy_copy":4.426309624999993,"age":51.41047699999994,"gen":1436243,"fitness":51.41047699999994},"400139429":{"nn":{"node_layers":[{"biases":[-0.01728991528001809,-2.4063054783199243,-0.148762256659829,6.288705309140158,0.886478382819978,-13.737891763119913,-2.602718435460049,-5.904841814939961],"activation_ref":"sigmoid"},{"biases":[3.0424999617402344,0.0038690289400340767],"activation_ref":"sigmoid"}],"connection_layers":[{"input_size":8,"output_size":2,"weights":[[-0.09036924019994239,2.3999167764800626],[2.7917943193801777,6.572857168100085],[-14.037075221899975,-5.001496372419894],[11.806048928520134,-8.60999148127994],[7.9343099511201,-1.2777607618398803],[2.134586732120086,-1.316106473879725],[-8.389767064659956,-0.1660926910398656],[-10.350842215199815,7.006236538060002]],"dyn_weights":[[12.063902900480151,9.808788722459846],[-1.856856103399978,3.352969678600079],[2.890382866780064,-4.068181237539931],[5.05634826842004,-0.10528594549994919],[0.966603966979835,-4.926560836559934],[-5.268196169380126,-2.2586046719999997],[-19.197415699460482,1.4108515053200483],[4.128419788059905,-2.4308506326398827]]}]},"type_":"predator","pos":[866.1525793983935,784.338551990116],"orientation":217.16285390080392,"health":0.21141006399999995,"energy_copy":5.0,"age":63.41843899999997,"gen":353924,"fitness":5.0},"400139737":{"nn":{"node_layers":[{"biases":[16.735285828100253,3.1751254652404017,-0.5341569581000438,-0.9069202856799996,22.920389759220118,-0.5967381957399253,-0.2663935874599675,3.259535429720693],"activation_ref":"sigmoid"},{"biases":[7.20824008117988,10.538895530260262],"activation_ref":"sigmoid"}],"connection_layers":[{"input_size":8,"output_size":2,"weights":[[-0.712309508580447,32.214431523518925],[-18.024084138100136,-30.32583316570154],[34.7586575246606,11.789338123901022],[-1.8345660390391352,35.59895419773963],[10.856292540659998,-4.688563776319544],[17.823424200680538,-23.7125799364801],[7.185443692900711,5.512798487600377],[9.566866600680799,-14.560366801379548]],"dyn_weights":[[7.515482345419806,-28.496191796459115],[3.061960683060128,3.5298575699804715],[-3.2672792787000664,2.844951053699914],[-17.70348942253957,0.022927127559777234],[0.4412203048005388,0.1678595531600472],[19.31145913288029,-1.724064060180485],[11.25400323512,-2.636290532199795],[5.690155475900379,17.690288841541285]]}]},"type_":"prey","pos":[954.4974315382956,7.77241538356202],"orientation":88.78118707510528,"health":1.0,"energy_copy":1.4887932500000005,"age":11.910346000000004,"gen":1436242,"fitness":11.910346000000004},"400139486":{"nn":{"node_layers":[{"biases":[-0.02190953792001809,-2.392738054479924,-0.141727604899829,6.286816575140159,0.8831879022999781,-13.715236555839914,-2.6018020794600494,-5.884325759219961],"activation_ref":"sigmoid"},{"biases":[3.0311234878602344,-0.014572409659965925],"activation_ref":"sigmoid"}],"connection_layers":[{"input_size":8,"output_size":2,"weights":[[-0.10045354423994238,2.3863827816400627],[2.7718291478201778,6.574974427420084],[-14.037134631019974,-4.994172320059894],[11.803491863280135,-8.58797130583994],[7.9521141684401,-1.2446451001198804],[2.142544387280086,-1.284351985879725],[-8.381838718379957,-0.1510103037598656],[-10.337280175599815,6.998247969700002]],"dyn_weights":[[12.07432516720015,9.798285206779846],[-1.870921297639978,3.360726292040079],[2.8840114692600642,-4.064989633219931],[5.067496815820039,-0.0854750275799492],[0.990940631899835,-4.943865104799934],[5.267291295300126,-2.24298970096],[-19.21332214438048,1.4160462202400483],[4.146257573219906,-2.3960351512398828]]}]},"type_":"predator","pos":[788.9250021751778,981.2522185332917],"orientation":181.8415544213568,"health":0.5257138919999997,"energy_copy":2.0,"age":54.12700599999994,"gen":353924,"fitness":2.0},"400139294":{"nn":{"node_layers":[{"biases":[-0.011775353400018083,-2.3599561521599237,-0.17735242725982903,6.20083079646016,0.9371175175799782,-13.71000849643991,-2.62172587290005,-5.8902456720999625],"activation_ref":"sigmoid"},{"biases":[3.0225455989402343,-0.013184650779965919],"activation_ref":"sigmoid"}],"connection_layers":[{"input_size":8,"output_size":2,"weights":[[-0.07756913947994239,2.412181673240063],[2.745195560340177,6.5866500692200844],[-13.971389048059976,-5.0320323220998935],[11.806892444280132,-8.577783892359939],[7.9999189779601005,-1.2449682703198803],[2.133912152240086,-1.320417259039725],[-8.431433035579955,-0.16781167255986562],[-10.417367693159814,7.021015197060003]],"dyn_weights":[[12.07674296836015,9.783673224259847],[-1.8895294773199778,3.377807638480079],[2.8394369871800635,-4.106541220459929],[5.1141148987000395,-0.0959482875799492],[-0.900961836819835,-4.908399639479934],[-5.232139852700127,-2.282047729159999],[-19.259847688820482,1.5006012936800481],[-4.166561537939905,-2.496895963759883]]}]},"type_":"predator","pos":[485.55191105103023,403.1399887892236],"orientation":94.6730050677073,"health":0.6878820880000002,"energy_copy":10.0,"age":86.93084900000012,"gen":353925,"fitness":10.0},"400139472":{"nn":{"node_layers":[{"biases":[-0.01702918980001809,-2.3757428755199244,-0.148185042019829,6.2707907143801584,0.8944481888599781,-13.729222402319913,-2.605030859700049,-5.868805901259961],"activation_ref":"sigmoid"},{"biases":[3.0381740078602344,0.0010573958200340763],"activation_ref":"sigmoid"}],"connection_layers":[{"input_size":8,"output_size":2,"weights":[[-0.11211693043994238,2.400229390120063],[2.780687346700178,6.596780579420084],[-14.029876593739974,-5.020385610299894],[11.803679001920134,-8.59284838367994],[7.9529391805601,-1.2722213196398804],[2.121399390560086,-1.282770238879725],[-8.403856572699956,-0.17669795719986559],[-10.315036322119814,7.018596364940002]],"dyn_weights":[[12.067567945280151,9.784327184939846],[-1.852757568759978,3.358255479400079],[2.877283732300064,-4.074711681979931],[5.083783545180039,-0.08584518121994919],[0.9645147652198349,-4.934054409599933],[-5.274948294780126,-2.24568675372],[-19.20249483282048,1.4200414458000483],[4.1511488329399056,-2.396415406839883]]}]},"type_":"predator","pos":[803.0771099757947,865.5531987664101],"orientation":284.70482955880095,"health":0.3775385599999995,"energy_copy":2.0,"age":56.74756599999993,"gen":353924,"fitness":2.0},"400139723":{"nn":{"node_layers":[{"biases":[16.83336893466024,3.3802138392404,-0.4030487579000436,-0.9761987670399994,23.02934996178012,-0.5811643835399257,-0.17505804917996742,3.3337204246806924],"activation_ref":"sigmoid"},{"biases":[7.194175451099879,10.569579180980265],"activation_ref":"sigmoid"}],"connection_layers":[{"input_size":8,"output_size":2,"weights":[[-0.7621498710204473,32.26116566343891],[-17.981678505060124,-30.44998993578156],[34.826121550460606,11.91130859514102],[-1.8203379775591353,35.68078366793961],[10.96015886698,-4.576253191599542],[17.792196809160554,-23.727364948560098],[6.9439213616607125,5.408426065880376],[9.639132995800795,-14.552392684339548]],"dyn_weights":[[7.483744114659808,-28.271602683499115],[-3.1142210309001284,3.5363253247804707],[3.2702523238600674,2.8134260551399137],[17.57952849497956,0.03924601243977719],[0.2827144433205388,0.23979302760004725],[19.40697408820028,-1.7780896035404852],[-11.32115531616,-2.625472505639796],[5.68684578218038,17.800104133941275]]}]},"type_":"prey","pos":[553.4180821092301,255.4444816320172],"orientation":63.09392482940582,"health":1.0,"energy_copy":1.7349646250000004,"age":13.879717000000003,"gen":1436238,"fitness":13.879717000000003},"400139571":{"nn":{"node_layers":[{"biases":[16.824417576220238,3.3485702975604,-0.46883944890004353,-0.9607662109599994,23.003931669660115,-0.5936925643399257,-0.19897176329996744,3.331935810840692],"activation_ref":"sigmoid"},{"biases":[7.16844222993988,10.593634686660263],"activation_ref":"sigmoid"}],"connection_layers":[{"input_size":8,"output_size":2,"weights":[[-0.7387067193004472,32.25914120359891],[-17.992577262900124,-30.43960846002156],[34.86773382358061,11.922437798461017],[-1.7580303014791352,35.614962232899614],[10.989587741620001,-4.547898044639543],[17.788097846760554,-23.703616751360094],[6.969065312180712,5.3995677997603755],[9.590442649240796,-14.520069402019548]],"dyn_weights":[[7.475349309539808,-28.310289879579116],[3.1259063344201277,3.5069568785404703],[3.299615742420067,2.798097484739913],[17.59503525181956,0.03820132091977718],[0.3131739032005388,0.23866369608004726],[19.466130273920285,-1.787533376580485],[-11.3071761544,-2.647923201359796],[5.678154540340381,17.79771618246128]]}]},"type_":"prey","pos":[965.2855639963141,578.4379402292547],"orientation":209.47301300548463,"health":1.0,"energy_copy":5.129276625000001,"age":41.03421300000001,"gen":1436237,"fitness":41.03421300000001},"400139753":{"nn":{"node_layers":[{"biases":[16.82686369242024,3.3642256138004,-0.4553434875800435,-0.9265058529999993,22.972576545140118,-0.5673314121799257,-0.1989045135799674,3.372236587520692],"activation_ref":"sigmoid"},{"biases":[7.170619995379879,10.588569133220265],"activation_ref":"sigmoid"}],"connection_layers":[{"input_size":8,"output_size":2,"weights":[[-0.7356784237804472,32.244598285758904],[-17.95752077182012,-30.43434443082156],[34.842008835460604,11.917581527541017],[-1.788396124159135,35.613606496019614],[10.96605974522,-4.5053016829995425],[17.806415802080554,-23.719483045160096],[6.977336152860712,5.422597272560376],[9.571165995320795,-14.546377153779549]],"dyn_weights":[[7.490395757219808,-28.288786110059114],[3.0992767315001277,3.5420210693404703],[-3.307880272220067,2.759888164819913],[-17.615269966499557,0.04943016915977719],[0.2747132762805388,0.23477780184004726],[19.430573422600283,-1.807922856300485],[-11.329775031119999,-2.6894062231197964],[5.642957200220381,17.803717367581278]]}]},"type_":"prey","pos":[665.6709042595987,93.67291593023434],"orientation":228.7896354658224,"health":1.0,"energy_copy":1.1701511250000007,"age":9.361209000000006,"gen":1436238,"fitness":9.361209000000006},"400139548":{"nn":{"node_layers":[{"biases":[16.802772786580242,3.3782334398004004,-0.4433679743000436,-0.9613279415599995,23.01277578186012,-0.6130020644199257,-0.1567372501399674,3.3330318296806927],"activation_ref":"sigmoid"},{"biases":[7.19867467633988,10.576742897220262],"activation_ref":"sigmoid"}],"connection_layers":[{"input_size":8,"output_size":2,"weights":[[-0.7655825817804474,32.282817732718904],[-17.966291521660125,-30.46448909594156],[34.83320958570061,11.93289272710102],[-1.8279879192391353,35.655743245899615],[10.948608960020001,-4.546608735319542],[17.830847631880555,-23.6926495110401],[6.952097411140712,5.410520266600376],[9.615018146160795,-14.542038504339548]],"dyn_weights":[[7.4644584802998075,-28.295603107459115],[3.113524658340128,3.5098298673004704],[3.311094157660067,2.8301475763799133],[17.59753420597956,0.0712213745197772],[0.3079717624405388,0.21621672440004724],[19.41757976768028,-1.7864949921404853],[-11.36988588944,-2.631571667679796],[5.69230046322038,17.763790026861276]]}]},"type_":"prey","pos":[329.207738382263,747.1386922779926],"orientation":176.31712168482625,"health":1.0,"energy_copy":5.476318999999999,"age":43.810551999999994,"gen":1436238,"fitness":43.810551999999994},"400138089":{"nn":{"node_layers":[{"biases":[-0.016318234960018083,-2.402740691479924,-0.134232127299829,6.200281714980159,0.9036497954599783,-13.699454594519912,-2.6591540971000502,-5.927083105939962],"activation_ref":"sigmoid"},{"biases":[3.012934011060234,0.025189307900034076],"activation_ref":"sigmoid"}],"connection_layers":[{"input_size":8,"output_size":2,"weights":[[-0.07828835479994241,2.4402356664400626],[2.718959182140177,6.564259804020084],[-14.015955780099974,-4.987509127419894],[11.810272994360135,-8.569576820239941],[7.945726278440101,-1.2491881455598803],[2.1707960598800855,-1.2560978859597252],[-8.457843094939957,-0.1536885122798656],[-10.384601294879815,7.002945271740003]],"dyn_weights":[[12.132967836040152,9.755716717979846],[-1.8426435155599779,3.351079410000079],[2.844149887380064,4.07500614629993],[-5.0877230095000385,-0.1458899953399492],[-0.9346968157398349,4.913094963719933],[-5.2497195021401275,-2.2737377453599987],[-19.181074231020485,1.431716064920048],[-4.181676299659904,-2.4669638933998828]]}]},"type_":"predator","pos":[833.0793357438679,266.1573700345115],"orientation":329.9547803474502,"health":0.2151692920000001,"energy_copy":14.0,"age":297.35479699999985,"gen":353924,"fitness":24.0},"400139768":{"nn":{"node_layers":[{"biases":[16.936253652260245,3.3943546772004,-0.49300785810004344,-0.9612684363599991,23.008626236460117,-0.5925754659799257,-0.15756570441996742,3.2895031596006925],"activation_ref":"sigmoid"},{"biases":[7.262370238339878,10.557627325740263],"activation_ref":"sigmoid"}],"connection_layers":[{"input_size":8,"output_size":2,"weights":[[-0.7590449609804473,32.29172919411891],[-18.020272885180123,-30.42473166394155],[34.791266416620616,11.885645978101016],[-1.7055514905191353,35.76812010457962],[10.900792618019999,-4.653306663799542],[17.829861308960552,-23.7525461824801],[6.999701175180712,5.454343972680376],[9.603425066760794,-14.516687532419551]],"dyn_weights":[[-7.526318405299807,-28.315106859899114],[3.1118166214601284,3.5017932551404716],[3.1774203550200673,2.798772905859913],[-17.651415556699554,0.050906271839777216],[0.3269901712005387,-0.16683554140004728],[-19.494470199200286,-1.8072675710604855],[-11.32502933392,2.6575219504397967],[5.622751633220379,17.87253293282128]]}]},"type_":"prey","pos":[858.1160983608556,138.41715000275343],"orientation":-245.55505133800426,"health":1.0,"energy_copy":0.84439125,"age":6.75513,"gen":1436242,"fitness":6.75513},"400139048":{"nn":{"node_layers":[{"biases":[-0.04564503564001808,-2.3632352730799235,-0.14672912797982904,6.216989379140159,0.9335928728999782,-13.70195360635991,-2.63079070410005,-5.9480703793799625],"activation_ref":"sigmoid"},{"biases":[3.007092981380234,-0.023703448059965913],"activation_ref":"sigmoid"}],"connection_layers":[{"input_size":8,"output_size":2,"weights":[[-0.07986738899994239,2.439328668400063],[2.751538775060177,6.596165702860085],[-14.016113756179976,-5.001407567179894],[11.812523872280133,-8.62722195439994],[7.9818666099601,-1.2241249111598802],[2.1307179060800863,-1.306411992959725],[-8.468768644699956,-0.1724979015998656],[-10.382929516119816,7.025956045660003]],"dyn_weights":[[12.08647504396015,9.800133488259847],[-1.8532900937599777,3.3987886145600794],[2.8389914187800636,-4.06862026137993],[5.062183480140039,-0.1364472624999492],[-0.910207727859835,-4.848772927839933],[-5.250560003340127,-2.275212469279999],[-19.251220469060485,1.4673769035200481],[-4.157156599139905,-2.5022745965598827]]}]},"type_":"predator","pos":[886.7493532916835,681.6185625228652],"orientation":176.79052908540896,"health":0.1650595899999995,"energy_copy":7.0,"age":131.69559600000014,"gen":353924,"fitness":7.0},"400139729":{"nn":{"node_layers":[{"biases":[16.735750244100252,3.1566642406004015,-0.5282271610200437,-0.8898016904399996,22.942007068260118,-0.6044764595399252,-0.23504224537996748,3.271826321160693],"activation_ref":"sigmoid"},{"biases":[7.2226401735398795,10.534554163580262],"activation_ref":"sigmoid"}],"connection_layers":[{"input_size":8,"output_size":2,"weights":[[-0.720458726580447,32.21891828267892],[-18.032594697380134,-30.34031377142154],[34.7524257255006,11.777890886701021],[-1.8080463539991352,35.58928377805963],[10.883193193019999,-4.666334293679545],[17.81473860116054,-23.7125530678401],[7.1713666668207106,5.498605069080377],[9.571903109960799,-14.563435672859548]],"dyn_weights":[[7.496720662579806,-28.494645523939113],[3.0496181783401277,3.498911848660472],[-3.2551345651800663,2.8490250249399143],[-17.71852319221957,0.04387759591977723],[0.43117269016053883,0.1614649789600472],[19.29198602640029,-1.7175408439404851],[11.29219294104,-2.619905018119795],[5.712308047460379,17.712273501381283]]}]},"type_":"prey","pos":[824.1555200407525,810.4374231577061],"orientation":196.6501997197346,"health":1.0,"energy_copy":1.5852807500000003,"age":12.682246000000003,"gen":1436242,"fitness":12.682246000000003},"400138192":{"nn":{"node_layers":[{"biases":[-0.024850412080018088,-2.379465716479924,-0.160455985739829,6.261932019540159,0.8931669814599781,-13.736621764719912,-2.6106602198600495,-5.896938136219962],"activation_ref":"sigmoid"},{"biases":[3.0360127225802342,0.021981698020034076],"activation_ref":"sigmoid"}],"connection_layers":[{"input_size":8,"output_size":2,"weights":[[-0.10574475031994238,2.4202883260400627],[2.7595942325001777,6.572589588580085],[-14.053800586779975,-5.031997096699894],[11.792775263520134,-8.583181035799939],[7.9624512567201,-1.2684707225198804],[2.132370474280086,-1.315186960959725],[-8.366689589019956,-0.1990185290798656],[-10.327182960199815,7.023796165420002]],"dyn_weights":[[12.07584545304015,9.804895443019847],[-1.8340418129999778,3.389950657800079],[2.8972090501800642,-4.072814626059931],[5.0605802216600395,-0.12028449741994919],[0.936266954099835,-4.915309284759934],[-5.284684228900126,-2.2322327775199997],[-19.239693108300482,1.397642169800048],[-4.152745149699905,-2.4098907183998826]]}]},"type_":"predator","pos":[396.011217393047,231.08171975873282],"orientation":10.427763998569787,"health":0.45848461,"energy_copy":22.0,"age":281.09321900000015,"gen":353923,"fitness":22.0},"400139604":{"nn":{"node_layers":[{"biases":[0.002512125679981915,-2.418605547319924,-0.120880663179829,6.212250195500159,0.9035586744199783,-13.700884853959911,-2.6654305260200504,-5.9441480589799625],"activation_ref":"sigmoid"},{"biases":[3.010713924500234,0.028523003380034075],"activation_ref":"sigmoid"}],"connection_layers":[{"input_size":8,"output_size":2,"weights":[[-0.0740666686399424,2.4323373987600627],[2.718704554300177,6.579898075020084],[-14.027988397179973,-5.006190368379895],[11.827545266240135,-8.587892221039942],[7.9298249022401,-1.2621914284398803],[2.1706638282000856,-1.2722388037197252],[-8.464539353339957,-0.1397516614798656],[-10.393872438959814,7.010985621820003]],"dyn_weights":[[12.121838445720151,9.744352737419845],[-1.827694373159978,3.3678849297600792],[2.831231357500064,4.0862042272199295],[-5.068428880100038,-0.1405170060599492],[-0.9495259714998349,4.9110171703999335],[-5.253933794500128,-2.254108453039999],[-19.161910544060486,1.431336973320048],[-4.190622578219904,-2.471747525679883]]}]},"type_":"predator","pos":[773.4835546496934,300.639918079331],"orientation":76.35291115829372,"health":0.5994166600000002,"energy_copy":1.0,"age":35.54277699999999,"gen":353925,"fitness":1.0},"400139669":{"nn":{"node_layers":[{"biases":[16.71992512974025,3.1798089958404017,-0.5430929688600439,-0.9152023599599995,22.916603263940114,-0.6078965216999253,-0.21804606469996748,3.247988841400693],"activation_ref":"sigmoid"},{"biases":[7.208438354499879,10.499427591060261],"activation_ref":"sigmoid"}],"connection_layers":[{"input_size":8,"output_size":2,"weights":[[-0.6779097107004469,32.238289595718925],[-18.032810245580134,-30.35697007746154],[34.7455137434606,11.754485571141021],[-1.8238822701591353,35.61764693673963],[10.892431889899997,-4.6625596902395445],[17.85738582932054,-23.7250317739201],[7.211021541020711,5.478545567480378],[9.560783638200798,-14.568014316459548]],"dyn_weights":[[7.513238155139806,-28.482157800979113],[3.004152500780128,3.499612636820472],[-3.206518668900067,2.8669566172999135],[17.670694057699567,0.035175762039777236],[-0.3990861229605388,-0.16052773220004718],[19.324448687880288,-1.710413982460485],[11.27255544832,-2.6059583423597954],[-5.711338314700379,17.695062095901285]]}]},"type_":"prey","pos":[513.7111929787694,872.8778409004926],"orientation":-54.558648736396975,"health":1.0,"energy_copy":3.0890406249999987,"age":24.71232499999999,"gen":1436242,"fitness":24.71232499999999},"400139761":{"nn":{"node_layers":[{"biases":[16.72277048462024,3.2902032390404004,-0.5192731345400436,-0.9516264837199997,23.00204235178012,-0.6413797767799254,-0.19794637369996743,3.327237577080691],"activation_ref":"sigmoid"},{"biases":[7.16603347249988,10.66495790354026],"activation_ref":"sigmoid"}],"connection_layers":[{"input_size":8,"output_size":2,"weights":[[-0.7329787473004472,32.20975092599891],[-17.94701874702013,-30.325512955661562],[34.72427461302061,11.817839801941018],[-1.7131433135191352,35.57775359969962],[10.976826418579996,-4.696295071799544],[17.783642910720545,-23.7863999716401],[7.039565973500711,5.388832544240375],[9.508073678480798,-14.514199623979545]],"dyn_weights":[[7.468022678259807,-28.32921930065911],[3.0702015963401283,3.486384105380472],[3.215949876140066,2.7504865457399137],[-17.552481566819562,0.05777980675977719],[0.2927366983205388,0.2513406178000473],[-19.34822739960028,-1.8177321529804853],[-11.263614854680002,-2.622532703919795],[5.577037731460378,17.825800029781277]]}]},"type_":"prey","pos":[663.258396109706,522.7540390899874],"orientation":292.3966586972987,"health":1.0,"energy_copy":0.9832031250000003,"age":7.865625000000002,"gen":1436238,"fitness":7.865625000000002},"400139380":{"nn":{"node_layers":[{"biases":[16.732690620700254,3.1654184662004012,-0.5298475775000439,-0.8890311032399996,22.928560836260118,-0.6075436468999253,-0.23332714269996746,3.2558746772006923],"activation_ref":"sigmoid"},{"biases":[7.20911806281988,10.500864457580262],"activation_ref":"sigmoid"}],"connection_layers":[{"input_size":8,"output_size":2,"weights":[[-0.6488624083004471,32.23504369299892],[-17.972218323580133,-30.375718458301538],[34.780144726340595,11.806223039301022],[-1.8464825077991351,35.61842706737963],[10.849344238059999,-4.661803802799544],[17.87030599028054,-23.7393070696401],[7.189909665900711,5.498075279960378],[9.577477981080799,-14.573024375939548]],"dyn_weights":[[7.498701634019806,-28.48657438693911],[3.0564692635001274,3.520824422020472],[-3.2253103072200666,2.8701768854599137],[17.657552435339568,0.01921926247977723],[-0.3960817409605388,0.10736655344004717],[19.328532575440285,-1.7138291408204849],[11.282830033440002,-2.568883029319795],[-5.67814055622038,17.677282590381285]]}]},"type_":"prey","pos":[491.2962333733766,792.5172613908801],"orientation":220.673922474777,"health":1.0,"energy_copy":0.8357370000000031,"age":70.685896,"gen":1436241,"fitness":70.685896},"400139167":{"nn":{"node_layers":[{"biases":[16.74875346042025,3.1646055332004015,-0.4536481897000437,-0.8516722701199996,22.979989348260116,-0.6469208863399252,-0.27799277461996746,3.206781378800693],"activation_ref":"sigmoid"},{"biases":[7.19267236057988,10.578979971980264],"activation_ref":"sigmoid"}],"connection_layers":[{"input_size":8,"output_size":2,"weights":[[-0.7104927433404469,32.21951060147892],[-17.972062101340136,-30.355666038381543],[34.78958210146061,11.83218044478102],[-1.859194023439135,35.63191000081962],[10.81628447274,-4.6460378949595444],[17.899256756920536,-23.712574031480095],[7.196322572100709,5.449245222920377],[9.571149739920799,-14.581271413779548]],"dyn_weights":[[7.510751153139806,-28.451907003579116],[3.0185795723001276,3.5371986765804717],[-3.263756566260067,2.814121152539914],[17.700166162099567,0.04869401331977723],[-0.3380267078005388,0.21867864452004718],[19.277855456920285,-1.6982581741004852],[11.316920852440001,-2.5833199819197956],[5.754177999500378,17.660220189901285]]}]},"type_":"prey","pos":[0.9339493611082901,783.7893479978259],"orientation":207.2143397064508,"health":1.0,"energy_copy":0.45070649999999973,"age":107.60565200000009,"gen":1436242,"fitness":107.60565200000009},"400139198":{"nn":{"node_layers":[{"biases":[-0.03340269292001809,-2.3581685025599235,-0.16919460021982902,6.205520950060159,0.9388337204999782,-13.708035713279909,-2.60187737054005,-5.894171601699963],"activation_ref":"sigmoid"},{"biases":[3.0018906572202346,-0.009141512019965919],"activation_ref":"sigmoid"}],"connection_layers":[{"input_size":8,"output_size":2,"weights":[[-0.06588667703994239,2.401981379680063],[2.743422691820177,6.586329561260085],[-13.986681053179977,-5.0347205577398935],[11.801472200080132,-8.597116635519939],[7.9981026396401,-1.2640024886798802],[2.134177372360086,-1.308547898959725],[-8.438978360979956,-0.16657650079986563],[-10.401799562239814,7.008010289620003]],"dyn_weights":[[12.073839074880151,9.789514129539848],[-1.8933334070399777,3.3767195366400786],[2.8309687396200633,-4.10274919357993],[5.100789853740039,-0.10969270801994921],[-0.906178329939835,-4.901921887119934],[-5.230000626580127,-2.289485048639999],[-19.237223456500484,1.5216660380400482],[-4.163519485699905,-2.534566657639883]]}]},"type_":"predator","pos":[500.7169121395699,450.1737928332682],"orientation":40.13414775303045,"health":0.421029888,"energy_copy":5.0,"age":100.85097500000008,"gen":353925,"fitness":5.0},"400139512":{"nn":{"node_layers":[{"biases":[-0.01807122976001809,-2.374942807559924,-0.147041890259829,6.264891443900158,0.8848283473399782,-13.762665661919913,-2.6574242305000495,-5.875935043699962],"activation_ref":"sigmoid"},{"biases":[3.0476851996202345,0.0015835583000340762],"activation_ref":"sigmoid"}],"connection_layers":[{"input_size":8,"output_size":2,"weights":[[-0.08389775323994238,2.391863691160063],[2.803270744300178,6.573029116740084],[-14.027626922099975,-5.011799929899895],[11.801860530880134,-8.58500079307994],[7.9450409400801005,-1.2752109581998805],[2.1419851834400863,-1.295581295359725],[-8.380699933259956,-0.1745508027598656],[-10.343570051159814,7.018976990060001]],"dyn_weights":[[12.07498089236015,9.782887809219845],[-1.8290173391199778,3.3860669286000786],[2.858226191100064,-4.094984219939931],[5.079357046260039,-0.1277579855799492],[0.9875401436998349,-4.897729483399934],[-5.295948520260126,-2.23559710232],[-19.223109156980485,1.4160810058000481],[-4.132205590139906,-2.4250314339598824]]}]},"type_":"predator","pos":[909.9648958143313,675.3324587096628],"orientation":227.4191792969393,"health":0.6105981479999993,"energy_copy":2.0,"age":49.41121399999996,"gen":353924,"fitness":2.0},"400139547":{"nn":{"node_layers":[{"biases":[16.712323515220255,3.2028651008004005,-0.4836473614200436,-0.9226154107199996,22.991941720940122,-0.6282139217799254,-0.1687319046599674,3.2199252002406915],"activation_ref":"sigmoid"},{"biases":[7.221293820779879,10.583683084100262],"activation_ref":"sigmoid"}],"connection_layers":[{"input_size":8,"output_size":2,"weights":[[-0.6885186102204471,32.23928229251892],[-18.064126001980135,-30.349617022101544],[34.75573218838059,11.94313013130102],[-1.847576340519135,35.60306632401963],[10.854896104579995,-4.648929838959545],[17.90159688624054,-23.689266111160094],[7.159855790260712,5.401456716600377],[9.557841782160798,-14.488389006139549]],"dyn_weights":[[7.462319988899806,-28.440977442299115],[3.036172129420127,3.5581980755804716],[-3.173199557500067,2.8364904145799144],[-17.659664424699567,0.12162875359977722],[-0.37588885972053876,0.15328377232004722],[19.363843783600284,-1.776156973660485],[11.306703565200003,-2.5661851478397955],[5.654270004860379,17.656469851621285]]}]},"type_":"prey","pos":[820.8126043037331,816.6092440790945],"orientation":150.615312911289,"health":1.0,"energy_copy":5.490072499999999,"age":43.920579999999994,"gen":1436240,"fitness":43.920579999999994},"400139781":{"nn":{"node_layers":[{"biases":[16.701903311020253,3.1686066385204006,-0.5542603331400436,-0.9447930989999996,22.999564730540122,-0.5537479263399254,-0.1759717123399674,3.227065951520692],"activation_ref":"sigmoid"},{"biases":[7.182913689939878,10.557027670620261],"activation_ref":"sigmoid"}],"connection_layers":[{"input_size":8,"output_size":2,"weights":[[-0.7258432805804471,32.25270540683892],[-18.04637560622013,-30.33953972042154],[34.76325542262059,11.96532261094102],[-1.856108254119135,35.64139881693962],[10.854346993339993,-4.676205063439545],[17.89046469784054,-23.722455776160093],[7.199575221620712,5.363295940400377],[9.530153272760797,-14.48057303953955]],"dyn_weights":[[7.469002576859807,-28.45064500733911],[3.0790297249001277,3.5308665358604716],[-3.207888480660067,2.8474151820999145],[-17.699425914099564,0.11255438355977723],[-0.3607816931605388,0.19883453268004722],[19.372336659000283,1.744358879900485],[11.362114429200004,-2.5410264633997954],[-5.607758283420379,17.642426090341285]]}]},"type_":"prey","pos":[948.466009191542,840.5999244076206],"orientation":-242.6035049072119,"health":1.0,"energy_copy":0.45467975,"age":3.637438,"gen":1436240,"fitness":3.637438},"400139308":{"nn":{"node_layers":[{"biases":[-0.5062442624400179,-2.095034353839926,-0.155444582179829,6.219153184060156,0.9307831846199779,-13.69740125375993,-2.4105632403800508,-5.970871085259962],"activation_ref":"sigmoid"},{"biases":[2.9718105520202323,-0.19278067389996587],"activation_ref":"sigmoid"}],"connection_layers":[{"input_size":8,"output_size":2,"weights":[[-0.14462501295994235,2.221701779080066],[2.6479872721801767,6.592181430740084],[-13.889037261739977,-4.990590065619896],[11.856845321320126,-8.47948800455995],[7.681794966160097,-1.1333346289198805],[2.260151272840087,-1.5434820004397265],[-8.39867261021996,-0.24212873279986566],[-10.347952287999817,6.986713367099997]],"dyn_weights":[[-12.211698825440148,9.627809734419852],[-1.6337485060799775,-3.520338360800078],[-2.7055028425800645,3.795520596739928],[-4.797648049620037,-0.08993377033994905],[-0.9272380507798359,4.650125948999943],[5.60769843322013,-2.250393609360004],[-19.08633785862048,-1.3998622346000484],[-4.184846083499911,-2.374842462319885]]}]},"type_":"predator","pos":[28.209370365783506,996.1007974431187],"orientation":-233.42743809192493,"health":0.7678594860000002,"energy_copy":6.0,"age":83.49065300000014,"gen":353927,"fitness":6.0},"400139205":{"nn":{"node_layers":[{"biases":[-0.007319817200018078,-2.371990654479924,-0.19032108645982904,6.22504870938016,0.9448983447799782,-13.693997746799909,-2.61753995154005,-5.904323004859962],"activation_ref":"sigmoid"},{"biases":[3.0015145904602343,-0.011939472579965919],"activation_ref":"sigmoid"}],"connection_layers":[{"input_size":8,"output_size":2,"weights":[[-0.0757956590399424,2.397122173800063],[2.749423458300177,6.552080449420084],[-14.003312525059977,-5.009745731819894],[11.796867154040132,-8.60326804415994],[7.9705801810001,-1.2621162153598804],[2.135965595040086,-1.304286916599725],[-8.437636392659956,-0.14506815927986563],[-10.420821563759814,7.0026432036600035]],"dyn_weights":[[12.073572683320151,9.775588921139848],[-1.8759394515599777,3.372472147160079],[2.8274872999400635,-4.09698492489993],[5.109288050780039,-0.11874394349994921],[-0.9082263926598351,-4.901726725199934],[-5.256288004940127,-2.304531864239999],[-19.230978162940485,1.494834965080048],[-4.1714218474999045,-2.5066987959198825]]}]},"type_":"predator","pos":[23.107060349182234,463.08362865982537],"orientation":199.49622495081965,"health":0.20342404999999883,"energy_copy":4.0,"age":99.80977500000007,"gen":353925,"fitness":4.0},"400139478":{"nn":{"node_layers":[{"biases":[-0.01298635204001809,-2.396094965399924,-0.149431349979829,6.279434491700158,0.8848518199799781,-13.740883207159913,-2.5898863822600493,-5.886796076099961],"activation_ref":"sigmoid"},{"biases":[3.0511312331802345,-0.021565316499965924],"activation_ref":"sigmoid"}],"connection_layers":[{"input_size":8,"output_size":2,"weights":[[-0.11105213899994237,2.3737486723600627],[2.807129790260178,6.6040787599000845],[-14.020339102699975,-5.005624264059894],[11.808324133280134,-8.59195992863994],[7.9527718544401,-1.2612977120398803],[2.128847461240086,-1.310819143799725],[-8.401300539819957,-0.16885532131986558],[-10.328659081159815,7.010863666380002]],"dyn_weights":[[12.06977643204015,9.795403832739845],[-1.859949717999978,3.385035898600079],[2.896627452580064,-4.091583911539931],[5.05634658426004,-0.1089192234199492],[0.955868801459835,-4.939176312799933],[-5.265477872260126,-2.25365101076],[-19.22567419446048,1.3892771619600484],[4.135108078099905,-2.419598787679883]]}]},"type_":"predator","pos":[606.6312157502534,664.5953861874356],"orientation":81.29077001289048,"health":0.2540283919999998,"energy_copy":1.0,"age":55.33175599999992,"gen":353924,"fitness":1.0},"400139656":{"nn":{"node_layers":[{"biases":[16.772910651780247,3.332735489880401,-0.5369837892600436,-0.8784035423199993,22.889597946620118,-0.5015473098599252,-0.2622609616599675,3.251398184240692],"activation_ref":"sigmoid"},{"biases":[7.207440145219881,10.638047942020263],"activation_ref":"sigmoid"}],"connection_layers":[{"input_size":8,"output_size":2,"weights":[[-0.7452091006604469,32.17367753731892],[-18.037077293780133,-30.45365450786155],[34.68142244490061,11.945076204781017],[-1.804861054799135,35.60590124789962],[11.051681225539996,-4.568831010639545],[17.889596155960543,-23.7515370476001],[7.17795585450071,5.434308811000378],[9.484244988800796,-14.603354908539549]],"dyn_weights":[[7.639547435659808,-28.474714041179116],[3.0902470399001283,3.5922715801804714],[3.100966270100066,2.8069990366599127],[-17.760606704539565,-0.008035784200222783],[0.3545718969605387,0.30596228160004724],[-19.297304389920274,-1.7621166433804853],[-11.301526950080001,-2.637446972439796],[-5.55508485018038,17.831273541181286]]}]},"type_":"prey","pos":[20.254748559492143,721.0788338549463],"orientation":211.26376213813984,"health":1.0,"energy_copy":3.2717547499999986,"age":26.17403799999999,"gen":1436240,"fitness":26.17403799999999},"400139180":{"nn":{"node_layers":[{"biases":[16.83157755502024,3.3534108483604,-0.45695667558004355,-0.9515773248799994,23.000752324100116,-0.5942653494999257,-0.19375199841996743,3.342483908760692],"activation_ref":"sigmoid"},{"biases":[7.17385254477988,10.598333604020263],"activation_ref":"sigmoid"}],"connection_layers":[{"input_size":8,"output_size":2,"weights":[[-0.7385080546204472,32.24319661915891],[-17.972881434980124,-30.42246446754156],[34.851440794340604,11.927410100621017],[-1.7692252411591352,35.61757720033962],[10.972019750340001,-4.532227871799543],[17.777224918120552,-23.718490910520096],[6.955925833780712,5.417802903400376],[9.589186816120796,-14.532148375819547]],"dyn_weights":[[7.472642400779808,-28.311523798739117],[3.114446878540128,3.5184086654204703],[3.283694855860067,2.779241051899913],[17.59492150661956,0.03929150767977718],[0.2969503696005388,0.23570995524004726],[19.447556698080284,-1.791650253460485],[-11.31669000632,-2.663332096039796],[5.668906965980381,17.788565412661278]]}]},"type_":"prey","pos":[427.7431953037345,741.2468632533574],"orientation":23.088011913229934,"health":1.0,"energy_copy":0.14187437499999944,"age":105.13499500000007,"gen":1436236,"fitness":105.13499500000007},"400139704":{"nn":{"node_layers":[{"biases":[16.74417722350025,3.1643949954804014,-0.4470068496200437,-0.8612183439999995,22.987568483100116,-0.6433105616599252,-0.26850170421996744,3.216970710960693],"activation_ref":"sigmoid"},{"biases":[7.18523922157988,10.580744437180265],"activation_ref":"sigmoid"}],"connection_layers":[{"input_size":8,"output_size":2,"weights":[[-0.7029102515404468,32.20379908395892],[-17.959689614100135,-30.351391165621543],[34.77618078854061,11.83651540918102],[-1.873703207559135,35.61825447377962],[10.83599247638,-4.646580002999545],[17.910761440560535,-23.705026276000094],[7.196048848660709,5.463419205560377],[9.589991196080799,-14.587116830899548]],"dyn_weights":[[7.517748727939805,-28.459350723339117],[3.0303666684601276,3.522878727540472],[-3.281061754700067,2.8102519332599143],[17.68099298889957,0.06819746403977722],[-0.34827956984053876,0.22852346200004717],[19.282527586640285,-1.7167718639404852],[11.335044362200001,-2.597281111919796],[5.754544289780378,17.678897424421283]]}]},"type_":"prey","pos":[635.0465740954373,776.0226239575654],"orientation":96.31705496783646,"health":1.0,"energy_copy":2.3828612500000013,"age":19.06289000000001,"gen":1436243,"fitness":19.06289000000001},"400139659":{"nn":{"node_layers":[{"biases":[-0.04041337588001809,-2.386839387999924,-0.13279115093982902,6.269629999940158,0.8996511337399782,-13.745394711159912,-2.6493497745400494,-5.884668598139962],"activation_ref":"sigmoid"},{"biases":[3.0631985162602344,0.024278720820034076],"activation_ref":"sigmoid"}],"connection_layers":[{"input_size":8,"output_size":2,"weights":[[-0.09118956387994237,2.386904539800063],[2.798181147220178,6.572325186820085],[-14.014838432899975,-5.0193059663798945],[11.804387624240134,-8.555382126319941],[7.9348430837601,-1.2956462111598803],[2.122287157120086,-1.3173775609597251],[-8.398971763099956,-0.1949628011998656],[-10.337207206079814,7.0129637688200015]],"dyn_weights":[[12.07665674720015,9.785377187539845],[-1.838499872239978,3.369039575360079],[2.862560459180064,-4.1085086471799315],[5.08043694474004,-0.10208585389994919],[0.9750662308198349,-4.911356885439934],[-5.267610957620126,-2.24919310752],[-19.222615856940486,1.420181536200048],[4.115370599219905,-2.4273010713998824]]}]},"type_":"predator","pos":[625.1707155478634,707.4412998689472],"orientation":93.94711682843837,"health":0.5330783080000001,"energy_copy":0.0,"age":25.940093999999988,"gen":353924,"fitness":0.0},"400139702":{"nn":{"node_layers":[{"biases":[16.924902005540243,3.3858236020004004,-0.4544000560200434,-0.9405566854799992,23.004902982740116,-0.6149463502599257,-0.17735201953996743,3.2811823240806923],"activation_ref":"sigmoid"},{"biases":[7.273632547979878,10.517489195620263],"activation_ref":"sigmoid"}],"connection_layers":[{"input_size":8,"output_size":2,"weights":[[-0.7716622832604473,32.24818436295891],[-18.018682460460123,-30.44944674418155],[34.779728814180615,11.918069098981015],[-1.7256009517191353,35.78701236769962],[10.94123732734,-4.662638345439542],[17.820600297160553,-23.755594944160098],[7.010487331100712,5.435781546560376],[9.588628209360794,-14.546092051899551]],"dyn_weights":[[-7.538442911979806,-28.339146719299112],[3.1078240237401284,3.4822826710604713],[3.1615135607400675,2.808510172339913],[-17.622163784619556,0.02770352151977722],[0.32254010268053873,-0.17270325964004726],[-19.469292955320284,-1.8109352855804854],[-11.3063606558,-2.647430477599797],[5.62606661122038,17.85625978918128]]}]},"type_":"prey","pos":[710.0156402612109,278.5099894601659],"orientation":-77.5618840843443,"health":1.0,"energy_copy":2.519783375000001,"age":20.15826700000001,"gen":1436241,"fitness":20.15826700000001},"400139775":{"nn":{"node_layers":[{"biases":[16.949116136820244,3.4007021719604,-0.49015573350004343,-0.9722729907999992,23.010847724420117,-0.5790527545399257,-0.15135648013996741,3.2607355910406923],"activation_ref":"sigmoid"},{"biases":[7.269200613299878,10.520555101220262],"activation_ref":"sigmoid"}],"connection_layers":[{"input_size":8,"output_size":2,"weights":[[-0.7388180751404473,32.25718500515891],[-18.017514009340122,-30.45361274098155],[34.794801717620615,11.902378196141015],[-1.7040051193191355,35.79237582657962],[10.935495999019999,-4.652609913919543],[17.828843512440553,-23.7409768006001],[7.006403682060712,5.452258445960376],[9.592391825800792,-14.53881337277955]],"dyn_weights":[[-7.526427830859807,-28.323698071379113],[3.115970179660128,3.4976083639404716],[3.1538091472600676,2.817050684699913],[-17.650489559059555,0.05002331783977722],[-0.31880443500053873,-0.15973361732004726],[-19.487209957480285,-1.8072243538204855],[-11.31397997848,-2.6459494413997966],[5.613616639180379,17.88690495138128]]}]},"type_":"prey","pos":[776.9375510479066,104.53842572816473],"orientation":170.15341455070376,"health":1.0,"energy_copy":0.642363,"age":5.138904,"gen":1436242,"fitness":5.138904},"400139469":{"nn":{"node_layers":[{"biases":[-0.03087030704001809,-2.4096375979599243,-0.138180334099829,6.287126287980159,0.9004407000199781,-13.718710840159913,-2.610131690420049,-5.899788024579961],"activation_ref":"sigmoid"},{"biases":[3.0287083495802345,-0.013861592419965926],"activation_ref":"sigmoid"}],"connection_layers":[{"input_size":8,"output_size":2,"weights":[[-0.10820219975994239,2.393062974440063],[2.782834977140178,6.5921679471000845],[-14.035459390459975,-5.014396550459894],[11.820690020560134,-8.59257998167994],[7.9621333799201,-1.2532685655198803],[2.122860225400086,-1.309460410279725],[-8.395441801339956,-0.1778831016798656],[-10.319859345279815,6.989527794460002]],"dyn_weights":[[12.072911564920151,9.816385005299846],[1.8737349424399778,3.3624004519200787],[2.868701987220064,-4.065790759379931],[5.084982548020039,-0.1176439295799492],[0.9708884982198349,-4.908766108479933],[-5.270234320620126,-2.24718674864],[-19.22766964642048,1.3854628438800483],[4.143697379459906,-2.4246490994398826]]}]},"type_":"predator","pos":[194.1030722169856,225.0019047533168],"orientation":212.72248925727533,"health":0.46384594800000023,"energy_copy":2.0,"age":57.564113999999925,"gen":353924,"fitness":2.0},"400139458":{"nn":{"node_layers":[{"biases":[-0.46332665848001786,-2.1370642271199256,-0.18634637513982902,6.2514512339801565,0.9760511167399779,-13.693001466879931,-2.3624758335000506,-5.975875879219962],"activation_ref":"sigmoid"},{"biases":[3.0036782494202323,-0.19577322005996586],"activation_ref":"sigmoid"}],"connection_layers":[{"input_size":8,"output_size":2,"weights":[[-0.15231230583994235,2.211952641760066],[2.634368988420177,6.587543777820085],[-13.90347638885998,-5.023202281059897],[11.849661806760123,-8.464519665759951],[7.698213241520097,-1.1452833168398808],[2.258213261480087,-1.5312891016797268],[-8.423183126619959,-0.18608568443986567],[-10.342762807079815,6.959322641059996]],"dyn_weights":[[-12.19996814804015,9.584867081819853],[-1.6863487283599774,-3.511505876600078],[-2.708579793300065,3.8281052128599278],[-4.827091495900037,-0.11415555457994905],[-0.9660785604998359,4.658674380719943],[5.61041703350013,-2.236250999520004],[-19.079439154500484,-1.4236729646000486],[-4.170835477499911,-2.422501324519885]]}]},"type_":"predator","pos":[258.6694321125317,416.0065711301455],"orientation":55.477787763010866,"health":0.6329069920000001,"energy_copy":8.0,"age":58.86026399999994,"gen":353927,"fitness":8.0},"400139597":{"nn":{"node_layers":[{"biases":[16.94202324010024,3.3705892322804005,-0.4710028194200434,-0.9763348627199991,23.020373589580117,-0.6057576174199257,-0.16481535425996743,3.288007439120692],"activation_ref":"sigmoid"},{"biases":[7.254404100419878,10.532908925340262],"activation_ref":"sigmoid"}],"connection_layers":[{"input_size":8,"output_size":2,"weights":[[-0.7427014145804473,32.27871060431891],[-18.022804521140124,-30.435101937661553],[34.78342173270062,11.904798963381015],[-1.6987220098391353,35.80446740765962],[10.93371543058,-4.661553278759542],[17.80518197692055,-23.745138275320098],[6.987395078700712,5.424284043240376],[9.586899945320793,-14.563938626299551]],"dyn_weights":[[-7.519526050579806,-28.351036273739112],[3.1301506059401283,3.466803712460471],[3.1550312001800673,2.8197548218599127],[-17.611537764259555,0.05783947735977722],[0.30122891184053874,-0.16699775280004728],[-19.497339394600285,-1.8148705662604854],[-11.312968297320001,-2.640343185159797],[5.632022021500379,17.85968045046128]]}]},"type_":"prey","pos":[993.4491483862982,782.2116299054633],"orientation":197.05025224137287,"health":1.0,"energy_copy":4.489381499999999,"age":35.91505199999999,"gen":1436241,"fitness":35.91505199999999},"400139701":{"nn":{"node_layers":[{"biases":[16.707809098260253,3.1550722873604005,-0.5313060398600437,-0.9341261008799996,23.01287020378012,-0.5710353948599254,-0.1858866694999674,3.2400629828406924],"activation_ref":"sigmoid"},{"biases":[7.175613299099878,10.565788857060262],"activation_ref":"sigmoid"}],"connection_layers":[{"input_size":8,"output_size":2,"weights":[[-0.7210049465404471,32.25176560731892],[-18.049195413380133,-30.309626669581544],[34.75841015782059,11.930624207741019],[-1.849088845079135,35.642814237219625],[10.857310184539994,-4.664564249679545],[17.90189007460054,-23.69546041140009],[7.201657338420713,5.365563919440377],[9.534241550920797,-14.46044768745955]],"dyn_weights":[[7.473282669499807,-28.45638236937911],[3.0810368279001277,3.5316378378604716],[-3.2257466519000673,2.8642176981399143],[-17.686692291179565,0.09912835079977723],[-0.36179871228053884,0.19074529728004722],[19.383101148080282,-1.7257708142204848],[11.331763518840004,-2.5552543606797955],[-5.610457850260379,17.652141079301284]]}]},"type_":"prey","pos":[985.292251264617,814.8120740333791],"orientation":237.87189095005294,"health":1.0,"energy_copy":2.565274875000001,"age":20.522199000000008,"gen":1436240,"fitness":20.522199000000008},"400139675":{"nn":{"node_layers":[{"biases":[-0.004746906680018093,-2.365318338759924,-0.12115518853982901,6.283370318220158,0.9063887402999782,-13.747521894959913,-2.637101449780049,-5.8649749715399615],"activation_ref":"sigmoid"},{"biases":[3.0545119009002346,-0.007543869299965925],"activation_ref":"sigmoid"}],"connection_layers":[{"input_size":8,"output_size":2,"weights":[[-0.10531426107994238,2.399417719800063],[2.7986736498601776,6.562937235100085],[-14.021786233859975,-5.013223011739894],[11.796426896680133,-8.57209223351994],[7.9295997364401005,-1.2839783921598804],[2.142925973680086,-1.307288259319725],[-8.393532280939956,-0.1995441663198656],[-10.341033203999816,7.046180718580001]],"dyn_weights":[[12.069134367280151,9.776372210099845],[-1.816564663319978,3.383860017280079],[2.862991294420064,-4.076629309939931],[5.085823015900039,-0.09344557737994919],[0.970080092499835,-4.915347594599934],[-5.264111160900126,-2.22650883904],[-19.234217219780483,1.414828452680048],[-4.120548499619906,-2.4037957412798825]]}]},"type_":"predator","pos":[631.4915115904369,692.2440232155533],"orientation":161.1591418478785,"health":0.5751684460000003,"energy_copy":0.0,"age":23.60175299999999,"gen":353924,"fitness":0.0},"400139485":{"nn":{"node_layers":[{"biases":[16.844548059420237,3.3508815948404,-0.44504866414004357,-0.9389658799599994,23.014876096140117,-0.5790032630199257,-0.19872173201996743,3.356527641440692],"activation_ref":"sigmoid"},{"biases":[7.16901320313988,10.593134661060263],"activation_ref":"sigmoid"}],"connection_layers":[{"input_size":8,"output_size":2,"weights":[[-0.7539445173004472,32.24107822351891],[-17.961709717020124,-30.41577335074156],[34.861935247580604,11.925851026901018],[-1.756478700199135,35.62240836961962],[10.969031611860002,-4.524234243199542],[17.771998057680552,-23.730543650640097],[6.9479022793807115,5.400029155600376],[9.609063883360795,-14.532037583939548]],"dyn_weights":[[7.474288600619808,-28.308497268499117],[3.0995252623801277,3.51653121150047],[3.288856853700067,2.778051474539913],[17.60701069817956,0.02941297467977718],[0.27980124224053876,0.24271163484004726],[19.463176807120284,-1.775294076540485],[-11.31452389708,-2.667406508439796],[5.681164721340381,17.777242923301277]]}]},"type_":"prey","pos":[615.788218427366,762.8337926029708],"orientation":125.66934571428217,"health":1.0,"energy_copy":0.7658757499999934,"age":54.12700599999994,"gen":1436237,"fitness":54.12700599999994},"400139070":{"nn":{"node_layers":[{"biases":[-0.03896582640001808,-2.375385205119924,-0.14352516997982903,6.211888536220159,0.9665606807799781,-13.68066561167991,-2.61263096014005,-5.931669661859963],"activation_ref":"sigmoid"},{"biases":[3.012881939100234,-0.035353116499965906],"activation_ref":"sigmoid"}],"connection_layers":[{"input_size":8,"output_size":2,"weights":[[-0.0942354999999424,2.4118062835600633],[2.750583940020177,6.598660325500085],[-14.015634201099976,-4.984889047539894],[11.790429922680133,-8.59392712119994],[7.9890148278801005,-1.2123669839998803],[2.1502368109200862,-1.285958201519725],[-8.459046068739957,-0.1621547993598656],[-10.408310297279815,7.0302884332200035]],"dyn_weights":[[12.094265814040149,9.789378345819848],[-1.8496677821599778,3.388297209520079],[2.8647789155400636,-4.074319953539931],[5.071483881700039,-0.1440660535399492],[-0.914384006419835,-4.877840804399933],[-5.235538261980127,-2.2796476069999994],[-19.228803444940485,1.4718486859600481],[-4.148355362939905,-2.4902337816798825]]}]},"type_":"predator","pos":[7.893502820933378,849.7011368898789],"orientation":256.0747147983603,"health":0.5288673160000001,"energy_copy":14.0,"age":125.6076200000001,"gen":353924,"fitness":14.0},"400139776":{"nn":{"node_layers":[{"biases":[16.926217612820242,3.3757770764404,-0.4790449785000434,-0.9936877427999992,22.977555376300117,-0.5849227416999256,-0.1530195917399674,3.2622299534806922],"activation_ref":"sigmoid"},{"biases":[7.250441042099878,10.555261392660263],"activation_ref":"sigmoid"}],"connection_layers":[{"input_size":8,"output_size":2,"weights":[[-0.7753770342604472,32.284943144518905],[-18.040170816580122,-30.446232205221552],[34.78058272362062,11.901672524741015],[-1.6883819907591353,35.79830199981962],[10.935957824059999,-4.651906172799543],[17.82664590252055,-23.731777663640102],[7.034878568020711,5.434605363000376],[9.603108515960793,-14.536666690139551]],"dyn_weights":[[-7.533739246499807,-28.327071545819113],[3.103007569060128,3.4930689994604713],[3.1748681215800674,2.810456812619913],[-17.650747537899555,0.061793699839777214],[0.3064799029205387,-0.18272956196004728],[-19.477649247240286,-1.8156453422604855],[-11.320084101840001,-2.6432658041997965],[5.628021367540379,17.88741589990128]]}]},"type_":"prey","pos":[941.2250525639379,75.49262434387762],"orientation":32.11755100349343,"health":1.0,"energy_copy":0.6261198749999999,"age":5.008958999999999,"gen":1436242,"fitness":5.008958999999999},"400139487":{"nn":{"node_layers":[{"biases":[16.83933359246024,3.3711989000404,-0.4750378898600435,-0.9368599402399993,22.988850591700118,-0.5783503114199257,-0.19349320977996742,3.352567628840692],"activation_ref":"sigmoid"},{"biases":[7.18930941661988,10.592487911180264],"activation_ref":"sigmoid"}],"connection_layers":[{"input_size":8,"output_size":2,"weights":[[-0.7447908647404472,32.24927517819891],[-17.955686858860123,-30.44129862758156],[34.836182222340604,11.925722026701017],[-1.7752894196791351,35.630746104899615],[10.95936974918,-4.5199175197995425],[17.787703154120553,-23.717641325320095],[6.961203869820712,5.426157955000376],[9.578923079680795,-14.532333919499548]],"dyn_weights":[[7.477421661539808,-28.303301310419116],[3.0971456275001277,3.5294778130204705],[3.2932403298600668,2.763316273579913],[-17.613396845659558,0.04582378187977718],[0.2792443122405388,0.22995529340004725],[19.441755140640282,-1.794115034460485],[-11.31826657588,-2.6827218397197963],[5.656082796100381,17.802492164021277]]}]},"type_":"prey","pos":[950.9657564786808,955.0413348361845],"orientation":51.710012889564425,"health":1.0,"energy_copy":0.7520472499999944,"age":54.016377999999946,"gen":1436237,"fitness":54.016377999999946},"400139652":{"nn":{"node_layers":[{"biases":[-0.03137769876001809,-2.364169810559924,-0.140823615299829,6.275338073140158,0.8766631476999781,-13.763287248159912,-2.6338787721400494,-5.8750135322999615],"activation_ref":"sigmoid"},{"biases":[3.0773733617802344,-0.007709495499965923],"activation_ref":"sigmoid"}],"connection_layers":[{"input_size":8,"output_size":2,"weights":[[-0.11167792755994238,2.3702125139600625],[2.801760515100178,6.563140130220085],[-14.023232358459975,-5.023127002139894],[11.784058233160133,-8.58943080071994],[7.9524943218001,-1.2587708897998804],[2.146758563360086,-1.314212138759725],[-8.384111825899957,-0.1900887997598656],[-10.356960034999815,7.008370164540001]],"dyn_weights":[[12.07283899248015,9.781441034179846],[-1.8292253989999778,3.369422236680079],[2.881502932900064,-4.096495247259932],[5.084462962100039,-0.09067999177994919],[0.9753247012198349,-4.928039732199934],[-5.299926306500126,-2.22574970292],[-19.213636767780486,1.4068763453600481],[-4.1166861403399055,2.4326007621598826]]}]},"type_":"predator","pos":[98.18826885414859,74.54937603060927],"orientation":215.92868826642695,"health":0.5924214280000002,"energy_copy":1.0,"age":26.55471299999999,"gen":353924,"fitness":1.0},"400139587":{"nn":{"node_layers":[{"biases":[16.795470442900243,3.3899012210404003,-0.4096466545800436,-0.9857957807199994,23.04167925706012,-0.6225515570599257,-0.1687066046199674,3.3347805961606927],"activation_ref":"sigmoid"},{"biases":[7.17116738721988,10.595528159660262],"activation_ref":"sigmoid"}],"connection_layers":[{"input_size":8,"output_size":2,"weights":[[-0.7712808381004473,32.253555061798906],[-17.976827577060124,-30.442996237541557],[34.82899506822061,11.90767114354102],[-1.8438604335591353,35.66424722217962],[10.96004976434,-4.571669388839543],[17.835278857880553,-23.6842400422401],[6.947387718860712,5.3921257932003765],[9.633453705560795,-14.566566828419548]],"dyn_weights":[[7.458012457579808,-28.267562843819118],[3.132982699580128,3.4824795218604705],[3.2813701223400673,2.8299987678599132],[17.599528155139563,0.06374998803977719],[0.2977062174405388,0.22349904908004725],[19.38940523980028,-1.7833349442604853],[-11.34880029264,-2.644947098159796],[5.69363296518038,17.794328269461275]]}]},"type_":"prey","pos":[21.010606469893382,80.54577938219491],"orientation":149.44203755791693,"health":1.0,"energy_copy":4.801509625,"age":38.412077,"gen":1436238,"fitness":38.412077},"400139685":{"nn":{"node_layers":[{"biases":[16.74196635822025,3.1684395744804017,-0.5314529780200439,-0.9053313870399995,22.920596176860116,-0.6048542632199253,-0.18782373789996748,3.233943006240693],"activation_ref":"sigmoid"},{"biases":[7.222447602779879,10.518249745540261],"activation_ref":"sigmoid"}],"connection_layers":[{"input_size":8,"output_size":2,"weights":[[-0.712327900380447,32.25697854483892],[-18.031405567540133,-30.33769703266154],[34.7555206811006,11.771156496341021],[-1.8391036011191353,35.60717378905963],[10.880044539739998,-4.661134931559545],[17.843641853680538,-23.7040566729601],[7.181702286580711,5.495485788320377],[9.548741730760797,-14.58872891477955]],"dyn_weights":[[7.5126645812198065,-28.48167571213911],[3.005819811780128,3.4959178126204717],[-3.2197483391400668,2.8701191399799137],[17.690124601739566,0.035107069799777235],[-0.4080544066805388,-0.1443721906000472],[19.313243249520287,-1.7120140029004849],[11.30333533848,-2.6061420144797953],[-5.710681455060379,17.724041094341285]]}]},"type_":"prey","pos":[32.903295003603155,79.61290851093793],"orientation":117.31188317376557,"health":1.0,"energy_copy":2.7818287500000003,"age":22.254630000000002,"gen":1436242,"fitness":22.254630000000002},"400139647":{"nn":{"node_layers":[{"biases":[16.740622272780254,3.1657974492004013,-0.5212733739000438,-0.9107278457599995,22.924684532860116,-0.5924155338999253,-0.25950669245996744,3.246017696120693],"activation_ref":"sigmoid"},{"biases":[7.20701620901988,10.51122095506026],"activation_ref":"sigmoid"}],"connection_layers":[{"input_size":8,"output_size":2,"weights":[[-0.6870140445004471,32.224245270878924],[-17.98680510002013,-30.38364300830154],[34.76335581170059,11.833467387581022],[-1.8474193507191352,35.59782628517962],[10.853744210739999,-4.699295054519544],[17.874619126200542,-23.734984795600102],[7.2013295112207105,5.470431100960378],[9.536623633480799,-14.59671278309955]],"dyn_weights":[[-7.476979274819806,-28.488759095219113],[3.050220308860127,3.523423728140472],[-3.246338028100067,2.8643211378999136],[17.66461139093957,0.009774431919777227],[-0.3851394981605388,0.13057074724004716],[19.340055879920286,-1.703859654100485],[11.271938359560002,-2.574669120239795],[-5.70046090170038,17.691855834781283]]}]},"type_":"prey","pos":[544.5750406965363,864.3491621247],"orientation":331.6765524035705,"health":1.0,"energy_copy":3.393032499999999,"age":27.144259999999992,"gen":1436242,"fitness":27.144259999999992},"400138550":{"nn":{"node_layers":[{"biases":[-0.015971403080018085,-2.3729431831999235,-0.15157606377982902,6.2181342954201595,0.9586842775399782,-13.71505977731991,-2.63197195362005,-5.913307683859962],"activation_ref":"sigmoid"},{"biases":[2.993003213220234,-0.028524563619965918],"activation_ref":"sigmoid"}],"connection_layers":[{"input_size":8,"output_size":2,"weights":[[-0.07569894351994239,2.379762098000063],[2.744355371700177,6.578750613540085],[-13.996105700019976,-5.007771850619894],[11.784233224080133,-8.58557691063994],[7.953163403400101,-1.2490383398398803],[2.134798643120086,-1.331594973959725],[-8.443534447579955,-0.1711359949198656],[-10.398424288879815,7.011914441940003]],"dyn_weights":[[12.08847065684015,9.766696141739848],[-1.8794374785599777,3.386014812680079],[2.8514436291000633,-4.09499301721993],[5.072052540460039,-0.12526987017994923],[-0.922799179099835,-4.901788642199934],[-5.252074788100127,-2.315636331919999],[-19.255827269820482,1.5105819240400482],[-4.155443729419905,-2.4984033944798827]]}]},"type_":"predator","pos":[926.1595805269637,361.74594608904874],"orientation":206.14007674866863,"health":0.8495082820000003,"energy_copy":19.0,"age":222.95600200000027,"gen":353924,"fitness":19.0},"400139003":{"nn":{"node_layers":[{"biases":[-0.035903092880018084,-2.3555750574799235,-0.16359643581982905,6.182962959940159,0.9634585834999781,-13.69342063487991,-2.6206329774600503,-5.952472781179963],"activation_ref":"sigmoid"},{"biases":[3.005214640740234,-0.02385073633996591],"activation_ref":"sigmoid"}],"connection_layers":[{"input_size":8,"output_size":2,"weights":[[-0.0795841564799424,2.444344261400063],[2.759711317580177,6.598460843940085],[-14.002683477619975,-5.014690451859894],[11.809908188640133,-8.59796620095994],[7.965520033760101,-1.2285867955598804],[2.152511486040086,-1.306473108439725],[-8.469608515619957,-0.1855101055598656],[-10.392991379479815,7.023866146940003]],"dyn_weights":[[12.06486711284015,9.806904774019849],[-1.8499085588799777,3.390136730160079],[2.8460518253000635,-4.06806876361993],[5.068667048140039,-0.1604268730199492],[-0.9471984414198349,-4.845018903759933],[-5.235094657340127,-2.278268588519999],[-19.222728968020483,1.483524939760048],[-4.166607750619905,-2.5097755099998826]]}]},"type_":"predator","pos":[915.731651925823,937.7699434115141],"orientation":49.05125155623361,"health":0.9227417960000002,"energy_copy":14.0,"age":138.05440300000006,"gen":353924,"fitness":14.0},"400138814":{"nn":{"node_layers":[{"biases":[-0.010686240240018088,-2.3961659935599235,-0.123485153219829,6.208286556020159,0.9337024142199782,-13.69310353947991,-2.66097901914005,-5.922542874459963],"activation_ref":"sigmoid"},{"biases":[3.0380085121002343,-0.0008814883399659232],"activation_ref":"sigmoid"}],"connection_layers":[{"input_size":8,"output_size":2,"weights":[[-0.11060476923994239,2.4534323086800627],[2.724586293460177,6.562720915020084],[-14.022923096179975,-4.994711078859893],[11.802539207840134,-8.56328054835994],[7.928035292400101,-1.2277596828398802],[2.152397042720086,-1.2869661829997254],[-8.426863551139956,-0.1393741437598656],[-10.378306236679816,7.007678599660003]],"dyn_weights":[[12.136471761760152,9.792857118219848],[-1.868294541919978,3.352132932400079],[2.839300232220064,-4.09773960853993],[5.045375180140039,-0.11419762021994921],[-0.953455503099835,4.913297221519933],[-5.227522014180128,-2.263917945519999],[-19.210399337460487,1.4589061489200479],[-4.184312088699904,-2.4696271158398826]]}]},"type_":"predator","pos":[654.3103732685535,708.2742825244553],"orientation":115.24590983133723,"health":0.14991310599999721,"energy_copy":10.0,"age":171.1964010000001,"gen":353924,"fitness":10.0},"400139562":{"nn":{"node_layers":[{"biases":[16.81937027610024,3.4000410574004003,-0.4134216626600436,-1.0006658647199993,23.02064725678012,-0.5827149969399257,-0.15813005141996742,3.3457283514006924],"activation_ref":"sigmoid"},{"biases":[7.197474073619879,10.587652434620264],"activation_ref":"sigmoid"}],"connection_layers":[{"input_size":8,"output_size":2,"weights":[[-0.7617925415404473,32.270890119638906],[-17.99943780086012,-30.430539339261557],[34.831693001180604,11.946567014941019],[-1.8356652172391352,