{"size":[1000,1000],"entities":{"416514753":{"nn":{"node_layers":[{"biases":[-0.7034883657200185,-5.181152500799917,-1.3083758413798372,8.533319415420197,0.25816120713997576,-10.940530507159863,-3.748044519100047,-6.458040840779992],"activation_ref":"sigmoid"},{"biases":[2.4574821433002496,0.6977950715400353],"activation_ref":"sigmoid"}],"connection_layers":[{"input_size":8,"output_size":2,"weights":[[-0.6230358911199433,2.2440907105600867],[2.165914402300181,4.745750606260099],[-14.186612149179998,-4.342628723059867],[10.5867636812002,-7.557494874439932],[8.7705346976401,-2.9267546771998743],[3.533469461600097,0.16446364876027936],[-9.272706901939896,-2.6559701954798527],[-10.97226852395984,4.942562148979967]],"dyn_weights":[[11.610079866240207,12.513152707579874],[-1.385932896439984,-3.0764328394800784],[-3.234135744300064,-4.709665729019932],[-4.584161070820033,0.12488676865994902],[-0.2613753652198399,-6.613248955919923],[-5.288986312460124,1.0639381969600032],[-19.59132705834043,-2.485905952880051],[3.0802293958999285,1.4382230240398743]]}]},"type_":"predator","pos":[193.3895384432421,818.2616899975436],"orientation":178.82035963033402,"health":0.8133298479999999,"energy_copy":0.0,"age":10.370564000000005,"gen":363966,"fitness":0.0},"416514752":{"nn":{"node_layers":[{"biases":[-0.6541661995200185,-5.145324089999918,-1.2747638144598372,8.469916920060196,0.19792025873997576,-10.934348075119862,-3.7790866883000476,-6.497818792419992],"activation_ref":"sigmoid"},{"biases":[2.4868185666602494,0.6423993184200354],"activation_ref":"sigmoid"}],"connection_layers":[{"input_size":8,"output_size":2,"weights":[[-0.6450410460399433,2.2979166906000867],[2.205287476620182,4.775115814420099],[-14.220640086419998,-4.373278337219866],[10.5920467498802,-7.570736550439932],[8.7878579261601,-2.937114870879874],[3.535948231960097,0.1798006912802794],[-9.204956311579897,-2.5936833212398525],[-10.951989256079841,4.989248976899968]],"dyn_weights":[[-11.558066701840206,12.491211807619878],[-1.3370994361199842,3.0883268256400784],[-3.238389579860065,-4.646521437739931],[4.654982722140033,0.139271893499949],[0.20936086561983988,-6.619945199839924],[5.255003160860122,1.0602306451600036],[-19.567700446580428,-2.4519239862400513],[3.0842689295399293,-1.4764522890398741]]}]},"type_":"predator","pos":[37.21089891699081,523.3700636811443],"orientation":89.82439524165005,"health":0.8133298479999999,"energy_copy":0.0,"age":10.370564000000005,"gen":363967,"fitness":0.0},"416514764":{"nn":{"node_layers":[{"biases":[-0.7026501134800185,-5.168460317559917,-1.3145020893398374,8.504207124700198,0.2879592752199757,-10.934744212399863,-3.749537552260047,-6.458704975699992],"activation_ref":"sigmoid"},{"biases":[2.4626733216202497,0.7055334822600353],"activation_ref":"sigmoid"}],"connection_layers":[{"input_size":8,"output_size":2,"weights":[[-0.6577249848399432,2.2706490136800865],[2.175171355500181,4.767609947100099],[-14.175757152379997,-4.346926704499866],[10.595580109520201,-7.592069462559932],[8.785837027480099,-2.9013605309598742],[3.5652634849600973,0.17928227700027938],[-9.266981699419896,-2.6528054436798527],[-10.95814991823984,4.957595575459967]],"dyn_weights":[[11.607819551240208,12.488508171899875],[-1.369720457679984,-3.0512384673200783],[-3.210767441980064,-4.705490392539931],[4.580791958140033,0.14344452905994903],[-0.27062524277983985,-6.611287317039923],[-5.284680949460125,1.0654315204800031],[-19.58977563034043,-2.500990723080051],[3.0745536169399283,-1.4311818386398742]]}]},"type_":"predator","pos":[145.82391008502717,730.5262460144362],"orientation":195.69497948914986,"health":0.836298352,"energy_copy":0.0,"age":9.094536000000005,"gen":363966,"fitness":0.0},"416514774":{"nn":{"node_layers":[{"biases":[17.850417986540197,0.24295649836039887,-0.6695029372600481,-1.1183228805600067,24.970878274780056,0.981061916740078,-1.6431812505399654,6.748551034720774],"activation_ref":"sigmoid"},{"biases":[6.432339356139831,7.521541711140336],"activation_ref":"sigmoid"}],"connection_layers":[{"input_size":8,"output_size":2,"weights":[[1.7822157356595543,37.05501822783914],[-14.289671888580001,-33.31105218282118],[34.698630502061235,11.706157757021153],[-3.7888737041990623,35.790786085340635],[11.865271039099849,-1.5449493268795225],[16.797380264840783,-22.901128046720068],[8.038355459020782,4.230178671560409],[10.693580832280626,-14.563696853019788]],"dyn_weights":[[-12.587874554299795,-29.52220976837944],[1.6494014286600938,5.141598681980403],[1.0924900110600988,1.745903871339969],[-22.828708795099512,-2.50485364720027],[-3.9340158724405656,-1.9269882612800546],[21.058733306960328,1.2892352062604842],[12.860748027959819,-6.038457183559876],[4.526219697660418,18.197113513101364]]}]},"type_":"prey","pos":[202.47483512137342,121.95396197921364],"orientation":119.93352089455504,"health":1.0,"energy_copy":0.54667725,"age":4.373418,"gen":1492438,"fitness":4.373418},"416514577":{"nn":{"node_layers":[{"biases":[17.876347142580197,0.23897780080039885,-0.678986977300048,-1.119868847400007,24.953551046500056,0.978042378900078,-1.6337461853799655,6.721047432040773],"activation_ref":"sigmoid"},{"biases":[6.415271100659831,7.515823174660336],"activation_ref":"sigmoid"}],"connection_layers":[{"input_size":8,"output_size":2,"weights":[[1.7757997170595543,37.05533859323914],[-14.31426714266,-33.333373767061175],[34.682156656741235,11.693243431621152],[-3.7791357009190625,35.79164927574064],[11.87033922653985,-1.5416118835195225],[16.765202169560784,-22.914635758760067],[8.05660735946078,4.232694597640409],[10.692302626440625,-14.567480164019788]],"dyn_weights":[[-12.597118420419795,-29.530686844379442],[1.6643310019000936,5.133113939900403],[1.1006676484600988,1.784924186819969],[-22.830396227779513,2.50552493536027],[-3.9368228004405657,-1.9513400931600546],[21.028406331080326,1.318547401540484],[12.872050199919817,-6.016883123559876],[4.5322374582204175,18.192073426341363]]}]},"type_":"prey","pos":[916.8792520125079,724.7533327401507],"orientation":-142.5115381994835,"health":1.0,"energy_copy":5.998836624999998,"age":47.990692999999986,"gen":1492438,"fitness":47.990692999999986},"416514516":{"nn":{"node_layers":[{"biases":[17.848096955860203,0.2615503890803988,-0.6683440036200484,-1.0428914283200073,25.141041739740054,0.8834231571000781,-1.5433423787799658,6.750633848960774],"activation_ref":"sigmoid"},{"biases":[6.33415437089983,7.609909790780335],"activation_ref":"sigmoid"}],"connection_layers":[{"input_size":8,"output_size":2,"weights":[[1.7866165310595543,37.03013602359915],[-14.271154005380001,-33.363493274861185],[34.68735484658123,11.798218421021152],[-3.9362358172390626,35.75292315726064],[11.820699787139851,-1.504132106439522],[16.78436972324078,-22.89922798300007],[8.021880444420782,4.3122120352804085],[10.795754414320625,-14.506791179019785]],"dyn_weights":[[12.6440515460598,-29.570503470259442],[-1.5430689256600936,5.169865642500401],[0.9490648893800984,1.8384717174999698],[-22.88768713605951,2.4509196532002693],[-3.906480801160565,-1.8455194760000544],[-21.186316384520335,1.3884536751804841],[-12.989260160719818,-5.931067090239874],[4.465114850220417,18.190937194741377]]}]},"type_":"prey","pos":[672.2086195483192,447.4499336222583],"orientation":-228.761938412945,"health":1.0,"energy_copy":7.379894249999995,"age":59.03915399999996,"gen":1492437,"fitness":59.03915399999996},"416513804":{"nn":{"node_layers":[{"biases":[-0.6956800187600185,-5.187709920239917,-1.3090374244998373,8.518828501860197,0.27012467721997574,-10.951297954439863,-3.7502760082600473,-6.472299435539992],"activation_ref":"sigmoid"},{"biases":[2.4749095397402496,0.6970420451400353],"activation_ref":"sigmoid"}],"connection_layers":[{"input_size":8,"output_size":2,"weights":[[-0.6412430952799433,2.2512593252400865],[2.178519935900181,4.752558785900099],[-14.182617658219998,-4.355131008259867],[10.6039104543202,-7.574919546879932],[8.7897961834001,-2.909262883919874],[3.550235832200097,0.18117238688027937],[-9.262910651939896,-2.656799885159853],[-10.97727115403984,4.937841537579967]],"dyn_weights":[[11.594026180840208,12.493246854859875],[-1.389363949959984,-3.0691295165200785],[-3.219480253180064,-4.7089750669399315],[4.600394928580033,0.13254990121994903],[-0.25857518205983987,-6.5974746846799235],[-5.287947814180124,1.0753361130400032],[-19.57633922506043,-2.494598494720051],[3.0754221800199284,-1.4262084998798743]]}]},"type_":"predator","pos":[63.39483041504013,524.6871724085186],"orientation":256.6437504940788,"health":0.7609675519999989,"energy_copy":3.0,"age":208.6996610000002,"gen":363965,"fitness":15.0},"416514770":{"nn":{"node_layers":[{"biases":[-0.7134272349200185,-5.190403619199917,-1.3205097557798373,8.504270454780197,0.25462060177997575,-10.941022403119863,-3.748230011340047,-6.461803687459992],"activation_ref":"sigmoid"},{"biases":[2.4772987869802496,0.6855898212600353],"activation_ref":"sigmoid"}],"connection_layers":[{"input_size":8,"output_size":2,"weights":[[-0.6424925697199433,2.2535816638400865],[2.159557005940181,4.749077452060099],[-14.183931225459999,-4.3420516558198665],[10.6096360056802,-7.579160118159932],[8.7850474698001,-2.919315177919874],[3.533895717400097,0.17421269928027938],[-9.261883300379896,-2.668096212079853],[-10.99603900211984,4.953585475899967]],"dyn_weights":[[11.602842612080208,12.480168977539874],[-1.3767127013999838,-3.0634077677200784],[-3.238826418940064,-4.703223932699932],[4.583950083820033,0.14312788605994903],[-0.24259718873983988,-6.6116249223599235],[-5.293826881860124,1.0932664927200033],[-19.56373136882043,-2.483133117160051],[3.0839972406599285,-1.4446089985998742]]}]},"type_":"predator","pos":[869.7353328649596,392.0420960708674],"orientation":-78.59836937411444,"health":0.9191510559999999,"energy_copy":1.0,"age":6.683843,"gen":363966,"fitness":1.0},"416514384":{"nn":{"node_layers":[{"biases":[-0.6629778028400185,-5.175119780119917,-1.3002888439398372,8.520029273700194,0.20657697505997574,-10.882334127119861,-3.7905387436600475,-6.444352167779993],"activation_ref":"sigmoid"},{"biases":[2.4598331780602494,0.6709442507800354],"activation_ref":"sigmoid"}],"connection_layers":[{"input_size":8,"output_size":2,"weights":[[-0.6646282968399434,2.3299088810000863],[2.2309416722201814,4.7321935313801],[-14.243078824059998,-4.3950051862198665],[10.5685554186002,-7.602506568759932],[8.771250242160098,-2.8931240833598744],[3.5178249186000974,0.14566602736027937],[-9.159920409379897,-2.6190278369598525],[-10.97280546095984,4.976336615859967]],"dyn_weights":[[-11.565829470840203,12.510827983099876],[-1.3919456460399842,-3.0462447942000783],[-3.2049982533400647,-4.651446471539932],[-4.590437370060032,-0.17067027029994902],[0.21745699833983992,-6.636960091439923],[-5.316645807460123,1.0467951976400036],[-19.596965733860426,-2.422668568800051],[3.0510528518199287,-1.5260383485198743]]}]},"type_":"predator","pos":[130.17642927980856,927.8454314172532],"orientation":277.941448967131,"health":0.48895121799999997,"energy_copy":4.0,"age":82.48674400000003,"gen":363966,"fitness":4.0},"416514505":{"nn":{"node_layers":[{"biases":[-0.6722574500800187,-5.425858923279921,-1.248488627259838,8.296112557660198,0.4626365752199758,-10.957728637679859,-3.65151607986005,-6.6021168168999935],"activation_ref":"sigmoid"},{"biases":[2.5276829131802483,0.49793896786003533],"activation_ref":"sigmoid"}],"connection_layers":[{"input_size":8,"output_size":2,"weights":[[-0.7327105268799432,2.370774230320087],[2.3019171104601814,4.811478416980095],[-14.22820817466,-4.536301548059862],[10.371976191480195,-7.6274308512799305],[8.641561730360106,-2.770707341119877],[3.465814666800096,0.2167840320802794],[-9.158871804779888,-2.689841655919853],[-11.206247984159848,5.224768999219964]],"dyn_weights":[[11.611150060600197,12.693212062579875],[1.2498487197199832,-2.975486186120079],[3.1122460485800665,-4.8661763100199344],[4.736545269980035,0.24510978877994907],[-0.29486728669983997,6.389578820799929],[-5.165766062700121,-1.073317761760003],[-19.42967174818044,-2.6080667193200493],[3.160450669379929,1.4498860229998742]]}]},"type_":"predator","pos":[140.44714466134326,256.07197658296406],"orientation":169.07224566139635,"health":0.1303729639999993,"energy_copy":1.0,"age":62.20150199999998,"gen":363964,"fitness":1.0},"416514682":{"nn":{"node_layers":[{"biases":[17.7797846635402,0.27149690048039876,-0.6618871387800482,-1.0449019507200072,25.037255602900046,0.871184286980078,-1.553850507459966,6.815704786960775],"activation_ref":"sigmoid"},{"biases":[6.32189873821983,7.648483417060336],"activation_ref":"sigmoid"}],"connection_layers":[{"input_size":8,"output_size":2,"weights":[[1.837663502979555,37.07312455315913],[-14.341951823420004,-33.365508348861184],[34.63423991850123,11.76285542958115],[-3.9339622649190624,35.719811112260636],[11.810714639739853,-1.4873184821195224],[16.807015329880784,-22.915775476480068],[8.046594738460783,4.235207125240409],[10.690761267240624,-14.604107652459785]],"dyn_weights":[[12.648616278939798,-29.593716823539435],[-1.5196155737000936,5.215936639940403],[0.9815308463400984,1.7981121799799695],[22.89342137089951,2.52480853572027],[-3.9531011036405648,-1.8323831870400544],[-21.150411517680332,1.369635642900484],[-12.926827625959815,-5.955369836239873],[4.453307089740418,18.197054891781377]]}]},"type_":"prey","pos":[942.3887965807049,630.3608454002241],"orientation":-207.7838956869993,"health":1.0,"energy_copy":3.442749374999999,"age":27.541994999999993,"gen":1492436,"fitness":27.541994999999993},"416514546":{"nn":{"node_layers":[{"biases":[-0.6847546934000185,-5.182645458519917,-1.3032126159798372,8.491302519700195,0.24231728633997573,-10.967530779759864,-3.7403984387000473,-6.465571604859993],"activation_ref":"sigmoid"},{"biases":[2.4560449477802497,0.6711521381800354],"activation_ref":"sigmoid"}],"connection_layers":[{"input_size":8,"output_size":2,"weights":[[-0.6350493737199433,2.2598711065200865],[2.163817568180181,4.763657548980099],[-14.152298025739999,-4.375524802779867],[10.5733124542802,-7.5502490104399325],[8.792003745280098,-2.9120089972798744],[3.544412574120097,0.17944940084027936],[-9.268392851019895,-2.6207511945598525],[-10.97748637667984,4.924660648859967]],"dyn_weights":[[-11.60875155888021,12.496005331339875],[-1.380463010839984,-3.076715920520078],[-3.2101715809000644,-4.686586976659931],[4.618243652580033,0.13394671685994902],[-0.23722245445983992,-6.599072621999923],[-5.298786707460124,1.0912641298000034],[-19.598525070500433,-2.502301659640051],[3.0786196230599288,-1.4336753870798742]]}]},"type_":"predator","pos":[314.0468197331251,855.3180044389924],"orientation":295.75879445302473,"health":0.527364905999999,"energy_copy":2.0,"age":54.03528299999998,"gen":363966,"fitness":2.0},"416514714":{"nn":{"node_layers":[{"biases":[17.7831396482602,0.18392996104039874,-0.6572480517000483,-1.0357948224000073,25.04036753162005,0.9498918263400781,-1.5823576387399658,6.768435554160774],"activation_ref":"sigmoid"},{"biases":[6.29981609593983,7.638713267340337],"activation_ref":"sigmoid"}],"connection_layers":[{"input_size":8,"output_size":2,"weights":[[1.8575413654195547,37.09487814091913],[-14.339033336460002,-33.33174455266118],[34.63599848574123,11.768642403701149],[-3.8718894242390625,35.782524535980635],[11.826607098299853,-1.4864524973195223],[16.809997432080785,-22.928773728560067],[8.019343575180782,4.241187494720409],[10.688487856240624,-14.538443832139786]],"dyn_weights":[[12.628043787699797,-29.56922604657943],[-1.5280986513000938,5.218228313220402],[0.9669238882200983,1.8240885407399696],[22.877266742939515,2.5584341813602696],[-3.944986606360565,-1.7913362224400544],[-21.135279876120332,1.3913101703804842],[12.956660033079817,-5.948940901079873],[4.502549014180419,18.184890320341374]]}]},"type_":"prey","pos":[240.5174970339752,587.9641867563979],"orientation":-317.89138365147556,"health":1.0,"energy_copy":2.273252874999998,"age":18.186022999999985,"gen":1492436,"fitness":18.186022999999985},"416514707":{"nn":{"node_layers":[{"biases":[-0.6604890051200185,-5.179525909359918,-1.3065418180598374,8.481491977700196,0.20257169753997575,-10.922381513439863,-3.7645366518600474,-6.476526840819993],"activation_ref":"sigmoid"},{"biases":[2.488148522420249,0.6540450671400354],"activation_ref":"sigmoid"}],"connection_layers":[{"input_size":8,"output_size":2,"weights":[[-0.6554466042799433,2.314414527080087],[2.2106592908601823,4.7978636065800995],[-14.238323804219998,-4.356941701459866],[10.5708312252802,-7.571546714079932],[8.7602411353601,-2.946573771639874],[3.5670319929600973,0.1898572507602794],[-9.236074169979897,-2.5933614308398525],[-10.960162400919842,4.983195073459968]],"dyn_weights":[[-11.582794020200206,12.504231319619878],[-1.359749571439984,-3.0743143700000783],[-3.240812544020065,-4.659014189819931],[-4.637360674820033,0.136602918459949],[0.2067366005398399,-6.635997938559924],[5.265959906820123,1.0655804117200036],[-19.570526577140427,-2.443811122680051],[3.054495203899929,-1.4622778694398741]]}]},"type_":"predator","pos":[659.6762532136274,307.9328125729635],"orientation":77.74820796131496,"health":0.6322016800000003,"energy_copy":0.0,"age":20.433239999999987,"gen":363967,"fitness":0.0},"416514686":{"nn":{"node_layers":[{"biases":[17.7458980909802,0.21958457732039877,-0.6783845379400483,-1.0527061960800073,25.02027908010005,0.952700869700078,-1.5661125013399662,6.814508445480775],"activation_ref":"sigmoid"},{"biases":[6.33597975865983,7.683585900340336],"activation_ref":"sigmoid"}],"connection_layers":[{"input_size":8,"output_size":2,"weights":[[1.8311127903795548,37.07611951699913],[-14.3323455025,-33.31758665770117],[34.66446303890123,11.81638044450115],[-3.9055737920790623,35.756918499980635],[11.854456736499854,-1.4742227494795224],[16.800146219040784,-22.898890815520065],[8.036127854580782,4.258678772520408],[10.692663131520623,-14.533997732899786]],"dyn_weights":[[12.626575611099797,-29.584434789499433],[1.5545620656200936,5.196306747860403],[0.9513274248600982,1.8324202740199698],[22.883553964459512,2.5510967476002695],[-3.921723487160565,-1.8181302738400547],[-21.12790978784033,1.336217153340484],[-12.940912428959816,-5.939931189319873],[-4.504516568300419,18.195442618101378]]}]},"type_":"prey","pos":[441.89197943239935,332.8418653882595],"orientation":-307.5984028746943,"health":1.0,"energy_copy":3.370979124999999,"age":26.96783299999999,"gen":1492436,"fitness":26.96783299999999},"416514353":{"nn":{"node_layers":[{"biases":[-0.6783799526000185,-5.180267066759918,-1.3155993198198372,8.508351572980194,0.26181050061997574,-10.942240493159861,-3.749027512380047,-6.485349707059993],"activation_ref":"sigmoid"},{"biases":[2.4916056989402495,0.6733272491000355],"activation_ref":"sigmoid"}],"connection_layers":[{"input_size":8,"output_size":2,"weights":[[-0.6407181929999433,2.3255679168800865],[2.1871396195001815,4.762563614460099],[-14.230237999579998,-4.349918286139867],[10.555418038520198,-7.603915115759932],[8.7738938770401,-2.959500122959874],[3.507672476280097,0.17591029240027936],[-9.216199866779897,-2.6513366032798524],[-11.02350922055984,4.944993566619968]],"dyn_weights":[[-11.581855459360206,12.524502474939874],[-1.368339993679984,3.0602487930800786],[-3.226025604540065,-4.682865216019931],[4.609342389700032,0.12271697321994901],[0.23550693697983988,-6.645806315559924],[5.287467953740124,-1.0785965606000036],[-19.574167134020428,-2.509897706280051],[3.0773741227399287,-1.4906943284398742]]}]},"type_":"predator","pos":[427.1577255665701,274.97163166694645],"orientation":74.87304612084685,"health":0.1373477620000003,"energy_copy":3.0,"age":89.59179100000009,"gen":363966,"fitness":3.0},"416514243":{"nn":{"node_layers":[{"biases":[-0.6909399935200188,-5.481697240519919,-1.2701872375798378,8.358975807060197,0.5015580924199757,-10.945338097239858,-3.6401973510600505,-6.587463337859993],"activation_ref":"sigmoid"},{"biases":[2.4714541866602477,0.4756861682600353],"activation_ref":"sigmoid"}],"connection_layers":[{"input_size":8,"output_size":2,"weights":[[-0.7340925864799432,2.3485103009600867],[2.259603330700181,4.7741521013400945],[-14.239426057580003,-4.586153264179863],[10.346657265720197,-7.693988310399931],[8.656159872000107,-2.760202523159877],[3.470224669720096,0.23798175396027937],[-9.16116398585989,-2.6908515729598528],[-11.209702034399848,5.177140146299964]],"dyn_weights":[[11.585211525040199,12.710151442419875],[1.313222611639983,-2.9804724130800793],[-3.0977956455400664,-4.809791017019934],[4.725900161140036,0.20078894765994906],[-0.28644185505983993,6.434986967799929],[-5.1632886991801215,-1.107282163080003],[-19.405851138580438,-2.6005181483200492],[3.1908376556999296,-1.4622958930398742]]}]},"type_":"predator","pos":[53.10991272107565,864.4918845276452],"orientation":82.94794903471757,"health":0.117398867999999,"energy_copy":7.0,"age":115.98901900000003,"gen":363963,"fitness":7.0},"416514688":{"nn":{"node_layers":[{"biases":[-0.6621031832800185,-5.1520023943999185,-1.2841403484198373,8.503281479580195,0.19207605637997577,-10.910525551479862,-3.7519676403000473,-6.4413835850999925],"activation_ref":"sigmoid"},{"biases":[2.4868026263002494,0.6573746981000353],"activation_ref":"sigmoid"}],"connection_layers":[{"input_size":8,"output_size":2,"weights":[[-0.6190181404799432,2.3174626902000863],[2.2401708585001816,4.758550003540099],[-14.288833937939998,-4.381119323219866],[10.5852042178002,-7.561822504359931],[8.7693343400001,-2.967834443759874],[3.574383282240097,0.20282329588027936],[-9.231781284579897,-2.6411701471998525],[-10.989793913359842,4.990917452099969]],"dyn_weights":[[-11.565131151880205,12.479561318259877],[-1.3333631349999842,-3.0829039105200784],[-3.214190186180065,-4.638300107779932],[4.644970814100032,0.13756353657994902],[0.1655805759798399,-6.619627053959923],[5.246452266300123,1.0502394230800034],[-19.563914544500427,-2.448838899680051],[3.0662257094599292,-1.4687328340398742]]}]},"type_":"predator","pos":[916.8564837904543,214.56933666648283],"orientation":24.82898825710791,"health":0.6593637700000006,"energy_copy":1.0,"age":25.865551999999994,"gen":363967,"fitness":1.0},"416514616":{"nn":{"node_layers":[{"biases":[17.860509992180198,0.24283994220039887,-0.647341430220048,-1.0948075555600068,24.983129508060056,0.986191872980078,-1.6531692772199655,6.725738079600774],"activation_ref":"sigmoid"},{"biases":[6.430370484659831,7.516474343740336],"activation_ref":"sigmoid"}],"connection_layers":[{"input_size":8,"output_size":2,"weights":[[1.7954119692195543,37.05437361071914],[-14.276089951740001,-33.33750135634118],[34.72030138822123,11.706044098621152],[-3.795539088719062,35.78499933762063],[11.85584141117985,-1.5133799183595225],[16.765566835480783,-22.914240556360067],[8.06197803138078,4.211450323280409],[10.690688221880626,-14.581806386059789]],"dyn_weights":[[-12.596238144939795,-29.549599623099443],[1.6512632111000938,5.1241376232604035],[1.0926048552600987,1.7761478759399691],[-22.836371071139514,2.51431045092027],[-3.9280763463605655,-1.9378327872800547],[21.043262873920327,1.304556482780484],[12.864307534679817,-6.016766638359876],[4.546680996500418,18.193304550941363]]}]},"type_":"prey","pos":[845.6451267249278,775.3476212257102],"orientation":-324.50094868856206,"health":1.0,"energy_copy":5.3755157499999955,"age":43.004125999999964,"gen":1492438,"fitness":43.004125999999964},"416514651":{"nn":{"node_layers":[{"biases":[17.7700053742602,0.26384204880039874,-0.6727906775400483,-1.0638484175600074,25.042497441940046,0.890082674260078,-1.549559659059966,6.8268835094807745],"activation_ref":"sigmoid"},{"biases":[6.3492579609798305,7.643067648500336],"activation_ref":"sigmoid"}],"connection_layers":[{"input_size":8,"output_size":2,"weights":[[1.8163556339395548,37.04471867787913],[-14.346960616060004,-33.339255281701185],[34.63865717418123,11.76390489078115],[-3.9091767142790625,35.746602502980636],[11.810127461819853,-1.4843682430395224],[16.80112839492078,-22.934557625600068],[8.020412584660784,4.2365255012404095],[10.702521197480625,-14.585296159779785]],"dyn_weights":[[12.648048510739796,-29.558049413059436],[-1.5474603707800936,5.215512826620403],[0.9872374645800983,1.8247953947799695],[22.91327213245951,2.51886970564027],[-3.952009158440565,-1.8237866185200544],[21.165216526840332,1.375125541460484],[-12.936919211479815,-5.949260257999873],[4.4463384649004185,18.209596705581376]]}]},"type_":"prey","pos":[980.9711167782829,216.4610609067067],"orientation":6.452553061420219,"health":1.0,"energy_copy":4.188567499999999,"age":33.50853999999999,"gen":1492436,"fitness":33.50853999999999},"416514547":{"nn":{"node_layers":[{"biases":[-0.6888568693600186,-5.194649095159917,-1.324856662259837,8.499106974140195,0.2583825048199757,-10.941040131799863,-3.7616483783400474,-6.462000238499993],"activation_ref":"sigmoid"},{"biases":[2.4811036747002495,0.6759986441400354],"activation_ref":"sigmoid"}],"connection_layers":[{"input_size":8,"output_size":2,"weights":[[-0.6479397023599434,2.2592260631600865],[2.1673989989001807,4.733508152540099],[-14.150127011539999,-4.407629545859867],[10.592618694520201,-7.558131936319933],[8.7766724980401,-2.9431003397598743],[3.535306957520097,0.19074433016027936],[-9.286666407099894,-2.633822460999853],[-10.991558420719839,4.936588527579967]],"dyn_weights":[[-11.580136999960208,12.474955609259874],[-1.3992770406399841,-3.053391284720078],[-3.2102189299000643,-4.719721422659931],[4.616576856340033,0.15621896261994903],[-0.2164289040998399,-6.613308711679923],[-5.310240377380124,1.0895612022000034],[-19.595084825700432,-2.524096449480051],[3.0953326440199285,-1.4208716647998743]]}]},"type_":"predator","pos":[410.3804057023098,907.2399924919379],"orientation":287.9570888951827,"health":0.033239385999999115,"energy_copy":0.0,"age":53.70892299999999,"gen":363966,"fitness":0.0},"416514759":{"nn":{"node_layers":[{"biases":[17.820072131180204,0.25466775224039884,-0.6761743567000483,-1.0586025322800072,25.11897329286005,0.9310486966600782,-1.550792061379966,6.768428561520774],"activation_ref":"sigmoid"},{"biases":[6.36362710717983,7.614640665460335],"activation_ref":"sigmoid"}],"connection_layers":[{"input_size":8,"output_size":2,"weights":[[1.7785059488595543,37.06263186143915],[-14.29635301346,-33.31965930914118],[34.67637359902123,11.829930656661151],[-3.913465677239062,35.722842851860634],[11.86116117813985,-1.4846869581595223],[16.787640023280783,-22.860487020880072],[8.022010043580783,4.292525115960409],[10.791637665960625,-14.536697426539785]],"dyn_weights":[[12.590550589619799,-29.562113023379442],[1.5482851209400936,5.147725442820401],[0.9681897568600984,1.82115275033997],[-22.87025058537951,2.460633868800269],[-3.9466260932005652,-1.8452158258400544],[-21.171522818360334,1.3455773175004844],[-13.014051832839817,-5.911107692679874],[4.458196490980417,18.196692651181376]]}]},"type_":"prey","pos":[857.6673003452124,803.1873850788327],"orientation":3.244640500666243,"health":1.0,"energy_copy":1.2648938750000007,"age":10.119151000000006,"gen":1492437,"fitness":10.119151000000006},"416514569":{"nn":{"node_layers":[{"biases":[17.8340193573002,0.2135476261603988,-0.6542361516600483,-1.0104423311200075,25.043970046100053,0.8682041773400782,-1.5999144166599657,6.7222278872807735],"activation_ref":"sigmoid"},{"biases":[6.351379560179828,7.688138534460334],"activation_ref":"sigmoid"}],"connection_layers":[{"input_size":8,"output_size":2,"weights":[[1.8185555050595545,37.09402230559914],[-14.344947126579997,-33.36990477054119],[34.62211946146124,11.713064302981149],[-3.874997892319062,35.762266737780614],[11.778279759139853,-1.499340645399522],[16.722051770040785,-22.945952688560066],[8.084715844020783,4.288954871480408],[10.778340976920624,-14.567952702779788]],"dyn_weights":[[-12.681184737139795,-29.54997272617944],[1.5644965623000935,5.144361673020403],[-1.0148220575400984,1.8390932890199696],[22.867318945499512,2.4820512727602693],[-3.9332521529205646,-1.8026544486000544],[-21.183926374960333,1.3710194818604837],[-12.910333967759815,-5.950709633599874],[4.426112610900416,18.25684209934137]]}]},"type_":"prey","pos":[287.4639926646233,568.1467855571736],"orientation":-57.41512227388037,"health":1.0,"energy_copy":6.155750874999999,"age":49.24600699999999,"gen":1492437,"fitness":49.24600699999999},"416514148":{"nn":{"node_layers":[{"biases":[-0.6628856990800185,-5.185748307479917,-1.2645657029398372,8.493083166020195,0.21382365749997576,-10.884936521759863,-3.753822783700047,-6.454784547819993],"activation_ref":"sigmoid"},{"biases":[2.5001559827002495,0.6895009981000354],"activation_ref":"sigmoid"}],"connection_layers":[{"input_size":8,"output_size":2,"weights":[[-0.6635008703999433,2.3127792194400865],[2.2328184794601813,4.7814463705001],[-14.252760658979998,-4.358580022139867],[10.565861830560198,-7.622551360359931],[8.744899464600099,-2.8796073227998744],[3.5269740021200975,0.18118479928027936],[-9.178490582219895,-2.6100318526398527],[-10.987891990039842,4.990225857739967]],"dyn_weights":[[-11.572822542520205,12.477819008699875],[-1.3406131065599842,-3.0496914250800784],[-3.1695809373800645,-4.646837526859932],[4.594352393980033,0.138913733099949],[0.21747817365983993,-6.649031626479924],[-5.276495795540123,1.0845735071600036],[-19.60369689838043,-2.4742083878800507],[3.0526772468999286,-1.5087001661598742]]}]},"type_":"predator","pos":[878.2628809976909,198.10426579195905],"orientation":50.74272822728262,"health":0.48991685399999896,"energy_copy":13.0,"age":137.9371249999999,"gen":363966,"fitness":13.0},"416514779":{"nn":{"node_layers":[{"biases":[17.8455954129802,0.23473773264039885,-0.636638889540048,-1.1164200674400069,25.01484209810005,0.953889881860078,-1.5692275726599658,6.755667015360774],"activation_ref":"sigmoid"},{"biases":[6.42323357229983,7.533958237700336],"activation_ref":"sigmoid"}],"connection_layers":[{"input_size":8,"output_size":2,"weights":[[1.7902146268995547,37.078503679439144],[-14.35247698586,-33.403162894461175],[34.69998581098123,11.61914207914115],[-3.7681944836390615,35.71384990250063],[11.83153750453985,-1.5852276470395226],[16.703114956560782,-22.881021908960076],[8.086559618940779,4.133142026560408],[10.681758363160624,-14.548950194739788]],"dyn_weights":[[-12.652233973099799,-29.53388770157943],[1.6073882734200935,5.192450163140403],[1.0460281883000984,1.8053487391399694],[-22.804785592379517,2.5051613612802703],[-3.9239327503605663,-1.9881793631200546],[-21.119246053720335,1.2970793393004838],[-12.895167956559817,-6.030156987359874],[-4.525520625460419,18.145152215261362]]}]},"type_":"prey","pos":[589.0968435635442,454.99958371648546],"orientation":-86.18333749910414,"health":1.0,"energy_copy":0.43132325,"age":3.450586,"gen":1492438,"fitness":3.450586},"416514790":{"nn":{"node_layers":[{"biases":[-0.6411326842400185,-5.147346545959918,-1.2863338842198373,8.502598228100195,0.21740196293997577,-10.935063238039863,-3.7657627063000474,-6.455155810579993],"activation_ref":"sigmoid"},{"biases":[2.518108726500249,0.6487010619000354],"activation_ref":"sigmoid"}],"connection_layers":[{"input_size":8,"output_size":2,"weights":[[-0.6221323614799432,2.3395884900000867],[2.243583298660182,4.7517275606200995],[-14.283114394099998,-4.391255282019866],[10.596018444400201,-7.542070953279931],[8.7484326573601,-2.984681295999874],[3.592576135720097,0.1912046784802794],[-9.209410884139897,-2.6152119141198527],[-10.986959130119843,4.969616427379969]],"dyn_weights":[[-11.575024046520205,12.486521152259877],[-1.3536330206399843,-3.0677677594800783],[-3.2032548118600648,-4.6422387730999315],[4.624692851900032,0.14927081305994902],[0.1810588641798399,-6.6108886095999235],[5.272834924260123,1.0682454960800034],[-19.539287451140428,-2.456268992880051],[3.072061403739929,-1.4665679679598742]]}]},"type_":"predator","pos":[505.41975125459,762.1881434723596],"orientation":-231.85944533618093,"health":0.980573446,"energy_copy":0.0,"age":1.079253,"gen":363967,"fitness":0.0},"416514750":{"nn":{"node_layers":[{"biases":[-0.6351775650000184,-5.150955407239918,-1.3008121115398372,8.465127426220196,0.22943251337997575,-10.914602448599863,-3.7445739448200475,-6.499764947739993],"activation_ref":"sigmoid"},{"biases":[2.467822237580249,0.6631257859000353],"activation_ref":"sigmoid"}],"connection_layers":[{"input_size":8,"output_size":2,"weights":[[-0.6456456389599432,2.303268050880087],[2.205256388540182,4.807731491460099],[-14.256791491939998,-4.366589139539866],[10.5984238198002,-7.577104142919931],[8.7775229896401,-2.942683413959874],[3.567965255200097,0.1711987684402794],[-9.233402825339898,-2.5959590681598526],[-10.948306768079842,4.977278242619968]],"dyn_weights":[[-11.550391452680206,12.494067014819878],[-1.3654405790799842,-3.0701090815600787],[-3.211818274220065,-4.633952124539931],[4.638311054980033,0.141760838499949],[0.2021320641398399,-6.614207285559924],[5.250426845700122,1.0358312208800036],[-19.542063983580427,-2.452334683080051],[3.071046683939929,-1.4671456559998741]]}]},"type_":"predator","pos":[106.08963772992549,641.7048865685448],"orientation":82.10925789039183,"health":0.796622518,"energy_copy":0.0,"age":11.298749000000004,"gen":363967,"fitness":0.0},"416514578":{"nn":{"node_layers":[{"biases":[-0.6482367397600185,-5.172928297159919,-1.2847697649798373,8.463020614900197,0.21132500749997576,-10.911668871439863,-3.7722012726200473,-6.488393299739993],"activation_ref":"sigmoid"},{"biases":[2.4728309887802493,0.6371932355400354],"activation_ref":"sigmoid"}],"connection_layers":[{"input_size":8,"output_size":2,"weights":[[-0.6578098903199432,2.302355042320087],[2.2316281290201823,4.805767181260099],[-14.236613619619998,-4.3704864502998655],[10.5718523381602,-7.551996369119932],[8.768689358840101,-2.9273465092798743],[3.5646507858400973,0.2046328751202794],[-9.234410815699897,-2.6038789162798524],[-10.961273612119841,4.990148810339968]],"dyn_weights":[[-11.578204448600207,12.521638992699877],[-1.331625437679984,-3.0875673106800785],[-3.230861701980065,-4.658596951139931],[4.6168992953800325,0.14637032173994902],[0.18330694585983986,-6.618445444359924],[5.266865617780122,1.0607129477200037],[-19.533349312780427,-2.447973661240051],[3.0502618158599293,-1.4655641228798741]]}]},"type_":"predator","pos":[306.4457218805078,353.099215853024],"orientation":-109.44055171453456,"health":0.3861675259999992,"energy_copy":1.0,"age":47.990692999999986,"gen":363967,"fitness":1.0},"416514710":{"nn":{"node_layers":[{"biases":[17.7730968695402,0.21066308068039877,-0.6628755388200482,-1.0230757410000073,25.018738830220048,0.917432030180078,-1.5580612195799661,6.822152486600775],"activation_ref":"sigmoid"},{"biases":[6.32639238153983,7.688854238340337],"activation_ref":"sigmoid"}],"connection_layers":[{"input_size":8,"output_size":2,"weights":[[1.809962918059555,37.07941366471913],[-14.303413829060002,-33.33073001850117],[34.66106601282124,11.817318850581149],[-3.9028134345990626,35.75728868738064],[11.846028741019854,-1.4727309747595223],[16.79524880308078,-22.904243864520065],[8.042230103500781,4.2469434943204085],[10.684261471480623,-14.544570936179786]],"dyn_weights":[[12.628950857299797,-29.596974693619433],[-1.5805394683400937,5.205578434780403],[0.9717420483400983,1.8315354269799697],[22.892848156859515,2.55185137336027],[-3.923261321840565,-1.8025150236800547],[-21.158376580840333,1.339043907140484],[-12.967955144919816,-5.922558091519873],[-4.522051391860418,18.17594981198138]]}]},"type_":"prey","pos":[575.0653850389352,308.97514861383496],"orientation":-107.7253585696265,"health":1.0,"energy_copy":2.4738608749999975,"age":19.79088699999998,"gen":1492436,"fitness":19.79088699999998},"416514527":{"nn":{"node_layers":[{"biases":[17.816714994140202,0.22696572896039874,-0.6720339095800483,-1.0580520771600073,25.03843044066005,0.8966739734600779,-1.570507781659966,6.817309083040774],"activation_ref":"sigmoid"},{"biases":[6.3340301808598305,7.630954489420337],"activation_ref":"sigmoid"}],"connection_layers":[{"input_size":8,"output_size":2,"weights":[[1.8325260098995548,37.09124234939914],[-14.346470503980003,-33.38609777162117],[34.58846807998123,11.762916020341152],[-3.9197204334390623,35.76304557010064],[11.801112463939855,-1.4583628033995224],[16.83757508332078,-22.94568775196007],[8.006465618060782,4.255525634240409],[10.715686257320625,-14.568525653499787]],"dyn_weights":[[12.575097609059796,-29.570876441459436],[-1.5188648249400938,5.264623681620403],[0.9238893783000983,1.8346396194199694],[22.91869650801951,2.55003938016027],[-3.942539562760565,-1.8004101943200546],[-21.158605104080333,1.383325231500484],[-12.902496653479815,-5.945524125039873],[4.455999871500418,18.220232385261376]]}]},"type_":"prey","pos":[482.45471514157157,812.3619522480731],"orientation":35.474316840017565,"health":1.0,"energy_copy":7.248105249999994,"age":57.98484199999995,"gen":1492436,"fitness":57.98484199999995},"416514732":{"nn":{"node_layers":[{"biases":[-0.6484882843200185,-5.156303404279918,-1.2904053841798373,8.460041855180195,0.20088714833997576,-10.916980074479863,-3.7665047505800473,-6.493066697739993],"activation_ref":"sigmoid"},{"biases":[2.4600464633002495,0.6706179305400354],"activation_ref":"sigmoid"}],"connection_layers":[{"input_size":8,"output_size":2,"weights":[[-0.6349252083599433,2.2918228416400868],[2.207480917140182,4.799002844380099],[-14.224366517259998,-4.377675299739866],[10.5910616173202,-7.561692487719932],[8.7626276875601,-2.929661509559874],[3.551227749000097,0.18910194000027938],[-9.203281272099897,-2.5921001934398524],[-10.93261266211984,4.972055820579968]],"dyn_weights":[[-11.554155277560206,12.508681095019877],[-1.332822126639984,-3.0614026519200785],[-3.219146120620065,-4.662251022939931],[4.629426356300033,0.147111220499949],[0.21881036329983988,-6.627663905799924],[5.249466843380122,1.0509525738800036],[-19.564241903060427,-2.455026514000051],[3.068218432779929,-1.4755233894798743]]}]},"type_":"predator","pos":[737.9002963997322,815.5406191262578],"orientation":98.27416255419121,"health":0.944890408,"energy_copy":1.0,"age":14.069935000000001,"gen":363967,"fitness":1.0},"416514348":{"nn":{"node_layers":[{"biases":[-0.6895854846800185,-5.173387713679918,-1.3024396829798373,8.496718835180193,0.25319805549997576,-10.912291505119862,-3.7637675755400473,-6.495142507699993],"activation_ref":"sigmoid"},{"biases":[2.4910205399002496,0.6867564851800355],"activation_ref":"sigmoid"}],"connection_layers":[{"input_size":8,"output_size":2,"weights":[[-0.6394999451199432,2.3274061995200865],[2.1870903027401813,4.737628522820099],[-14.201792091979998,-4.3728037024998665],[10.543724052000197,-7.599402628519932],[8.7865934314001,-2.929645730199874],[3.5146041525600973,0.20518943280027935],[-9.223391643579896,-2.6471607664398524],[-11.006263945999839,4.971333823819968]],"dyn_weights":[[-11.580526283480205,12.521762734659875],[-1.366115566279984,-3.0750435796000786],[-3.218394958260065,-4.685311083459931],[4.619863321580032,0.11157688765994901],[0.23232760229983987,-6.633617163159924],[5.3113846303401235,1.0586706923200038],[-19.598756948020426,-2.5021891076000506],[3.0856237770999284,-1.5232073813598743]]}]},"type_":"predator","pos":[541.0343231457801,326.9467077271599],"orientation":-27.021418076304254,"health":0.3899112899999993,"energy_copy":9.0,"age":90.61888900000004,"gen":363966,"fitness":9.0},"416514703":{"nn":{"node_layers":[{"biases":[17.732337712300204,0.21684200960039876,-0.6745236487800484,-1.0508654158000075,25.06615234626005,0.932252466860078,-1.5708541886999656,6.780049849120775],"activation_ref":"sigmoid"},{"biases":[6.32747153229983,7.655617498780336],"activation_ref":"sigmoid"}],"connection_layers":[{"input_size":8,"output_size":2,"weights":[[1.839535957739555,37.07722661647914],[-14.33605077482,-33.31871295974118],[34.63788149790122,11.75526163814115],[-3.9165622123190627,35.76383244154063],[11.806527457579852,-1.4750268136395226],[16.81680062460078,-22.95378216860007],[8.003926418660782,4.253972672680409],[10.755833090080623,-14.540171808739784]],"dyn_weights":[[12.568702518699798,-29.586268982859437],[-1.5434644385400937,5.232485894980403],[0.9428422241800982,1.8557299978999695],[22.93007993545951,2.54247138420027],[-3.9271908135205646,-1.8269630457200545],[-21.153188876240332,1.3679860955804841],[-12.906405586119815,-5.973083598199874],[4.514891538380418,18.216070408741373]]}]},"type_":"prey","pos":[718.0636963252387,882.0362076058864],"orientation":47.69252669953487,"health":1.0,"energy_copy":2.6957572499999984,"age":21.566057999999988,"gen":1492436,"fitness":21.566057999999988},"416514519":{"nn":{"node_layers":[{"biases":[17.853585939020203,0.27966076032039877,-0.6872531496200484,-1.0590041996400072,25.131801971020053,0.8922809435400781,-1.5281240460599659,6.773765911160774],"activation_ref":"sigmoid"},{"biases":[6.3310916153798305,7.600146971380335],"activation_ref":"sigmoid"}],"connection_layers":[{"input_size":8,"output_size":2,"weights":[[1.7866066217795544,37.03870864311915],[-14.253969906100002,-33.36616695154118],[34.678493810941234,11.789386232821151],[-3.9263409659590622,35.743225828180634],[11.839846693739851,-1.4670783373595222],[16.80482118692078,-22.91237112624007],[8.020563022340783,4.315921345840408],[10.801364313040624,-14.503157834459786]],"dyn_weights":[[12.6241386219798,-29.566319149139446],[-1.5586952047000935,5.174007565580401],[0.9388044372600984,1.8409140578999699],[-22.87756458149951,2.449501584040269],[-3.886590107600565,-1.8551748423600545],[-21.184700950800334,1.3990882080604843],[-12.978127389999816,-5.909766910799874],[4.504422168940418,18.210247469381375]]}]},"type_":"prey","pos":[716.7388806527541,431.147853728704],"orientation":-145.09460432216318,"health":1.0,"energy_copy":7.341972374999995,"age":58.73577899999996,"gen":1492437,"fitness":58.73577899999996},"416514570":{"nn":{"node_layers":[{"biases":[17.8431181467402,0.2168037201603988,-0.6370159986600483,-1.0175959106000074,25.073614009500055,0.8750617670200782,-1.5949680534999657,6.725719287720774],"activation_ref":"sigmoid"},{"biases":[6.374109748019829,7.6498399502203345],"activation_ref":"sigmoid"}],"connection_layers":[{"input_size":8,"output_size":2,"weights":[[1.8375389382595546,37.08315131439914],[-14.349850600579998,-33.38616321014119],[34.62034124494124,11.73839789198115],[-3.8794739542390624,35.77226486146062],[11.766199518419851,-1.498350112599522],[16.749056239840783,-22.94515300640007],[8.080585280620783,4.313906749280409],[10.769566061120624,-14.591171300619788]],"dyn_weights":[[-12.691476996019794,-29.555928958179443],[1.5975460795000935,5.178963000940403],[-1.0264123603800985,1.8511705070599698],[22.872252016339512,2.4940123499202693],[-3.8953468412005647,-1.8145783395600543],[-21.19899027496033,1.3862879014604839],[-12.910928878399814,-5.978651298479874],[4.421812755540416,18.251311709221373]]}]},"type_":"prey","pos":[204.79792890478484,480.0816320822083],"orientation":-129.08463737861246,"health":1.0,"energy_copy":6.141949624999999,"age":49.13559699999999,"gen":1492437,"fitness":49.13559699999999},"416514699":{"nn":{"node_layers":[{"biases":[-0.6513407538000184,-5.180858747079919,-1.2655113750198372,8.502091315740197,0.20014036921997574,-10.929729954479862,-3.7704261691400474,-6.435520353899992],"activation_ref":"sigmoid"},{"biases":[2.515529850060249,0.6322106345000353],"activation_ref":"sigmoid"}],"connection_layers":[{"input_size":8,"output_size":2,"weights":[[-0.6233973698799432,2.3390743004000867],[2.2347040457801817,4.765248160700099],[-14.272122312939999,-4.386764630059866],[10.5786593086402,-7.552106010719931],[8.7667801976401,-2.972741294719874],[3.583672890520097,0.18212113064027938],[-9.243978895139898,-2.6471375556798526],[-10.987388938559842,4.982884993979969]],"dyn_weights":[[-11.576167272200205,12.471989020219878],[-1.3240795894799842,-3.0761594157600785],[-3.1819303005400648,-4.633157513179931],[4.6248140089800325,0.13518870957994902],[0.1894745578598399,-6.6189752363599235],[5.238482010060123,1.0775854838400034],[-19.542111980340426,-2.481530174720051],[3.092815555139929,-1.4831306603598742]]}]},"type_":"predator","pos":[387.95914937971713,274.4525239917312],"orientation":58.516020346161746,"health":0.6000382,"energy_copy":0.0,"age":22.220099999999988,"gen":363967,"fitness":0.0},"416514717":{"nn":{"node_layers":[{"biases":[-0.6415876852800185,-5.169789000999918,-1.2754289700998374,8.465863294740195,0.19662881029997575,-10.944345252119863,-3.7553332355800473,-6.484997935979993],"activation_ref":"sigmoid"},{"biases":[2.4558590439402495,0.6613002956200353],"activation_ref":"sigmoid"}],"connection_layers":[{"input_size":8,"output_size":2,"weights":[[-0.6608718293999433,2.2878470960400867],[2.2140591342601823,4.7791746529001],[-14.256988684499998,-4.371891532259866],[10.5616208711602,-7.547153595719932],[8.7680440166001,-2.9220291003198744],[3.5439644638000973,0.1965646218802794],[-9.238320243019897,-2.5885134874798523],[-10.93528210543984,4.982607814419968]],"dyn_weights":[[-11.564685618040206,12.518565069899878],[-1.337522992279984,-3.0796973988000786],[-3.217283247700065,-4.649526739139931],[4.626685202780033,0.162458047059949],[0.21481571413983988,-6.606954408399924],[5.254771209060122,1.0404294878400036],[-19.564451870620427,-2.4654642564000513],[3.0855118583799293,-1.4602823843598742]]}]},"type_":"predator","pos":[641.1920872978734,342.34814894046673],"orientation":267.3036346077625,"health":0.6882964840000004,"energy_copy":0.0,"age":17.316861999999983,"gen":363967,"fitness":0.0},"416514552":{"nn":{"node_layers":[{"biases":[17.8444124960202,0.20860338092039882,-0.6387667588200483,-1.0203502340800075,25.054480038500053,0.9064619675800781,-1.5991544787799656,6.720796903120774],"activation_ref":"sigmoid"},{"biases":[6.357588510659829,7.669510638900334],"activation_ref":"sigmoid"}],"connection_layers":[{"input_size":8,"output_size":2,"weights":[[1.8171756765795546,37.09292161911914],[-14.345441065019997,-33.36913838738119],[34.61943803262123,11.739092771781149],[-3.898133445879062,35.762693088860615],[11.784790549779853,-1.484720949799522],[16.718516180400783,-22.942223793080068],[8.106223385100783,4.290128792400409],[10.754941787920623,-14.568094411579787]],"dyn_weights":[[-12.673920070219793,-29.560165753019444],[1.5777174699800935,5.153890272460402],[-1.0132233349400985,1.8194750615399697],[22.837270193779514,2.4788482570002697],[-3.9207094598005647,-1.7995679347200544],[-21.183412491280333,1.3758122457004838],[-12.938009726079814,-5.978052697319874],[4.422865300940416,18.272830174541372]]}]},"type_":"prey","pos":[822.5247016190859,451.1069182245865],"orientation":25.364469807019283,"health":1.0,"energy_copy":6.563584749999999,"age":52.50867799999999,"gen":1492437,"fitness":52.50867799999999},"416514589":{"nn":{"node_layers":[{"biases":[17.8290442519002,0.3104563958003989,-0.6326145874600481,-1.0977581741600067,24.921261583340055,0.9768926483400779,-1.6487365437799655,6.774346787760774],"activation_ref":"sigmoid"},{"biases":[6.420651296979831,7.522826911780337],"activation_ref":"sigmoid"}],"connection_layers":[{"input_size":8,"output_size":2,"weights":[[1.8348270626595544,37.06209898155913],[-14.32408784114,-33.36522058210118],[34.68166267710123,11.677906557581153],[-3.7494469381190623,35.76840782842064],[11.91168465445985,-1.5529961208395224],[16.77128439336078,-22.927419347680072],[8.04017411470078,4.227865647320408],[10.661384039720625,-14.57429631765979]],"dyn_weights":[[12.554692596339796,-29.54610152369944],[1.6711803917800936,5.132617427060404],[-1.0820966793400986,1.7340229396599691],[-22.781079300739513,2.55018417108027],[-3.9340160059605656,-1.9033721956000544],[21.089435918720326,1.292557826180484],[-12.915515123039818,-6.029592528839875],[4.558756201020418,18.214412275941363]]}]},"type_":"prey","pos":[754.4811237244326,260.9668591077781],"orientation":-235.67908317253742,"health":1.0,"energy_copy":5.469644124999995,"age":43.75715299999996,"gen":1492438,"fitness":43.75715299999996},"416514767":{"nn":{"node_layers":[{"biases":[-0.6928462032000186,-5.205063380359917,-1.3228646229398373,8.532656486620198,0.27024126817997574,-10.968596165519862,-3.7586938925800473,-6.486012522139992],"activation_ref":"sigmoid"},{"biases":[2.4791670890202497,0.6829408415800353],"activation_ref":"sigmoid"}],"connection_layers":[{"input_size":8,"output_size":2,"weights":[[-0.6525670847199433,2.2461963679200867],[2.189540744420181,4.736336716900099],[-14.188426353859999,-4.3599955483398665],[10.6156221360802,-7.580438083439932],[8.7773747065601,-2.903370928439874],[3.551553281520097,0.16384718380027938],[-9.250398172859896,-2.671394536999853],[-10.990944838479841,4.923190388099967]],"dyn_weights":[[11.588973911640208,12.494854126819874],[-1.373421311119984,-3.0554563247600783],[-3.2299343077400637,-4.710482469699931],[4.618846609900033,-0.14450044361994904],[-0.26520619205983986,-6.5991746144399235],[-5.282564344700124,1.0809934322400032],[-19.56053210674043,-2.507092251440051],[3.0870569064199285,-1.4330690060798743]]}]},"type_":"predator","pos":[22.516236590197124,412.7807642951642],"orientation":62.46096064447973,"health":0.8546578659999999,"energy_copy":0.0,"age":8.074563,"gen":363966,"fitness":0.0},"416514741":{"nn":{"node_layers":[{"biases":[-0.6460849700800185,-5.181271428719918,-1.2775392511398374,8.466273975820195,0.22073221025997575,-10.941220407159863,-3.7811510549400476,-6.494462061939993],"activation_ref":"sigmoid"},{"biases":[2.477382741260249,0.6478930167000354],"activation_ref":"sigmoid"}],"connection_layers":[{"input_size":8,"output_size":2,"weights":[[-0.6607728219999432,2.3121203850800867],[2.229215003940182,4.775613515580099],[-14.220628971139998,-4.354163904539866],[10.597083670640199,-7.575149089879932],[8.7935790648401,-2.937344331399874],[3.532289168440097,0.1880804332402794],[-9.219453813819898,-2.6015477428398524],[-10.937269801279841,5.005600797579968]],"dyn_weights":[[-11.557243216280206,12.522155409779877],[-1.3317040692799842,-3.0824695481200783],[-3.229305800300065,-4.635438398419931],[4.646991756540032,0.132585629179949],[0.1951527855798399,-6.637446219959924],[5.252894361420123,1.0279413754800035],[-19.568315521700427,-2.460428566800051],[3.0699482065399293,-1.476631104279874]]}]},"type_":"predator","pos":[657.0803875488384,633.5663619548272],"orientation":100.18356913152806,"health":0.7732862559999999,"energy_copy":0.0,"age":12.595208000000001,"gen":363967,"fitness":0.0},"416514642":{"nn":{"node_layers":[{"biases":[-0.6404055555600184,-5.146904287039918,-1.2766174234198373,8.506841774660197,0.22143602365997575,-10.942207492719863,-3.7529889183400473,-6.439502519139992],"activation_ref":"sigmoid"},{"biases":[2.4834120554602492,0.6426331206200354],"activation_ref":"sigmoid"}],"connection_layers":[{"input_size":8,"output_size":2,"weights":[[-0.6273182162399432,2.3272574418000866],[2.234447653620182,4.759957823820099],[-14.273161007379999,-4.376486687819866],[10.6058104924402,-7.536605577279931],[8.7668431603601,-2.982407815839874],[3.5730958230000973,0.1907243250002794],[-9.222097455019897,-2.6374352442398523],[-10.997858945879843,5.001282779179968]],"dyn_weights":[[-11.573044936440205,12.496785917859878],[-1.3203373489599841,-3.0829925572000785],[-3.206734888060065,-4.618584099499931],[4.644062176060032,0.11622852593994902],[0.1817546641798399,-6.6456283486799235],[5.240281583100123,1.0766029577600036],[-19.536865823780428,-2.483756671680051],[3.071400796659929,-1.4618401967998742]]}]},"type_":"predator","pos":[134.5350143210181,735.6643015454852],"orientation":210.15776957995288,"health":0.35665602399999957,"energy_copy":0.0,"age":35.741331999999986,"gen":363967,"fitness":0.0},"416514643":{"nn":{"node_layers":[{"biases":[-0.6419205293600184,-5.176693502239918,-1.2578758045798373,8.496376526140196,0.20413271153997575,-10.914283455599863,-3.7488879383800473,-6.439663336819993],"activation_ref":"sigmoid"},{"biases":[2.5197878027802494,0.6317922881400354],"activation_ref":"sigmoid"}],"connection_layers":[{"input_size":8,"output_size":2,"weights":[[-0.6348647512799431,2.3248967278000867],[2.250958633180182,4.770292380260099],[-14.276561376339998,-4.3792503953398665],[10.6032473593202,-7.560704086759931],[8.7476374415201,-2.976124117039874],[3.573999682080097,0.18970285100027937],[-9.209957923979898,-2.6204508827198527],[-10.980441860879843,5.004111384219969]],"dyn_weights":[[-11.542124391040206,12.461633668419877],[-1.344301165159984,-3.0632220350800785],[-3.208784247620065,-4.622286659099932],[4.615325858460032,0.132750625819949],[0.1706001602198399,-6.645655064199923],[5.249457177580123,1.0804873271600035],[-19.56178555922043,-2.4605829684000513],[3.054532869859929,-1.4776800773598742]]}]},"type_":"predator","pos":[369.3706166796564,950.4126218656527],"orientation":198.63727099611575,"health":0.5097994480000002,"energy_copy":1.0,"age":35.42495299999998,"gen":363967,"fitness":1.0},"416514621":{"nn":{"node_layers":[{"biases":[-0.6575059595200184,-5.176332192679918,-1.2672576940198372,8.483380797860196,0.22606150485997575,-10.928704663999863,-3.7544576050600473,-6.461338587499993],"activation_ref":"sigmoid"},{"biases":[2.512044049780249,0.6206282977800354],"activation_ref":"sigmoid"}],"connection_layers":[{"input_size":8,"output_size":2,"weights":[[-0.6204297890799432,2.3224389104400864],[2.2393812228201817,4.7541904397801],[-14.29004510798,-4.394263321419866],[10.5792379315202,-7.566605667639931],[8.7533436393201,-2.955822924879874],[3.592233908480097,0.20448446456027938],[-9.238811189659899,-2.6283325266398525],[-10.986133613519842,4.998657062059968]],"dyn_weights":[[-11.561047568600205,12.496989243299877],[-1.3229946138799842,-3.0553689229600782],[-3.185469378060065,-4.655437942019931],[4.634598815100032,0.14591304093994903],[0.18287603385983991,-6.631584443439923],[5.244054650820123,1.0865775068800034],[-19.558622248540427,-2.4809054328000513],[3.058984491699929,-1.4654040957598742]]}]},"type_":"predator","pos":[892.6918508142069,177.00384684497004],"orientation":66.40629856084684,"health":0.8272154079999998,"energy_copy":5.0,"age":40.063413999999966,"gen":363967,"fitness":5.0},"416514267":{"nn":{"node_layers":[{"biases":[-0.6667324338400185,-5.179338900359918,-1.2929626211798373,8.483157069460196,0.23137907453997575,-10.888521472359864,-3.778556194140047,-6.4412156339399935],"activation_ref":"sigmoid"},{"biases":[2.4715951861802496,0.6622588059400353],"activation_ref":"sigmoid"}],"connection_layers":[{"input_size":8,"output_size":2,"weights":[[-0.6407743230799434,2.338299289120086],[2.2991831327801817,4.7578137409801],[-14.248442891939996,-4.3810932552598665],[10.5651899523602,-7.623233465359931],[8.801192253120098,-2.9057136031598745],[3.4989797285200974,0.1785060728402794],[-9.193886862499895,-2.6230179096798527],[-10.95373667783984,5.006979647459967]],"dyn_weights":[[-11.569181908640205,12.509359802139876],[-1.372278658319984,-3.0344328737200783],[-3.1946181089800647,-4.6569332077399315],[4.599542173900033,0.166559557979949],[0.23110480821983992,-6.612065268879924],[-5.2901181114201234,1.0857838092400036],[-19.572169619140425,-2.4614734857600507],[3.0361991583399286,-1.5351648807198743]]}]},"type_":"predator","pos":[621.2408352116695,337.57326183596837],"orientation":-99.38187959732309,"health":0.3155211359999992,"energy_copy":5.0,"age":107.47104800000005,"gen":363966,"fitness":5.0},"416514690":{"nn":{"node_layers":[{"biases":[-0.6689944830000184,-5.157100293759918,-1.2763432822998373,8.483771238700196,0.21373710141997576,-10.907216083199863,-3.7696954119400474,-6.442260867099993],"activation_ref":"sigmoid"},{"biases":[2.5208319703802493,0.6494789924600354],"activation_ref":"sigmoid"}],"connection_layers":[{"input_size":8,"output_size":2,"weights":[[-0.6030523857999431,2.3198793144400867],[2.261548750180182,4.754839937220099],[-14.256939319859999,-4.366274452139866],[10.6104190833602,-7.553994651079932],[8.7410027232801,-2.984917073279874],[3.554988145880097,0.18104351840027938],[-9.214893642139897,-2.6233201760398526],[-10.981414815359843,4.986009340459969]],"dyn_weights":[[-11.562474070840205,12.463172573059877],[-1.3335325346799842,-3.0859337125200783],[-3.183780950300065,-4.650119996939932],[4.6433168487800325,0.147640103059949],[0.1581886554198399,-6.611731318639923],[5.274841515540123,1.0818230207600035],[-19.570382014020428,-2.4534989236400513],[3.077332324139929,-1.4829256952798742]]}]},"type_":"predator","pos":[159.05373877128287,98.36202969866557],"orientation":350.25579341952005,"health":0.545962888,"energy_copy":0.0,"age":25.224283999999997,"gen":363967,"fitness":0.0},"416514471":{"nn":{"node_layers":[{"biases":[-0.6441716474800184,-5.1901195572799175,-1.3217928754598371,8.494087884500194,0.19254877993997574,-10.878977857999862,-3.766639290300047,-6.450286869099993],"activation_ref":"sigmoid"},{"biases":[2.4596863895402494,0.6422606002200354],"activation_ref":"sigmoid"}],"connection_layers":[{"input_size":8,"output_size":2,"weights":[[-0.6514216539999433,2.341093376600086],[2.247214733740181,4.7325409998601],[-14.267329719219997,-4.382906453499866],[10.572249818240198,-7.601953430319932],[8.740036453240098,-2.865736969479874],[3.518996325800097,0.16035942628027938],[-9.170505284659896,-2.6243895597198525],[-10.972265105839842,4.967716868779967]],"dyn_weights":[[-11.564176036080204,12.495399599819876],[-1.3967212991199842,-3.0299649619200784],[-3.178515670540065,-4.673202799299932],[4.584375280820033,-0.151816600259949],[0.23680150869983993,-6.619082420079923],[-5.287676430300124,1.0506740232800038],[-19.594679009660428,-2.4452411047600506],[3.0525260929799285,-1.5271571059198743]]}]},"type_":"predator","pos":[92.73105195200702,687.8463185940623],"orientation":229.99692628641205,"health":0.008596682000000537,"energy_copy":1.0,"age":68.96685099999996,"gen":363966,"fitness":1.0},"416514549":{"nn":{"node_layers":[{"biases":[-0.6867681269600185,-5.185273707479917,-1.3188742523398371,8.506987622740196,0.24337654613997572,-10.944814349079863,-3.7367238315800475,-6.4663352970999926],"activation_ref":"sigmoid"},{"biases":[2.4669844018602496,0.6948830445000354],"activation_ref":"sigmoid"}],"connection_layers":[{"input_size":8,"output_size":2,"weights":[[-0.6509036941199433,2.2449230978800867],[2.191940905580181,4.747707112580099],[-14.153826266539998,-4.380094952019867],[10.5637586387202,-7.557670611319932],[8.779764678280099,-2.9370189721198745],[3.538658321880097,0.19600505852027936],[-9.275093367819894,-2.641967054599853],[-10.99068662347984,4.9379835295399666]],"dyn_weights":[[-11.58494756172021,12.485226833659874],[-1.3971900131999841,-3.047589472720078],[-3.201390867460064,-4.719471265259931],[4.582033727460033,0.151971171099949],[-0.2174117684998399,-6.621607951359923],[-5.296680354460124,1.0927843342800034],[-19.59597889838043,-2.489724591680051],[3.0646613582999285,-1.4482997591198743]]}]},"type_":"predator","pos":[33.30274608754953,380.1731918655375],"orientation":167.1870313157289,"health":0.5419389839999991,"energy_copy":2.0,"age":53.22561199999999,"gen":363966,"fitness":2.0},"416514380":{"nn":{"node_layers":[{"biases":[17.7554320485002,0.22335088960039876,-0.6629571023800482,-1.0382908374800073,25.03586099850005,0.933212597140078,-1.577277356779966,6.806874349120775],"activation_ref":"sigmoid"},{"biases":[6.31758722877983,7.685744358220337],"activation_ref":"sigmoid"}],"connection_layers":[{"input_size":8,"output_size":2,"weights":[[1.8274548949795548,37.07101377255913],[-14.321362263500001,-33.33238487762117],[34.645738890261235,11.803937926341149],[-3.9135989665990625,35.770895929940636],[11.860555081179854,-1.4710279031995224],[16.80496466736078,-22.906835479080065],[8.032656763380782,4.264668355960408],[10.701226644040624,-14.546338290379786]],"dyn_weights":[[12.616064255939797,-29.585773030859432],[-1.5647441076200936,5.209979076740403],[0.9647219865800982,1.8447396704199697],[22.890504538859513,2.5365331904402697],[-3.915143439400565,-1.8082476818000546],[-21.142414036280332,1.3538838924204841],[-12.955391880199816,-5.939576901999873],[-4.508302093660419,18.194647489461378]]}]},"type_":"prey","pos":[592.0856791320535,276.1063735910034],"orientation":-78.34058829534858,"health":1.0,"energy_copy":0.5773240000000021,"age":84.61859200000002,"gen":1492435,"fitness":84.61859200000002},"416514548":{"nn":{"node_layers":[{"biases":[-0.7008707234800186,-5.201407769039917,-1.309230871499837,8.483406237460196,0.22128954065997572,-10.967948454679863,-3.752456123780047,-6.450827914419993],"activation_ref":"sigmoid"},{"biases":[2.4708770381402494,0.6662403362200354],"activation_ref":"sigmoid"}],"connection_layers":[{"input_size":8,"output_size":2,"weights":[[-0.6507028245999433,2.2629983918400867],[2.160576651980181,4.7312333705400995],[-14.156412609899999,-4.375411503339867],[10.5634823767602,-7.525649676839933],[8.781949819760099,-2.930256497679874],[3.563959509160097,0.17221642284027935],[-9.273599262259895,-2.6263468057998525],[-10.98873975951984,4.9342697804999665]],"dyn_weights":[[-11.57575530668021,12.491531979699875],[-1.4027178202399841,-3.058138032080078],[-3.229285776340064,-4.720331825459931],[4.618561277100033,0.15461904801994902],[-0.2082476452198399,-6.612655155959923],[-5.309069465300124,1.1083386449600034],[-19.60070192458043,-2.489325163040051],[3.0748320553799284,-1.4464006223998742]]}]},"type_":"predator","pos":[536.7729942500797,420.801386691204],"orientation":87.02439410116662,"health":0.03663130599999921,"energy_copy":0.0,"age":53.52048299999999,"gen":363966,"fitness":0.0},"416514773":{"nn":{"node_layers":[{"biases":[17.7846748169002,0.2603273054403987,-0.6546150273800483,-1.0360528335200072,25.043598049820048,0.9045138554600779,-1.5641208008599659,6.803291602240774],"activation_ref":"sigmoid"},{"biases":[6.335990760659831,7.655450545740337],"activation_ref":"sigmoid"}],"connection_layers":[{"input_size":8,"output_size":2,"weights":[[1.858797989979555,37.044224094159134],[-14.319972751460003,-33.34835684210118],[34.57582351186122,11.80220895906115],[-3.9245228150790625,35.76699109386064],[11.783873282099853,-1.4705380103995223],[16.799139560640786,-22.910432105800066],[7.989793727980782,4.230134078560409],[10.697540811640625,-14.549835682659785]],"dyn_weights":[[12.632963029939797,-29.608255782659434],[-1.5704267147000937,5.204403984540403],[0.9839812061400983,1.8304852703399697],[22.86833127481951,2.52154049568027],[-3.957877996120565,-1.8216248144400544],[-21.16462477344033,1.355893342220484],[-12.946507523799815,-5.945419961039873],[4.455333416820419,18.190707905781377]]}]},"type_":"prey","pos":[151.6758044874322,633.8839403889812],"orientation":-46.1238886518756,"health":1.0,"energy_copy":0.577104625,"age":4.616837,"gen":1492436,"fitness":4.616837},"416514745":{"nn":{"node_layers":[{"biases":[17.8819396169802,0.24549078880039885,-0.6433369380200481,-1.1031661639600068,25.005431801340052,0.9625591804600779,-1.5820358064999658,6.719799898360774],"activation_ref":"sigmoid"},{"biases":[6.387223590539832,7.527878613140336],"activation_ref":"sigmoid"}],"connection_layers":[{"input_size":8,"output_size":2,"weights":[[1.7607841439795544,37.07087606795914],[-14.378484281259999,-33.39717890630118],[34.686600596501236,11.640775458381151],[-3.737394017159062,35.73040565546063],[11.821874641219852,-1.6016175517595226],[16.707951862320783,-22.850343453800075],[8.06550189610078,4.151400994360408],[10.671582487360622,-14.508572739419789]],"dyn_weights":[[-12.637839472739797,-29.538761579579432],[1.6509574590200937,5.221312206460404],[1.0605306279400983,1.7911874710999696],[-22.79655603057952,2.55116053764027],[-3.9365345471205666,-1.9584473262000548],[-21.098242563800333,1.3050343549804837],[-12.880207672919816,-6.0357759813198735],[4.549747591180418,18.14999032198136]]}]},"type_":"prey","pos":[675.6537482519152,429.31338288504224],"orientation":-174.59745439388888,"health":1.0,"energy_copy":1.5258223750000004,"age":12.206579000000003,"gen":1492438,"fitness":12.206579000000003},"416514336":{"nn":{"node_layers":[{"biases":[-0.6710287228000185,-5.163918539559918,-1.3161134086998372,8.475488214020194,0.24580059249997574,-10.930405314239861,-3.7578291575000473,-6.488648065779993],"activation_ref":"sigmoid"},{"biases":[2.49886635150025,0.6760362913400355],"activation_ref":"sigmoid"}],"connection_layers":[{"input_size":8,"output_size":2,"weights":[[-0.6482039592399432,2.3190359813200865],[2.2067841598201814,4.7600665571000995],[-14.226388833699998,-4.352544679259867],[10.544115580480197,-7.606600792439932],[8.7897271325601,-2.950828419119874],[3.4813402490400973,0.16736355560027935],[-9.216690263699897,-2.6580237907998527],[-10.99609551131984,4.942587780539968]],"dyn_weights":[[-11.581271502280206,12.529982611939875],[-1.338497766159984,-3.0746807678400785],[-3.231621445460065,-4.680212531459931],[4.5911975621000325,0.100449607299949],[0.20561390669983987,-6.632138603239924],[-5.289414122220124,1.0730677520000038],[-19.59189792662043,-2.5289422816800506],[3.0801180157399286,-1.4988387630398743]]}]},"type_":"predator","pos":[983.2644704642919,76.00008632236352],"orientation":141.2778538541058,"health":0.6393414260000001,"energy_copy":6.0,"age":92.01628100000005,"gen":363966,"fitness":6.0},"416514238":{"nn":{"node_layers":[{"biases":[17.856392352420198,0.25351201472039886,-0.659250927940048,-1.1132603302800068,24.965325208220055,0.970206607060078,-1.6404916876199656,6.732914559800774],"activation_ref":"sigmoid"},{"biases":[6.416565233259831,7.530530193420336],"activation_ref":"sigmoid"}],"connection_layers":[{"input_size":8,"output_size":2,"weights":[[1.7846554896195543,37.05671046743914],[-14.295085869140001,-33.321100006181176],[34.70079571586123,11.688242506301153],[-3.7808653145990623,35.777058405540636],[11.87546470237985,-1.5300551564395224],[16.777578589400783,-22.911866603480068],[8.056088307540781,4.218972421040409],[10.685103815840625,-14.577484144379788]],"dyn_weights":[[-12.586326015059795,-29.53516746997944],[1.6514582699400937,5.133219657940403],[1.1055972467000987,1.765496955419969],[-22.816968166619514,2.49610799644027],[-3.9440884016005655,-1.9469719213200547],[21.042131797520327,1.302799788460484],[12.877641688439818,-6.032424110239876],[4.541567678300417,18.192176352021363]]}]},"type_":"prey","pos":[218.42461838004684,265.1045395610727],"orientation":-138.0554228800144,"health":1.0,"energy_copy":0.6734528749999935,"age":117.38762300000002,"gen":1492437,"fitness":117.38762300000002},"416514694":{"nn":{"node_layers":[{"biases":[17.727259974700196,0.24554494464039878,-0.6668945323000482,-0.9902197822000075,25.030093436460053,0.888258633620078,-1.5626669049399657,6.803381937440773],"activation_ref":"sigmoid"},{"biases":[6.340958089699831,7.624951723700336],"activation_ref":"sigmoid"}],"connection_layers":[{"input_size":8,"output_size":2,"weights":[[1.8486612398595548,37.029429333759126],[-14.371956721100002,-33.35101339746117],[34.62470830454123,11.737146449661148],[-3.8481333529590622,35.72729794802064],[11.819769516339852,-1.4611859072795224],[16.82783418396078,-22.94158178848007],[8.053007699460782,4.297852278480408],[10.678944568080624,-14.503007306419782]],"dyn_weights":[[12.614408784819794,-29.583571110659435],[-1.5725988367000936,5.206066400660402],[0.9344255279000983,1.8558426919799698],[22.940441589899514,2.53171455924027],[-3.8470335609605644,-1.8177088550800544],[21.165765093960335,1.366480729260484],[-12.903476610359817,-5.984028930759875],[4.505693176940419,18.209625884501374]]}]},"type_":"prey","pos":[998.5389789730621,622.4056349315019],"orientation":-260.7174992017339,"health":1.0,"energy_copy":3.010292249999999,"age":24.082337999999993,"gen":1492438,"fitness":24.082337999999993},"416514653":{"nn":{"node_layers":[{"biases":[-0.6659428544800184,-5.147948723559918,-1.2566626172998372,8.479750861540197,0.20739674453997575,-10.917224866439863,-3.7470932672200474,-6.473098268459993],"activation_ref":"sigmoid"},{"biases":[2.4837578423402493,0.6382038849000353],"activation_ref":"sigmoid"}],"connection_layers":[{"input_size":8,"output_size":2,"weights":[[-0.6331432797999432,2.3242221296800865],[2.2301657473401817,4.7770250027001],[-14.265681835139999,-4.377324796579866],[10.594111951240201,-7.566660960519931],[8.7600075964001,-2.962626014999874],[3.582377816120097,0.20049736224027936],[-9.215831858899898,-2.6355487391198524],[-10.964860977199843,4.996742387779968]],"dyn_weights":[[-11.550742591920205,12.497692720179877],[-1.3413855833599841,-3.0860008981600786],[-3.189440262740065,-4.6559579872999315],[4.619753277980032,0.13829210005994902],[0.1600251836998399,-6.612288285559924],[5.268082921780123,1.0658967511600035],[-19.575797860340426,-2.453906956360051],[3.061965014179929,-1.4813190997998742]]}]},"type_":"predator","pos":[813.0318104031832,497.86891969854645],"orientation":224.5406757875564,"health":0.5053407940000002,"energy_copy":1.0,"age":33.50853999999999,"gen":363967,"fitness":1.0},"416514428":{"nn":{"node_layers":[{"biases":[-0.6719427717600185,-5.195559505199917,-1.3036635671798371,8.524960761460195,0.18798864065997575,-10.895087521759862,-3.7825309993800476,-6.456001968219993],"activation_ref":"sigmoid"},{"biases":[2.4626316635402494,0.6415240651000353],"activation_ref":"sigmoid"}],"connection_layers":[{"input_size":8,"output_size":2,"weights":[[-0.6383577056799434,2.3046700160400864],[2.2351512150201813,4.7614903802201],[-14.245388973299997,-4.384011298579867],[10.5685988226402,-7.5938079012399315],[8.770985298160099,-2.8691182167198743],[3.5507389581600974,0.14064937564027938],[-9.187533004579896,-2.6344239439598525],[-10.95269214515984,4.975014081379967]],"dyn_weights":[[-11.597112019800203,12.509796687739875],[-1.3890795367999842,3.0421355602400784],[-3.194497320780065,-4.643560627259932],[4.582071471660032,-0.16453549513994903],[0.23189086889983992,-6.646651654679923],[-5.292947028500123,1.0514377164000037],[-19.573119721460426,-2.435611697880051],[3.0497726725799286,-1.5286951891198743]]}]},"type_":"predator","pos":[435.80089417273444,997.1952965842048],"orientation":14.555416342196516,"health":0.13054837199999977,"energy_copy":2.0,"age":76.08064600000003,"gen":363966,"fitness":2.0},"416514751":{"nn":{"node_layers":[{"biases":[17.8287718463002,0.24218246040039884,-0.6356951918600481,-1.1445231584000068,24.99556952170005,0.962183620300078,-1.5902391752199658,6.752386607360774],"activation_ref":"sigmoid"},{"biases":[6.426516182899831,7.528836902980336],"activation_ref":"sigmoid"}],"connection_layers":[{"input_size":8,"output_size":2,"weights":[[1.7847375651395545,37.11121968155914],[-14.37142393822,-33.401038875701175],[34.68334169498124,11.64209139526115],[-3.7479120256790615,35.73463756642063],[11.832783462899851,-1.5820951649195225],[16.694356301320784,-22.866187231360076],[8.05069841826078,4.138392457960408],[10.684066946640623,-14.53837769425979]],"dyn_weights":[[-12.632516169459798,-29.53924792613943],[1.6260345709800936,5.177243505900403],[1.0519501328200984,1.7709192711399693],[-22.79843998037952,2.53541989716027],[-3.9364275096405663,-1.9729747133600546],[-21.115883005320335,1.2886819308604838],[-12.907158942199818,-6.054750051519874],[-4.533858166500418,18.12297987014136]]}]},"type_":"prey","pos":[556.2683180654752,432.6192274763406],"orientation":-336.5621770466282,"health":1.0,"energy_copy":1.4063050000000004,"age":11.250440000000003,"gen":1492438,"fitness":11.250440000000003},"416514452":{"nn":{"node_layers":[{"biases":[-0.6519977845200184,-5.166786914239917,-1.3120385028598371,8.517464877980194,0.19571546101997575,-10.904828853159863,-3.7650231721800473,-6.445701560019993],"activation_ref":"sigmoid"},{"biases":[2.4655202271002494,0.6722072510600353],"activation_ref":"sigmoid"}],"connection_layers":[{"input_size":8,"output_size":2,"weights":[[-0.6484483059199434,2.311731788160086],[2.2399523366601812,4.7266762455401],[-14.259587941459998,-4.386183660939866],[10.5792586830002,-7.585266733439932],[8.772702161320098,-2.8745849925998743],[3.5414725025200973,0.15845091192027938],[-9.165257474259896,-2.6174629169598522],[-10.95870824707984,4.974072056539967]],"dyn_weights":[[-11.587653683040203,12.508923255259875],[1.3826162246399842,-3.0289778373600784],[-3.183397807300065,-4.639267164459932],[4.5886550368200325,-0.15973994253994903],[0.24303669917983992,-6.620613359599924],[-5.293474953940123,1.0420451661600036],[-19.57701917854043,-2.4469411248800506],[3.0751165776199283,-1.5187827709998742]]}]},"type_":"predator","pos":[930.3033757174313,165.64927454132396],"orientation":94.90291696525478,"health":0.8197216299999999,"energy_copy":12.0,"age":72.428115,"gen":363966,"fitness":12.0},"416514145":{"nn":{"node_layers":[{"biases":[-0.6770536281600185,-5.156988040239917,-1.2685166382998372,8.508062759820195,0.22308926693997577,-10.893213902079863,-3.7402737943800473,-6.437380326299993],"activation_ref":"sigmoid"},{"biases":[2.4775930029802495,0.6777259229400353],"activation_ref":"sigmoid"}],"connection_layers":[{"input_size":8,"output_size":2,"weights":[[-0.6657672921999434,2.3309753188000863],[2.242087848940181,4.7569824633800994],[-14.249613900139998,-4.3670567937798666],[10.570817807120198,-7.620730594839931],[8.7523098521201,-2.9040128010398747],[3.5410626857200977,0.21009416224027935],[-9.175930147019896,-2.6234097458398526],[-10.992747810639841,4.963804046939967]],"dyn_weights":[[-11.557204161160204,12.497348262499875],[-1.3549775333599843,-3.0645785528800786],[-3.1911480843400644,-4.640066043499933],[4.591066487460033,0.15083265809994903],[0.22193631449983992,-6.6174657262799235],[-5.2984463096201235,1.0512039843600036],[-19.60609682490043,-2.470458515520051],[3.0380756056999285,-1.5061820422798742]]}]},"type_":"predator","pos":[24.88640901317006,591.2646929262847],"orientation":136.36000221415452,"health":0.5637890699999986,"energy_copy":13.0,"age":138.40515199999987,"gen":363966,"fitness":13.0},"416514650":{"nn":{"node_layers":[{"biases":[17.7951982615802,0.2512519276003988,-0.6617275553400482,-1.0688353696400072,25.056766074860047,0.905353845140078,-1.568266322899966,6.804397331040775],"activation_ref":"sigmoid"},{"biases":[6.34179027369983,7.622872350260336],"activation_ref":"sigmoid"}],"connection_layers":[{"input_size":8,"output_size":2,"weights":[[1.846381645059555,37.04349735907913],[-14.360071389740003,-33.33546925782118],[34.60064084802123,11.778406703061151],[-3.939418198599063,35.71510836882064],[11.808368887659853,-1.4554373213995224],[16.809273573600784,-22.91266612348007],[8.046385509740784,4.255272847000409],[10.726133407800624,-14.577566631379785]],"dyn_weights":[[12.633992550179798,-29.584747765939433],[-1.5332071385000936,5.242518602660403],[0.9635074496600984,1.8285605265399696],[22.90447923493951,2.53952996584027],[-3.9144670389605647,-1.8315249218800544],[-21.15842477172033,1.3658208454604839],[-12.939100829919814,-5.958116155959873],[4.469814124620418,18.225176799221376]]}]},"type_":"prey","pos":[926.5260415299537,978.0421935471131],"orientation":-106.53723847752877,"health":1.0,"energy_copy":4.204872999999998,"age":33.63898399999999,"gen":1492436,"fitness":33.63898399999999},"416514747":{"nn":{"node_layers":[{"biases":[17.862664944100203,0.27175485744039884,-0.6398928523400481,-1.1330113766400067,24.984549143340054,0.964221573780078,-1.5595882010999658,6.743584056880774],"activation_ref":"sigmoid"},{"biases":[6.386229980139832,7.535140138340336],"activation_ref":"sigmoid"}],"connection_layers":[{"input_size":8,"output_size":2,"weights":[[1.7915877444995545,37.066599688559144],[-14.381166553379998,-33.42449764758118],[34.68831448806124,11.62826002122115],[-3.7607359757590615,35.72152872154063],[11.826209633019852,-1.6209744778795225],[16.70502960624078,-22.858548279920075],[8.05202123306078,4.124616889240408],[10.657775254600622,-14.48992602629979]],"dyn_weights":[[-12.621722482259797,-29.550313703459434],[1.6469059651800937,5.207454933220403],[1.0644908841400984,1.7827752433399695],[-22.79653375773952,2.55037166036027],[-3.9399411893605665,-1.9544243379600548],[-21.119621871360334,1.3006892725804835],[-12.908411112479817,-6.050944297039874],[4.538970121500418,18.159556750781363]]}]},"type_":"prey","pos":[602.6678667868573,427.5876707614988],"orientation":-93.70421145422122,"health":1.0,"energy_copy":1.4863992500000005,"age":11.891194000000004,"gen":1492438,"fitness":11.891194000000004},"416514769":{"nn":{"node_layers":[{"biases":[-0.6781798192800185,-5.176281755279917,-1.3038552939798373,8.518065354220196,0.28522869465997575,-10.952451625919862,-3.7552332291400474,-6.485923276699992],"activation_ref":"sigmoid"},{"biases":[2.4715105436202496,0.6970639422600353],"activation_ref":"sigmoid"}],"connection_layers":[{"input_size":8,"output_size":2,"weights":[[-0.6429166011599433,2.2560971680000868],[2.183772260780181,4.743455081140099],[-14.192682616059997,-4.373933476379866],[10.5888733547202,-7.584107589039932],[8.7873169911201,-2.9134123859998744],[3.5569191109600973,0.18538486080027938],[-9.272119474219895,-2.648663601519853],[-10.98039574271984,4.924816914499967]],"dyn_weights":[[11.583882844280208,12.507743058859875],[-1.369849411159984,-3.0491544968800786],[-3.2250255979400637,-4.696553109979932],[4.618159651060033,0.13686438149994903],[-0.24397053593983986,-6.6143648233599235],[-5.300279705500124,1.0636148979600033],[-19.55939877738043,-2.496473333040051],[3.0617808507399285,-1.4243755956798743]]}]},"type_":"predator","pos":[0.4968747802314786,585.2415209890316],"orientation":160.93114160122954,"health":0.8708046580000001,"energy_copy":0.0,"age":7.177519000000001,"gen":363966,"fitness":0.0},"416514639":{"nn":{"node_layers":[{"biases":[17.7622741063802,0.24660761320039876,-0.6672233556200483,-1.0480525052800074,25.041022440460047,0.9391472109000779,-1.586268409619966,6.794799953560775],"activation_ref":"sigmoid"},{"biases":[6.326099916019831,7.660236256580337],"activation_ref":"sigmoid"}],"connection_layers":[{"input_size":8,"output_size":2,"weights":[[1.8554250640195549,37.071258861599134],[-14.311786803500002,-33.35649524222118],[34.57841836038123,11.80226144662115],[-3.9226797694790623,35.76438733842063],[11.802747298539852,-1.4998532960395223],[16.818711947480786,-22.910825466160066],[8.018623239820782,4.230392132960409],[10.689416142040624,-14.575399571339783]],"dyn_weights":[[12.634022922339797,-29.589913809579436],[-1.5657131227000938,5.204885064180403],[0.9813092788200983,1.8161392723799696],[22.871228894739513,2.5254544560402703],[-3.946158879040565,-1.8021777689600544],[-21.13551778456033,1.381751012980484],[-12.964814600399814,-5.963823905319873],[4.456359276380418,18.172540390141375]]}]},"type_":"prey","pos":[867.9670567318968,796.115435403209],"orientation":15.872040584155089,"health":1.0,"energy_copy":4.560123999999997,"age":36.48099199999998,"gen":1492436,"fitness":36.48099199999998},"416514656":{"nn":{"node_layers":[{"biases":[-0.6537192617600185,-5.173448664559918,-1.2611174278998372,8.502612085140196,0.21098693025997575,-10.915391314199862,-3.7569147150600473,-6.473244661939993],"activation_ref":"sigmoid"},{"biases":[2.5113111411002493,0.6324711069400354],"activation_ref":"sigmoid"}],"connection_layers":[{"input_size":8,"output_size":2,"weights":[[-0.6097717126399432,2.3133770298000864],[2.260958723700182,4.774600109540099],[-14.277470593579999,-4.369002982579866],[10.5927762220002,-7.5519495729199315],[8.7690636126801,-2.980599594399874],[3.582241929720097,0.19485544676027938],[-9.246375635539898,-2.6468627155198523],[-10.991620308959842,4.983827279379969]],"dyn_weights":[[-11.542914674760205,12.496212086899877],[-1.3429911846799842,-3.0763627386800785],[-3.190238689740065,-4.648062943979932],[4.6273516284600325,0.13532763577994902],[0.1583318372598399,-6.628149116039923],[5.269077761540123,1.0622996565600036],[-19.560276580420428,-2.459527138240051],[3.0907578948599292,-1.4608542826798743]]}]},"type_":"predator","pos":[805.3196415496723,800.4578684195711],"orientation":21.42437762917268,"health":0.6536635999999997,"energy_copy":1.0,"age":33.129799999999996,"gen":363967,"fitness":1.0},"416514766":{"nn":{"node_layers":[{"biases":[-0.7069998189600185,-5.189275310719917,-1.3020997282998372,8.515315637020198,0.26049799665997575,-10.964221817479862,-3.7588360892200474,-6.487712584979992],"activation_ref":"sigmoid"},{"biases":[2.4841651629002497,0.7075894248600353],"activation_ref":"sigmoid"}],"connection_layers":[{"input_size":8,"output_size":2,"weights":[[-0.6592372120399432,2.2599803676000865],[2.184373762620181,4.7711890917801],[-14.192118950859998,-4.344124322379867],[10.6044948057602,-7.593618434719932],[8.7739992052801,-2.927558674079874],[3.541638783440097,0.19621813368027938],[-9.245982951219895,-2.670426081439853],[-10.99405959731984,4.945697356579967]],"dyn_weights":[[11.596368855520208,12.497169732299875],[-1.388291016519984,-3.0578952500400787],[3.200713853660064,-4.708914538379932],[4.593845874580033,0.11319844405994903],[-0.27811202405983987,-6.612260643399924],[-5.291758894140124,1.0754103434000033],[-19.57101925258043,-2.487750218400051],[3.0907362921399284,-1.4223297159998742]]}]},"type_":"predator","pos":[372.0506375208288,653.0838822990307],"orientation":114.59831257402215,"health":0.849783214,"energy_copy":0.0,"age":8.345377000000001,"gen":363966,"fitness":0.0},"416514721":{"nn":{"node_layers":[{"biases":[-0.6409641054400185,-5.169921549439918,-1.2938438593398374,8.484105905460197,0.21399474045997574,-10.926580914999864,-3.7821325178600476,-6.494112776899993],"activation_ref":"sigmoid"},{"biases":[2.456064192700249,0.6534947792200354],"activation_ref":"sigmoid"}],"connection_layers":[{"input_size":8,"output_size":2,"weights":[[-0.6343184151199432,2.3225057991600866],[2.228059226020182,4.805025851340099],[-14.230327055579998,-4.358385127779866],[10.5635796208002,-7.556797792319932],[8.779014445800101,-2.937012869319874],[3.547136988760097,0.19645961924027938],[-9.237672314459898,-2.6201522456798525],[-10.963989905679842,4.997951977179968]],"dyn_weights":[[-11.555729627360206,12.511648903699879],[-1.3447262344399842,-3.0831612530000787],[-3.230447863980065,-4.644543981499932],[4.636433857340033,0.138809835499949],[-0.18416754085983988,-6.626045309879924],[5.252583146900123,1.0639620652400035],[-19.551819169820426,2.477532428400051],[3.048473416699929,-1.458599816119874]]}]},"type_":"predator","pos":[749.2188535169398,741.5234167169237],"orientation":193.35507024332927,"health":0.7098736780000001,"energy_copy":0.0,"age":16.118129,"gen":363967,"fitness":0.0},"416514540":{"nn":{"node_layers":[{"biases":[-0.6884652319600185,-5.177673168719917,-1.319307515379837,8.494435419260196,0.2513162701399757,-10.962547944159864,-3.7426355137400473,-6.442986307699993],"activation_ref":"sigmoid"},{"biases":[2.4753850395002495,0.6808173575800354],"activation_ref":"sigmoid"}],"connection_layers":[{"input_size":8,"output_size":2,"weights":[[-0.6618744905199433,2.2468058418400867],[2.180694601420181,4.756432832460099],[-14.149624560099998,-4.396324145379867],[10.5865334986802,-7.562333213679933],[8.7789874666801,-2.9256475384398746],[3.536720954720097,0.20600604004027934],[-9.295544567659894,-2.604878724399853],[-10.98503085635984,4.9347981024999665]],"dyn_weights":[[-11.575593338160209,12.508572075259874],[-1.400857193639984,-3.057577946080078],[-3.221074235180064,-4.687541233659931],[4.616288197460033,0.132538497579949],[-0.2101802849798399,-6.606722681999923],[-5.300065470180124,1.0979261026800033],[-19.58510564274043,-2.499458362320051],[3.0757787122999285,-1.4130496367998742]]}]},"type_":"predator","pos":[622.3113232909542,13.139324754067859],"orientation":11.083958507339219,"health":0.6967898539999998,"energy_copy":6.0,"age":54.90975299999997,"gen":363966,"fitness":6.0},"416514735":{"nn":{"node_layers":[{"biases":[17.732564380500204,0.23660576704039876,-0.6482954911400484,-1.0532100623200074,25.07465611754005,0.948075000860078,-1.5673722558599656,6.783705932200774],"activation_ref":"sigmoid"},{"biases":[6.30935390749983,7.622903046660336],"activation_ref":"sigmoid"}],"connection_layers":[{"input_size":8,"output_size":2,"weights":[[1.822735235179555,37.07354604159914],[-14.343141090860001,-33.313753070541175],[34.60752161306122,11.74289403054115],[-3.8980031097590624,35.76938020894063],[11.813587757259853,-1.4737698473595224],[16.824740413440782,-22.97695986952007],[8.016017701660783,4.242855138480409],[10.758682219040624,-14.569677744539783]],"dyn_weights":[[12.579209590819797,-29.592060716019436],[-1.5581573881400936,5.263410316060403],[0.9549893082600982,1.8676808881399696],[22.91824397241951,2.52933907408027],[-3.924865422240565,-1.8054697206000545],[-21.18318532584033,1.386409276700484],[-12.922099454479815,-5.971978690399873],[4.498252132780419,18.230013624781375]]}]},"type_":"prey","pos":[4.954034275866206,173.59019958162077],"orientation":-45.56989618112897,"health":1.0,"energy_copy":1.69468725,"age":13.557498,"gen":1492436,"fitness":13.557498},"416514491":{"nn":{"node_layers":[{"biases":[-0.6857116498800186,-5.42681237595992,-1.2802109842198377,8.296355281900198,0.4598861750199758,-10.952393341999858,-3.6559062503000503,-6.5934485501799935],"activation_ref":"sigmoid"},{"biases":[2.4927739755802483,0.4999869616200353],"activation_ref":"sigmoid"}],"connection_layers":[{"input_size":8,"output_size":2,"weights":[[-0.7365403976399432,2.3600513468800868],[2.3022595887801813,4.784199439340095],[-14.231341478300001,-4.519348005299863],[10.382153484120195,-7.658660382879931],[8.665751493760105,-2.765886386999877],[3.485325762960096,0.2032441604402794],[-9.17639367365989,-2.7155951100798528],[-11.20462045035985,5.211253502099964]],"dyn_weights":[[11.579488470160198,12.687973432659874],[1.279719087479983,-2.965046958160079],[-3.0950381813400663,-4.852446995979935],[4.719097332900035,0.24049811069994909],[-0.29000622785984,6.3966644631199285],[-5.140282187220121,-1.0735070702000031],[-19.423790583820438,-2.5934038442000493],[3.191495807259929,-1.4771214332798743]]}]},"type_":"predator","pos":[370.25821908460586,116.2631468320227],"orientation":-43.40726874341698,"health":0.07280176399999988,"energy_copy":1.0,"age":65.39990199999998,"gen":363964,"fitness":1.0},"416514543":{"nn":{"node_layers":[{"biases":[17.7812418002602,0.25043226184039874,-0.6767084368200483,-1.0579709944400073,25.038570075780047,0.9319751765000779,-1.575923908899966,6.803787867800775],"activation_ref":"sigmoid"},{"biases":[6.32439495593983,7.638610625060337],"activation_ref":"sigmoid"}],"connection_layers":[{"input_size":8,"output_size":2,"weights":[[1.847679396299555,37.07470716875913],[-14.332201669580003,-33.34777468814118],[34.606437997981224,11.79910744518115],[-3.9448993111190624,35.72915543658063],[11.822853251819852,-1.4769218731195224],[16.811920534560784,-22.912129350960065],[7.988192255380782,4.267854376080409],[10.705105387040625,-14.551003044699785]],"dyn_weights":[[12.626381094779797,-29.593120457179435],[-1.5653896500200937,5.225648911300404],[0.9852929554600983,1.8322265617399696],[22.887035354259513,2.50782741000027],[-3.932893698000565,-1.7992959246000544],[-21.131936202840333,1.375588746620484],[-12.961595589039815,-5.956594608759873],[4.455104742500419,18.171115951901374]]}]},"type_":"prey","pos":[871.4930323848475,811.2303761116145],"orientation":-1.7519080061912096,"health":1.0,"energy_copy":6.790685999999997,"age":54.32548799999998,"gen":1492436,"fitness":54.32548799999998},"416514739":{"nn":{"node_layers":[{"biases":[17.873124441380202,0.25613759040039885,-0.651518285020048,-1.1379257352000067,24.979624573580054,0.9612278607000779,-1.5534673478999659,6.743605150320774],"activation_ref":"sigmoid"},{"biases":[6.378826222939831,7.524550653660336],"activation_ref":"sigmoid"}],"connection_layers":[{"input_size":8,"output_size":2,"weights":[[1.7825529320195546,37.06247592335914],[-14.38240338186,-33.40507135486118],[34.68443715954123,11.633454154301152],[-3.768964077679062,35.73169114362063],[11.833078090459852,-1.6122189145595225],[16.71220296820078,-22.848026629680074],[8.07289469870078,4.132533909120408],[10.668135423560622,-14.48970824601979]],"dyn_weights":[[-12.622202818299797,-29.517001959019435],[1.6270236619000937,5.218217218980404],[1.0401406063000984,1.7774914629399694],[-22.79450707661952,2.55353001084027],[-3.9502803706005665,-1.950787826520055],[-21.086704873800333,1.3018871365004836],[-12.879934051999816,-6.058543812239874],[4.537308499580418,18.15126511718136]]}]},"type_":"prey","pos":[669.8196235189662,422.7131366939767],"orientation":-184.8972840406048,"health":1.0,"energy_copy":1.6113528750000001,"age":12.890823000000001,"gen":1492438,"fitness":12.890823000000001},"416514763":{"nn":{"node_layers":[{"biases":[17.810594194980197,0.3086642232003989,-0.650902376420048,-1.1200117330800068,24.935736538700056,0.9764438091000779,-1.6633928996999654,6.7647379094007745],"activation_ref":"sigmoid"},{"biases":[6.4377448677798315,7.498764266380337],"activation_ref":"sigmoid"}],"connection_layers":[{"input_size":8,"output_size":2,"weights":[[1.8023209069795545,37.068902306679135],[-14.327299982780001,-33.39058131646118],[34.69471526138123,11.699357017941153],[-3.7801893310390624,35.73833224586064],[11.89930668821985,-1.5614296465195225],[16.80877965636078,-22.920128266360074],[8.048660787540781,4.227984199720408],[10.691120606600625,-14.54987257177979]],"dyn_weights":[[12.579651721939797,-29.537193302619443],[1.6845140315400935,5.118445539220404],[-1.0941597071800986,1.7614557021399693],[-22.803812617019513,2.5356633896802703],[-3.9457572502405656,-1.9015329351200545],[21.075875074880326,1.289014412860484],[-12.906568839719817,-6.0222394286398755],[4.556068094700418,18.213535518261363]]}]},"type_":"prey","pos":[557.0943940694688,508.82853531456743],"orientation":-20.423106316128838,"health":1.0,"energy_copy":1.2059485000000008,"age":9.647588000000006,"gen":1492438,"fitness":9.647588000000006},"416514672":{"nn":{"node_layers":[{"biases":[17.7982580893802,0.24247867240039883,-0.6117249877000484,-1.0328931420000076,25.112124165340056,0.8943435915400783,-1.5779878404999659,6.734130622560774],"activation_ref":"sigmoid"},{"biases":[6.3270017830198295,7.644741326900336],"activation_ref":"sigmoid"}],"connection_layers":[{"input_size":8,"output_size":2,"weights":[[1.8237890572195545,37.06329243463914],[-14.343315829459998,-33.37457403586118],[34.653633365021236,11.75185216810115],[-3.8658419630390624,35.77108707538062],[11.796627656819854,-1.491970352679522],[16.772022156520784,-22.972512206160065],[7.995023390100783,4.306230602320409],[10.752233332760621,-14.544215518459788]],"dyn_weights":[[-12.598901834219797,-29.544171842139445],[1.5638604746200937,5.181887906940403],[1.0157471666200988,1.8416095114999695],[22.86753688469952,2.4486460047202696],[-3.9215867364005645,-1.8300126393600542],[-21.16672753916033,1.3093253429804839],[-12.903729903159816,-5.958523114279874],[4.419049267300417,18.23149915534137]]}]},"type_":"prey","pos":[234.1264123169787,221.19859730034855],"orientation":-276.93352112680236,"health":1.0,"energy_copy":3.738367124999999,"age":29.906936999999992,"gen":1492437,"fitness":29.906936999999992},"416514680":{"nn":{"node_layers":[{"biases":[-0.6370550264400184,-5.145229449159918,-1.2732555701798371,8.496816456140197,0.22733446705997576,-10.924057930239863,-3.7693731665000474,-6.453215309019993],"activation_ref":"sigmoid"},{"biases":[2.5070025245802494,0.6202160224200354],"activation_ref":"sigmoid"}],"connection_layers":[{"input_size":8,"output_size":2,"weights":[[-0.6165248021999432,2.3240135667200863],[2.234385072180182,4.772974033860099],[-14.279983055339999,-4.390376681779866],[10.6138811599202,-7.549126094639932],[8.7609652994401,-2.957177491879874],[3.562855429600097,0.1921161146002794],[-9.220359326259898,-2.6462971103198525],[-10.984315356559842,4.978519465339969]],"dyn_weights":[[-11.560491280720205,12.465217045499877],[-1.343977149039984,-3.0511157091200785],[-3.189403094540065,-4.638906749859932],[4.625273388500032,0.14682023065994904],[0.1642396435798399,-6.636220855079923],[5.237763055860123,1.0528758664400035],[-19.56443291346043,-2.448450313360051],[3.055008898739929,-1.4602518951598742]]}]},"type_":"predator","pos":[709.8168168497268,781.6596901675238],"orientation":103.10086124814711,"health":0.5022664840000002,"energy_copy":0.0,"age":27.651861999999994,"gen":363967,"fitness":0.0},"416514631":{"nn":{"node_layers":[{"biases":[17.825453954540198,0.22456924672039888,-0.6524536659400479,-1.118458712720007,24.96106163110006,0.947242605780078,-1.6347311682999655,6.733442220480774],"activation_ref":"sigmoid"},{"biases":[6.434622279939831,7.519021634020337],"activation_ref":"sigmoid"}],"connection_layers":[{"input_size":8,"output_size":2,"weights":[[1.8039970031795545,37.06352439767914],[-14.303611267220003,-33.34477201742118],[34.712772656621226,11.672279547381153],[-3.7939370206390617,35.781488457740636],[11.890148926019851,-1.5564638227995224],[16.768124001160782,-22.888924951320067],[8.01898255210078,4.232802521160408],[10.685484345440626,-14.603302065019788]],"dyn_weights":[[-12.591362840019794,-29.50375742189944],[1.6520818611400938,5.132709311580403],[-1.1222024003400988,1.7234185790999692],[-22.823210208619514,2.4811250482802705],[-3.9242258175605658,-1.9352025245200548],[21.06978261796033,1.312060600660484],[-12.919235737079818,-6.063840838639876],[4.5713338259404175,18.180162316581363]]}]},"type_":"prey","pos":[239.62106516978068,386.45345728254335],"orientation":-266.8450189420625,"health":1.0,"energy_copy":4.802866749999996,"age":38.42293399999997,"gen":1492438,"fitness":38.42293399999997},"416514702":{"nn":{"node_layers":[{"biases":[-0.6904020568800185,-5.175290679439917,-1.2948619428198374,8.518415742420197,0.28762140733997577,-10.955027615079862,-3.7540811673800474,-6.474338805259992],"activation_ref":"sigmoid"},{"biases":[2.4711377264602494,0.7132565578200353],"activation_ref":"sigmoid"}],"connection_layers":[{"input_size":8,"output_size":2,"weights":[[-0.6336683755999433,2.2581215462800865],[2.181308705100181,4.7352424249000995],[-14.200945228939998,-4.349336591739867],[10.6217097715202,-7.576705832719932],[8.787663163080099,-2.8997204408798742],[3.555358320560097,0.19106974052027936],[-9.257841079339896,-2.652182483639853],[-10.97738586343984,4.957561370059967]],"dyn_weights":[[11.578050665120209,12.508673592099875],[-1.404472404639984,-3.0654518822800787],[-3.210320596220064,-4.706019920179932],[4.601458335220033,0.15196489501994903],[-0.24377066869983988,-6.613575118159924],[-5.2791049968201245,1.0823540296800032],[-19.59489382638043,-2.482290045240051],[3.0837874296199286,-1.4110684088798744]]}]},"type_":"predator","pos":[545.3072893707738,907.3233672846576],"orientation":176.14512631186696,"health":0.7396946739999999,"energy_copy":2.0,"age":21.69673699999998,"gen":363966,"fitness":2.0},"416514784":{"nn":{"node_layers":[{"biases":[-0.6889921520400185,-5.194141075799917,-1.3195443852598372,8.519128568980197,0.2574092010199757,-10.958164106199863,-3.741972848700047,-6.465304867459992],"activation_ref":"sigmoid"},{"biases":[2.4586321425402495,0.6866136039800353],"activation_ref":"sigmoid"}],"connection_layers":[{"input_size":8,"output_size":2,"weights":[[-0.6475699950399433,2.2353877601600867],[2.171204949740181,4.750530400500099],[-14.199554295179999,-4.338914713499866],[10.5976379427602,-7.588103424199932],[8.7823402256001,-2.897337054079874],[3.552711774720097,0.19890515700027936],[-9.262992460379895,-2.636807898439853],[-10.962821548519841,4.9384084765399665]],"dyn_weights":[[11.578357881720208,12.503937842619875],[-1.375292214599984,-3.0657434100000787],[3.207599688100064,-4.706242703099932],[4.581908370140033,0.12817714589994902],[-0.26535303545983985,-6.614326235879924],[5.304184795940124,1.077812845320003],[-19.56724670702043,-2.483952283600051],[3.0940967609799284,-1.4111856746398743]]}]},"type_":"predator","pos":[212.46469639845722,558.0179605826137],"orientation":-107.73913144152306,"health":0.956555956,"energy_copy":0.0,"age":2.4135579999999996,"gen":363966,"fitness":0.0},"416514713":{"nn":{"node_layers":[{"biases":[-0.6437735558000185,-5.159184699719918,-1.2836059426198372,8.455659225140197,0.19632916249997576,-10.936648319839863,-3.7736328499000473,-6.489885081699993],"activation_ref":"sigmoid"},{"biases":[2.4885824203402493,0.6597325892200354],"activation_ref":"sigmoid"}],"connection_layers":[{"input_size":8,"output_size":2,"weights":[[-0.6470394253999432,2.294641594480087],[2.217900148940182,4.791402157260099],[-14.231494423659997,-4.367833731699866],[10.573260176960199,-7.5837383279199315],[8.769795637680101,-2.9374819380398742],[3.568361513800097,0.1839501470802794],[-9.213059680699898,-2.5947600604398526],[-10.960789149759842,4.993513701179968]],"dyn_weights":[[-11.568028011920207,12.509680390459877],[-1.357002015639984,-3.0555078092000785],[-3.2134773572200652,-4.632602486099931],[4.6455062517000325,0.156386144539949],[0.18874596753983988,-6.638556838399924],[5.272830960340122,1.0296971375200035],[-19.547556927700427,-2.449703793480051],[3.0543395814599292,-1.4488939144398743]]}]},"type_":"predator","pos":[560.3201002066248,817.5668853389249],"orientation":108.07922971669859,"health":0.6593637700000006,"energy_copy":0.0,"age":18.924234999999978,"gen":363967,"fitness":0.0},"416514670":{"nn":{"node_layers":[{"biases":[17.7331034458202,0.25865446404039877,-0.6853466670200483,-1.0044613667200075,25.049759899820053,0.917737846060078,-1.5551231356599657,6.791185042520773],"activation_ref":"sigmoid"},{"biases":[6.338454542019831,7.628884027180336],"activation_ref":"sigmoid"}],"connection_layers":[{"input_size":8,"output_size":2,"weights":[[1.8290246318995547,37.04047599775913],[-14.380661452740002,-33.35263559862117],[34.63894246214122,11.723820751901147],[-3.8525227976790624,35.72474204926064],[11.795642087899852,-1.4726961308395223],[16.833639177320777,-22.95164483076007],[8.038886001580781,4.277084853120408],[10.667448445960623,-14.541185854379783]],"dyn_weights":[[12.586502421059794,-29.612887936139433],[-1.5638285353000936,5.187570018260402],[0.9323844100200983,1.8402656054599698],[22.90844838969951,2.50015422252027],[-3.822163149960564,-1.8291104040400545],[21.162109526160332,1.342187667260484],[-12.911067228039817,-6.0083408817598745],[4.519164322220418,18.209829142261373]]}]},"type_":"prey","pos":[287.5960799037928,174.17955039385785],"orientation":103.42913206636197,"health":1.0,"energy_copy":3.7708106249999984,"age":30.166484999999987,"gen":1492438,"fitness":30.166484999999987},"416514573":{"nn":{"node_layers":[{"biases":[17.8380677920202,0.21274564748039881,-0.6492987404200483,-1.0308598069600075,25.065983722940054,0.8917253737000782,-1.5884307240999658,6.708977335240774],"activation_ref":"sigmoid"},{"biases":[6.370670520819829,7.651799321180334],"activation_ref":"sigmoid"}],"connection_layers":[{"input_size":8,"output_size":2,"weights":[[1.8410253467395545,37.083269257839135],[-14.357759967899998,-33.36193849778119],[34.64711653354124,11.730334131221149],[-3.8598555115590623,35.78089110370062],[11.762663823459851,-1.491217779399522],[16.739821000960784,-22.93368908164007],[8.087116082020783,4.282983515040408],[10.751639088960625,-14.573031285019788]],"dyn_weights":[[-12.701582309539795,-29.56684134261944],[1.5852905681400935,5.144034889740403],[-1.0146502147000984,1.8395523507799696],[22.856664674699513,2.4903945441202695],[-3.9284310791605646,-1.8060796117600544],[-21.204127842080332,1.3562541376604837],[-12.933295272079814,-5.971038412559874],[4.391608890740416,18.24421290590137]]}]},"type_":"prey","pos":[840.1887037482281,288.792201779083],"orientation":-53.029625330122464,"health":1.0,"energy_copy":6.045500624999998,"age":48.364004999999985,"gen":1492437,"fitness":48.364004999999985},"416514733":{"nn":{"node_layers":[{"biases":[-0.6325710115600185,-5.148065292399918,-1.3069415275798373,8.481662521780196,0.21360225913997577,-10.933305724119863,-3.7708339051800475,-6.494656110859993],"activation_ref":"sigmoid"},{"biases":[2.4922265557402494,0.6601420255000354],"activation_ref":"sigmoid"}],"connection_layers":[{"input_size":8,"output_size":2,"weights":[[-0.6422416566399433,2.287838440840087],[2.235123873220182,4.788760948700099],[-14.241357930179998,-4.3575193504198655],[10.5677567250402,-7.554010520759932],