{"size":[1000,1000],"entities":{"377697715":{"nn":{"node_layers":[{"biases":[-0.4725242458800145,-3.5562066172799356,0.5784322074601714,6.925246883060113,1.3783547988999822,-12.110139441879948,-3.3651965226200495,-6.056235939139957],"activation_ref":"sigmoid"},{"biases":[3.698540883900212,-1.4616137842999755],"activation_ref":"sigmoid"}],"connection_layers":[{"input_size":8,"output_size":2,"weights":[[-2.0090211230799353,1.001645850400051],[2.1577544921401843,6.515404518700108],[-14.178488069739913,-4.74839410097989],[10.983030969400168,-10.694135277759953],[6.228148233080109,1.0981368406001215],[2.529001098000114,-2.818891737839719],[-8.143990959979977,0.39902732892012827],[-9.096891489559896,6.462861280659989]],"dyn_weights":[[14.307162694800196,8.294551158299786],[-2.4881492277599873,-2.6275238317200773],[4.430441952900101,4.155867371819927],[-5.526389559940021,0.8215819310199585],[3.237413765299821,4.182454642079933],[4.019376443660092,-1.3844218353599949],[18.430232770060506,-2.2057093011600686],[-3.9136027785399237,4.440432941479913]]}]},"type_":"predator","pos":[275.0026080704401,807.1329334187993],"orientation":-122.7372390577471,"health":0.8900542360000003,"energy_copy":9.0,"age":117.91106000000015,"gen":340725,"fitness":9.0},"377697324":{"nn":{"node_layers":[{"biases":[-0.4942028033600147,-3.6404994567199354,0.4787522166201713,6.923522563060111,1.381570045259983,-12.194847120199954,-3.44960819426005,-6.173538035459954],"activation_ref":"sigmoid"},{"biases":[3.5915906601002128,-1.5389891576999752],"activation_ref":"sigmoid"}],"connection_layers":[{"input_size":8,"output_size":2,"weights":[[-2.014113785839936,1.0546039297600511],[2.1461292201401814,6.50297794358011],[-14.010869643099909,-4.492198516059887],[11.113841570000163,-10.621892775599946],[6.210866259280109,1.0300226953201208],[2.5428462821601134,-2.8767379549597214],[-8.035050019059975,0.1549351508001285],[-9.298206237399894,6.311629373979993]],"dyn_weights":[[-14.248448470440193,8.397316796819796],[-2.5000318604399867,2.4607668093600794],[4.588664881740101,-4.152225206659924],[-5.417732760420024,0.9754701173399589],[-3.050957856739823,4.236220088079935],[-3.949236374300085,1.250687019959995],[18.360071424340486,-2.054136971960067],[3.8308915506599246,-4.529916082199912]]}]},"type_":"predator","pos":[816.8965657004165,727.6429418127873],"orientation":245.69542793154218,"health":0.36885468400000027,"energy_copy":12.0,"age":176.54895299999978,"gen":340723,"fitness":12.0},"377698422":{"nn":{"node_layers":[{"biases":[13.153619139140677,6.882562087040419,-0.5046771116600424,-0.7982839710800057,26.106871473020526,-0.4975939079399437,-0.9946080658599676,3.4585364323606487],"activation_ref":"sigmoid"},{"biases":[4.313468328260025,10.340459036100004],"activation_ref":"sigmoid"}],"connection_layers":[{"input_size":8,"output_size":2,"weights":[[-3.6419676846604148,31.806035352278307],[-16.740137423579963,-29.676264331701063],[37.79394740718028,4.558371375780969],[-4.995368649439142,32.95563239146007],[13.531064957660044,-3.2145008918395965],[14.466698429280807,-16.46378753036035],[9.176084723420527,6.204203016960365],[8.000120466720766,-19.052102760099334]],"dyn_weights":[[5.897020081019902,-29.64491829785904],[-7.14807301246008,3.5047148936604193],[2.356233219619972,4.018270055139852],[20.24531078437922,-1.3626088268802123],[-2.0366283409594614,0.2755751852800626],[13.32275697888043,-0.5044352739405068],[14.489054907080005,-5.243477626679784],[3.161853723420423,21.804536611260875]]}]},"type_":"prey","pos":[274.5074571284059,29.04125522624262],"orientation":9.447446084048774,"health":1.0,"energy_copy":1.3912481250000006,"age":11.129985000000005,"gen":1358895,"fitness":11.129985000000005},"377698425":{"nn":{"node_layers":[{"biases":[-0.48168293724001465,-3.666874198239935,0.5095612349401712,6.9529898459401105,1.370877411979983,-12.211040798279955,-3.43243863082005,-6.181414161419954],"activation_ref":"sigmoid"},{"biases":[3.551967303700213,-1.5085537426599753],"activation_ref":"sigmoid"}],"connection_layers":[{"input_size":8,"output_size":2,"weights":[[-2.021899674839936,1.072154870480051],[2.154142525020181,6.500689454740111],[-14.01742768845991,-4.511042839059887],[11.130582365800164,-10.624452635039944],[6.201044260440109,1.0326965635201208],[2.5781748198001138,-2.8751554650397213],[-8.070533295419974,0.15950790200012846],[-9.329658655559895,6.3323953496599925]],"dyn_weights":[[-14.287742084320193,8.422354332779797],[-2.4616936339599866,2.45693305988008],[4.599518832700101,-4.170699658459926],[-5.4383197256600235,0.9833110686199588],[-3.0898627989798224,4.238814407479933],[-3.984236613740085,1.239610373279995],[18.369635170980484,-2.052479103680067],[-3.793621122579925,-4.538640111799912]]}]},"type_":"predator","pos":[117.8431927159927,355.0843317135077],"orientation":279.5497107777937,"health":0.8074797400000004,"energy_copy":0.0,"age":10.69557,"gen":340722,"fitness":0.0},"377696868":{"nn":{"node_layers":[{"biases":[-0.45974901460001466,-3.642760925159935,0.5165881679801714,6.954544846580111,1.3706135300599829,-12.221572750279954,-3.4203627008600503,-6.165039586859954],"activation_ref":"sigmoid"},{"biases":[3.5353448403002132,-1.5222529443399753],"activation_ref":"sigmoid"}],"connection_layers":[{"input_size":8,"output_size":2,"weights":[[-2.0237315813999355,1.0564297599600512],[2.1584310825801816,6.495884073980111],[-13.987914209939909,-4.509292802339887],[11.107224023200164,-10.645468155879945],[6.25189477600011,1.0382977840801206],[2.585638138280114,-2.8516717205597217],[-8.026734908739973,0.1847759838401285],[-9.330102908999894,6.313387102379993]],"dyn_weights":[[-14.280770677920192,8.429858563619796],[-2.4809227453999863,2.4469787920800794],[4.615643036340101,-4.160979284979926],[-5.443340926540023,1.0045972144199589],[-3.0716219927398227,4.275083612519933],[-3.957711269820085,1.2666368045199952],[18.385800924100486,-1.9982632435200671],[3.7971595507399245,-4.5213215263199125]]}]},"type_":"predator","pos":[622.552385486505,174.54527879952832],"orientation":252.32197466237622,"health":0.5286972680000008,"energy_copy":20.0,"age":241.59314899999958,"gen":340722,"fitness":20.0},"377698484":{"nn":{"node_layers":[{"biases":[13.308952773700685,7.123112451640421,-0.7034220963000427,-0.7646714185600052,26.12613461882052,-0.3848024312599435,-0.9089731792999673,3.4458669344006494],"activation_ref":"sigmoid"},{"biases":[4.2988473262600255,10.487620026980009],"activation_ref":"sigmoid"}],"connection_layers":[{"input_size":8,"output_size":2,"weights":[[-3.6488830869804154,31.6658346126783],[-16.73641462937995,-29.70311054226107],[37.832550334180304,4.393961636100967],[-5.007682866119145,32.98171071730008],[13.717652190060043,-3.1814117589595954],[14.544921431520807,-16.605134142040345],[9.086771761860529,6.281892800440364],[7.925861771200766,-19.098438112659327]],"dyn_weights":[[5.890952756979901,-29.708845454939034],[-6.941202572300076,3.275197127940418],[-2.2837471114999754,3.9100854363798523],[-20.193790514979213,-1.3231244768802124],[-1.9777482671194617,0.27540571664006236],[-13.256029448720431,0.29237668378050724],[-14.536943483679996,-5.332131708199786],[-2.95619452022042,21.813018803580892]]}]},"type_":"prey","pos":[292.63903287818334,112.80148773502515],"orientation":-80.03933715896416,"health":1.0,"energy_copy":0.211307625,"age":1.690461,"gen":1358894,"fitness":1.690461},"377697951":{"nn":{"node_layers":[{"biases":[-0.49605431296001457,-3.5560907439599356,0.5202839513001715,6.9432049116601116,1.3185319938999822,-12.13696115963995,-3.3502324853000496,-6.044309275979957],"activation_ref":"sigmoid"},{"biases":[3.682994893580212,-1.4888841612999755],"activation_ref":"sigmoid"}],"connection_layers":[{"input_size":8,"output_size":2,"weights":[[-1.9956991003199354,1.019366739880051],[2.150963986780184,6.542321809340108],[-14.158285186539912,-4.7379768257398895],[10.979441394760167,-10.710657645599953],[6.202778581040107,1.0890103151201214],[2.570341407280114,-2.8225361050797195],[-8.129179523459978,0.47603899948012834],[-9.185325772399894,6.414317564099988]],"dyn_weights":[[-14.276410754280198,8.290307057739788],[-2.4824219162399874,-2.6468552539600774],[4.4571164470601,4.170587994899927],[5.55841007230002,0.8863690125399585],[3.281381918139821,4.212968098239934],[4.010938511660091,-1.392033343399995],[18.471956405980507,-2.1551579430000687],[-3.990474334579923,-4.337235865799912]]}]},"type_":"predator","pos":[173.87557206405677,283.73404994768464],"orientation":12.680107208246278,"health":0.27423309999999995,"energy_copy":3.0,"age":81.98704999999997,"gen":340724,"fitness":3.0},"377698390":{"nn":{"node_layers":[{"biases":[13.212952681020678,6.898459245560418,-0.5363709137400423,-0.8151861786400056,26.13964967766053,-0.5520124810199438,-0.9842892234199672,3.378568414320649],"activation_ref":"sigmoid"},{"biases":[4.381320596460025,10.287952806460003],"activation_ref":"sigmoid"}],"connection_layers":[{"input_size":8,"output_size":2,"weights":[[-3.6679095553404144,31.859741965678303],[-16.74312355009997,-29.686886714981075],[37.699892120460255,4.536636727620971],[-5.06761382675914,33.03623503202006],[13.510046402220047,-3.2453989891595962],[14.468957741400803,-16.43946580788035],[9.217112781340527,6.208455448440366],[7.9907521297207635,-19.018559757819332]],"dyn_weights":[[5.9013249664599,-29.63485849697903],[7.216586911580079,3.5340435720604195],[2.358415254299973,3.988457034059852],[-20.271665040699215,-1.2403536545602123],[1.9196348583994616,-0.31433275388006254],[13.418690738800429,-0.421777389260507],[14.399779220560001,-5.154803984279784],[3.120486661100423,21.725792839100873]]}]},"type_":"prey","pos":[9.443992720020752,532.9933616075135],"orientation":37.74644489385797,"health":1.0,"energy_copy":1.784839000000001,"age":14.278712000000008,"gen":1358895,"fitness":14.278712000000008},"377697205":{"nn":{"node_layers":[{"biases":[-0.4813190436400145,-3.5350743389999355,0.5449798031401715,6.916780610220113,1.3790517391799821,-12.144958125279949,-3.3593128746600494,-6.076593361819957],"activation_ref":"sigmoid"},{"biases":[3.690403231060212,-1.4633237203799756],"activation_ref":"sigmoid"}],"connection_layers":[{"input_size":8,"output_size":2,"weights":[[-2.001081249759935,0.998882167160051],[2.162491511820184,6.543309429020107],[-14.170522702059912,-4.74110126097989],[11.00435719196017,-10.693122570439954],[6.231918558720109,1.1076806202001215],[2.520221239880114,-2.805508600359719],[-8.142914618539976,0.4118222986801283],[-9.118850998599894,6.444890463419989]],"dyn_weights":[[14.275321944320195,8.286142800899787],[-2.4672914790799876,-2.628699168080077],[-4.428847727340101,4.123156572339926],[-5.54719813730002,0.8226395220199585],[3.257179909619821,4.175426277999933],[4.0437991509400915,1.374478295479995],[18.414208749340506,-2.1836747376400685],[-3.9200017032999237,4.413999388959913]]}]},"type_":"predator","pos":[109.25067063100056,950.0712607904661],"orientation":-176.03924300164448,"health":0.22132504400000155,"energy_copy":14.0,"age":194.0754889999994,"gen":340725,"fitness":14.0},"377696291":{"nn":{"node_layers":[{"biases":[-0.4835595946800147,-3.689948786679935,0.5126925610601714,6.938369373060111,1.324649027099983,-12.210301330759954,-3.4435931091800502,-6.176402751339954],"activation_ref":"sigmoid"},{"biases":[3.529719195220213,-1.5053542618999753],"activation_ref":"sigmoid"}],"connection_layers":[{"input_size":8,"output_size":2,"weights":[[-2.0076086244799356,1.045641850120051],[2.1395163301001814,6.517846162540111],[-13.965884707579908,-4.5261358294998875],[11.110025003880164,-10.623625967919944],[6.190528540760109,1.0236658910801208],[2.560716552480114,-2.8501057844797213],[-8.052351438419974,0.18753857456012848],[-9.317734218559893,6.328630389419993]],"dyn_weights":[[-14.295053439280194,8.440883875819797],[-2.449793973399986,2.44931429336008],[4.597369374380101,-4.160569582219926],[-5.463476328340024,1.0004815640999587],[-3.0713689832598225,4.2536176324399335],[-3.964355692780085,1.293258068759995],[18.350517979100484,-2.052976373000067],[3.7906729112999247,-4.511169867759912]]}]},"type_":"predator","pos":[19.905164677224224,20.71563855513029],"orientation":109.14920196033336,"health":0.356293154,"energy_copy":36.0,"age":329.5535060000003,"gen":340722,"fitness":36.0},"377698392":{"nn":{"node_layers":[{"biases":[13.193434953620677,6.9054356058404185,-0.5456640377800424,-0.8065073672800056,26.15078908214053,-0.5832212603399438,-0.9722217416599672,3.3980115104006487],"activation_ref":"sigmoid"},{"biases":[4.366351142060025,10.312194037620005],"activation_ref":"sigmoid"}],"connection_layers":[{"input_size":8,"output_size":2,"weights":[[-3.6710161833404142,31.869814030598302],[-16.724550258659967,-29.710037318501072],[37.72167686182026,4.543217353380971],[-5.05857839419914,33.03295236782006],[13.496280381340046,-3.2283939980795964],[14.432049416600803,-16.46356592496035],[9.239568508220527,6.207573723520366],[8.017579327680764,-19.052093640499333]],"dyn_weights":[[5.8902694266999,-29.613666777259034],[7.22240173186008,3.55670450306042],[2.367723808619973,4.015075642339852],[-20.244231331859215,-1.2672010382002123],[1.9532021551994614,-0.30181390608006253],[-13.437846794040428,-0.402064870860507],[14.392707102080001,-5.150300193479784],[3.099141008100423,21.707897986420875]]}]},"type_":"prey","pos":[722.4037048182888,450.4921615298652],"orientation":-85.34539256530229,"health":1.0,"energy_copy":1.7418155000000008,"age":13.934524000000007,"gen":1358895,"fitness":13.934524000000007},"377698442":{"nn":{"node_layers":[{"biases":[13.296588679260685,7.0766521556804225,-0.7118084615400424,-0.8281500812800053,26.15113889794052,-0.38542699625994353,-0.9354360073799673,3.4440072716006487],"activation_ref":"sigmoid"},{"biases":[4.310106830740026,10.492223408020012],"activation_ref":"sigmoid"}],"connection_layers":[{"input_size":8,"output_size":2,"weights":[[-3.6080685125404153,31.601099423718303],[-16.785567689539953,-29.685522678341062],[37.733867826340315,4.380349526500966],[-5.015750616719146,33.016692979580085],[13.763665450060046,-3.1552746542795953],[14.551536470880807,-16.575179924720345],[9.084579080340529,6.290812183280364],[7.935617545120765,-19.05714231533933]],"dyn_weights":[[5.810116896539901,-29.756873850419034],[-6.911563268420077,3.3099643942604184],[-2.2379524473399752,3.919501738659852],[-20.178197332019213,-1.3254530515202125],[1.988655397079462,0.25372913908006245],[-13.204642913240432,0.2853197502205072],[-14.52701701228,-5.291100344039787],[-2.9616466173004197,21.859653565660896]]}]},"type_":"prey","pos":[726.2763015697471,260.78253210789825],"orientation":-183.06456539404581,"health":1.0,"energy_copy":0.9995804999999999,"age":7.996643999999999,"gen":1358894,"fitness":7.996643999999999},"377698048":{"nn":{"node_layers":[{"biases":[13.21922003342068,6.84066007368042,-0.5295408152200423,-0.8184796111200056,26.08329071978053,-0.4669453058199438,-1.0165074752199672,3.4076180439606483],"activation_ref":"sigmoid"},{"biases":[4.362313742180025,10.385134326220003],"activation_ref":"sigmoid"}],"connection_layers":[{"input_size":8,"output_size":2,"weights":[[-3.6933273049404147,31.761678603758302],[-16.774491708139962,-29.673600219581065],[37.76666903886027,4.5552952939009685],[-5.03045310275914,32.96530106894008],[13.573808176740046,-3.2170235421195965],[14.440984039880808,-16.475496174880348],[9.159449190380524,6.237766894800365],[8.011536693720767,-19.07513501369933]],"dyn_weights":[[5.897659319219902,-29.672185011499042],[-7.10307135434008,3.4820273568604194],[2.322039443699972,4.0394414595398525],[-20.271160151059224,-1.3452009274402126],[-2.1036564755194616,-0.32312937312006257],[13.315701140320432,-0.5010024171005069],[14.455600794600002,-5.246628156799783],[3.2059099055404223,21.66663801798087]]}]},"type_":"prey","pos":[164.3481934327585,788.8474879698995],"orientation":-79.27809354257944,"health":1.0,"energy_copy":0.2737543750000019,"age":66.19003500000001,"gen":1358893,"fitness":66.19003500000001},"377698428":{"nn":{"node_layers":[{"biases":[-0.4794093508400147,-3.6429387966799354,0.5055662404601713,6.953492708060111,1.353526111939983,-12.175384002559955,-3.45393065678005,-6.1543352256599535],"activation_ref":"sigmoid"},{"biases":[3.540850754500213,-1.5368993022599753],"activation_ref":"sigmoid"}],"connection_layers":[{"input_size":8,"output_size":2,"weights":[[-2.0311066263199358,1.036657224600051],[2.166054135020181,6.526254128060111],[-13.994476155539909,-4.513050772899887],[11.121977442080164,-10.628792300279946],[6.224662038120109,1.0180006709201208],[2.5761610158001136,-2.8949091066397217],[-8.074022341939974,0.18309041328012848],[-9.336438445599894,6.330725349299993]],"dyn_weights":[[-14.292640958800192,8.444242841099797],[-2.4807596302399864,2.46423919712008],[4.596824823260101,-4.155012505659926],[-5.441014233460023,0.9775106206999588],[-3.0559446718598227,4.2402336248799335],[-3.953231489820085,1.262039163119995],[18.356646274500484,-2.045802598720067],[-3.7895434360599247,-4.540612959319912]]}]},"type_":"predator","pos":[189.00639024953625,243.52979814748832],"orientation":147.36193830212105,"health":0.996013954,"energy_copy":1.0,"age":10.263844,"gen":340722,"fitness":1.0},"377698389":{"nn":{"node_layers":[{"biases":[13.177954531420676,6.884181457760419,-0.5912538897000423,-0.8145902778000056,26.07564262678053,-0.4434834750599437,-0.9889923688199674,3.467213153680649],"activation_ref":"sigmoid"},{"biases":[4.369547111420024,10.401634012780006],"activation_ref":"sigmoid"}],"connection_layers":[{"input_size":8,"output_size":2,"weights":[[-3.6940400285004147,31.781143229038303],[-16.779085018819966,-29.71393999786107],[37.76343140998028,4.5437213181809675],[-5.01801266759914,32.96166492026008],[13.507702772020046,-3.2708317401995965],[14.500163851560808,-16.477628473880348],[9.184378456380525,6.228226001280365],[8.014863444600767,-19.05363801789933]],"dyn_weights":[[5.923960220379903,-29.639335714339044],[-7.14676746554008,3.5389472784204195],[2.3972228601399714,3.9847849309398526],[-20.248987460099222,-1.3361153994802126],[-1.9940252640394618,0.23492483812006246],[13.406548637760428,-0.4816768795005069],[14.462579634960003,-5.232493078639784],[3.2032983893804228,21.744802058500873]]}]},"type_":"prey","pos":[420.2731093932799,78.4152118440096],"orientation":199.85581415168375,"health":1.0,"energy_copy":1.784839000000001,"age":14.278712000000008,"gen":1358895,"fitness":14.278712000000008},"377697132":{"nn":{"node_layers":[{"biases":[-0.4773601263600145,-3.5473480711599357,0.5463389494201715,6.916740347860113,1.3939199290599822,-12.116712962239948,-3.3579696001400494,-6.066145094659957],"activation_ref":"sigmoid"},{"biases":[3.7047321840202123,-1.4651708269799755],"activation_ref":"sigmoid"}],"connection_layers":[{"input_size":8,"output_size":2,"weights":[[-1.9782816359199353,0.9909293130800509],[2.142937531660184,6.518657370140108],[-14.161300476419912,-4.764050109299889],[11.016735850640169,-10.693307652239953],[6.236474252800108,1.1026051200001217],[2.536828814680114,-2.802153833119719],[-8.159061157459977,0.4172452478401283],[-9.118050013159895,6.461541483019988]],"dyn_weights":[[14.301473998840196,8.280438850139786],[-2.4716633353999873,-2.6411820209200774],[4.4322274945001015,4.159865727459926],[-5.55733093226002,0.8288693756599584],[3.243994625419821,4.167572607839933],[4.0399939137400915,1.382097373359995],[18.441047739340505,-2.1815901362400685],[-3.9380304186599235,4.414301333319913]]}]},"type_":"predator","pos":[843.3531428541891,16.668705735325208],"orientation":-243.55695969296477,"health":0.7686554799999995,"energy_copy":15.0,"age":207.66316599999942,"gen":340725,"fitness":15.0},"377698169":{"nn":{"node_layers":[{"biases":[13.417334921140684,7.08130209212042,-0.6600759681800423,-0.7338405109600051,26.165702783700528,-0.4628288812599435,-0.9654381284199673,3.405256570480649],"activation_ref":"sigmoid"},{"biases":[4.280308235300026,10.521988527380008],"activation_ref":"sigmoid"}],"connection_layers":[{"input_size":8,"output_size":2,"weights":[[-3.7204806474604157,31.558550588718305],[-16.917343756459953,-29.677615447541072],[37.844665164180306,4.518687504580965],[-5.073317674159143,32.936527382540085],[13.735812375380043,-3.2079566815995952],[14.484858127320805,-16.53982400196034],[9.15647295206053,6.3655475249603635],[7.862037462720766,-19.105274144779326]],"dyn_weights":[[-5.8775982542998975,-29.683911777219027],[-6.9273742002600756,3.293996102220418],[2.2545405298999754,3.9357120349798524],[-20.186702571059218,-1.3063871935202123],[2.0280898868794615,0.3831697105200624],[13.262086639360431,0.28341254750050726],[14.516304243319997,-5.404288230559787],[2.964800906460419,21.848082579900897]]}]},"type_":"prey","pos":[18.359084371601096,511.7722340136942],"orientation":61.777285538097395,"health":1.0,"energy_copy":0.6817078749999996,"age":45.45366300000001,"gen":1358893,"fitness":45.45366300000001},"377697776":{"nn":{"node_layers":[{"biases":[-0.4993526562800147,-3.645342747319935,0.49523112398017133,6.91883142194011,1.350947522659983,-12.200426077239953,-3.4763495381400498,-6.170265545419953],"activation_ref":"sigmoid"},{"biases":[3.5710782082202126,-1.5613809340599751],"activation_ref":"sigmoid"}],"connection_layers":[{"input_size":8,"output_size":2,"weights":[[-2.022239122319936,1.027713549000051],[2.1494422682601813,6.49477180266011],[-14.00488865169991,-4.496829291099887],[11.110596382440164,-10.649688541839947],[6.1975939968001095,1.0410902591201208],[2.5660792643201136,-2.8833856084797214],[-8.023576017379975,0.15070087232012852],[-9.329565405239894,6.334598993179992]],"dyn_weights":[[-14.239906086720193,8.393352192019796],[-2.4674523593999864,2.4801642652000795],[4.579995970820101,-4.155476736539924],[-5.4040427824600235,1.0011495380999589],[-3.051963724219823,4.213103336359935],[-3.9519196125400855,1.2502887401199951],[18.347620019060486,-2.048267615600067],[3.8311593141399247,-4.534802978599912]]}]},"type_":"predator","pos":[331.59574382051625,158.14857219011725],"orientation":147.0985883430329,"health":0.41035624600000004,"energy_copy":6.0,"age":108.77651399999999,"gen":340723,"fitness":6.0},"377697367":{"nn":{"node_layers":[{"biases":[-0.4750464040800147,-3.6270474301599354,0.4814237987001713,6.93407502458011,1.352232895659983,-12.197045313759954,-3.45405506778005,-6.174016055979954],"activation_ref":"sigmoid"},{"biases":[3.5642723455002128,-1.5750032901799753],"activation_ref":"sigmoid"}],"connection_layers":[{"input_size":8,"output_size":2,"weights":[[-2.014028962679936,1.046287322920051],[2.130131574620181,6.4838293031401095],[-14.019887886779909,-4.518434927859888],[11.132091097000163,-10.645276009279947],[6.187652705120109,1.0421224970401208],[2.5496129466001136,-2.8736652116397217],[-8.023607272499975,0.1531955036801285],[-9.311825228479895,6.319773419259993]],"dyn_weights":[[-14.257746763200192,8.421315938939797],[-2.4930173743999866,2.4628939188800794],[4.589320606740101,-4.162170830779925],[-5.425613413860024,0.9970142581799589],[-3.060283362659823,4.219970019639934],[-3.9260002523800854,1.261003472879995],[18.348553070740486,-2.040877298840067],[3.809242136139925,-4.527480596279912]]}]},"type_":"predator","pos":[892.4307466833537,509.3613445144371],"orientation":95.963382285846,"health":0.8713597940000009,"energy_copy":14.0,"age":170.55299399999973,"gen":340723,"fitness":14.0},"377698477":{"nn":{"node_layers":[{"biases":[13.296725625740683,7.108094080000422,-0.7016437241400427,-0.7865062306000051,26.12692681170052,-0.4045727623399435,-0.9612068342599672,3.4544582168006492],"activation_ref":"sigmoid"},{"biases":[4.318283444340026,10.48098337814001],"activation_ref":"sigmoid"}],"connection_layers":[{"input_size":8,"output_size":2,"weights":[[-3.6499665807404154,31.6676336399583],[-16.75353413249995,-29.69708289710107],[37.80295574258031,4.401054144420967],[-5.005824380759146,33.015241909180084],[13.738935552820044,-3.169441316919595],[14.569659403440808,-16.558063369800344],[9.09071434854053,6.292846134640364],[7.8960078464407655,-19.035061136659323]],"dyn_weights":[[5.8758556590599005,-29.686479970659033],[6.942501874140076,3.3010702368204177],[-2.2387314448599756,3.9157136557798524],[-20.19638470141921,-1.3069844022002124],[1.983756015399462,0.27606560720006235],[-13.259212524200432,0.3039465277405073],[-14.512609518559996,-5.309390351999787],[-2.92639510358042,21.791129476260892]]}]},"type_":"prey","pos":[13.159373581500489,139.51559677750612],"orientation":-77.71275270835011,"health":1.0,"energy_copy":0.298023125,"age":2.384185,"gen":1358894,"fitness":2.384185},"377698342":{"nn":{"node_layers":[{"biases":[13.427193260940683,7.06284880504042,-0.6404453502600423,-0.7415202312800052,26.183875500300527,-0.4955089278199435,-0.9523451618999674,3.3641902576006495],"activation_ref":"sigmoid"},{"biases":[4.250143704900026,10.544603119260007],"activation_ref":"sigmoid"}],"connection_layers":[{"input_size":8,"output_size":2,"weights":[[-3.738350480100416,31.565753474358303],[-16.91401697773995,-29.66913201978107],[37.844936555500304,4.492457373740965],[-5.061801764239143,32.960592740460086],[13.744844595620044,-3.199606938199595],[14.488000878360806,-16.54092731848034],[9.147793349500532,6.354392188920364],[7.878064866880766,-19.074934751659328]],"dyn_weights":[[5.884746414699897,29.666356487939026],[-6.908833837220075,3.3175058953004175],[2.2469562466599755,3.954478232219852],[-20.182393301859218,-1.3023995840002125],[1.9986174569194615,0.3827423460800624],[13.267335574120432,0.29930256986050724],[14.521978566999996,-5.414228900399787],[2.9548414034604193,21.832170159860897]]}]},"type_":"prey","pos":[513.4640158809494,336.3026385214753],"orientation":285.37816862625994,"health":1.0,"energy_copy":2.542408624999999,"age":20.33926899999999,"gen":1358894,"fitness":20.33926899999999},"377698168":{"nn":{"node_layers":[{"biases":[-0.4443640774000145,-3.500098552959936,0.5562837466201714,6.932373165060112,1.3566548785799821,-12.138209721119948,-3.357436598740049,-6.112197217219956],"activation_ref":"sigmoid"},{"biases":[3.6712886191402117,-1.5404961954999752],"activation_ref":"sigmoid"}],"connection_layers":[{"input_size":8,"output_size":2,"weights":[[-2.0179642731199356,0.9989873015200509],[2.1630762493401843,6.501240184140108],[-14.117459350339914,-4.71946102393989],[10.998899960640166,-10.651705859399952],[6.1924391050001075,1.1589339098801217],[2.4756770030401136,-2.842848753879719],[-8.147449323339975,0.41886504284012827],[-9.158590675599896,6.390214996339987]],"dyn_weights":[[-14.325068980480197,8.332932135459789],[-2.545184700039987,-2.693202062760077],[4.456821419980101,4.159381122179926],[-5.52757237926002,0.7921542882599584],[3.2170629553398213,4.214940506039932],[3.979699748300091,1.3474256459599951],[18.473518208940508,-2.2055508887200683],[-3.9377034974199234,-4.398840129759913]]}]},"type_":"predator","pos":[816.5438651034223,994.1895345290915],"orientation":-73.62706591130707,"health":0.17228742400000044,"energy_copy":0.0,"age":45.98403199999999,"gen":340726,"fitness":0.0},"377698454":{"nn":{"node_layers":[{"biases":[13.208739722340678,6.906988024120418,-0.5351207777400423,-0.8045243626000056,26.11789758226053,-0.5477700898999438,-0.9790930968999672,3.4009256645206487],"activation_ref":"sigmoid"},{"biases":[4.3773655735400245,10.283950567940003],"activation_ref":"sigmoid"}],"connection_layers":[{"input_size":8,"output_size":2,"weights":[[-3.6671065916204144,31.866071219958304],[-16.75151445097997,-29.712539466861074],[37.713900682060256,4.549804817460971],[-5.07263859947914,33.02444382482006],[13.507716734580047,-3.2356301098795965],[14.431382786600803,-16.46305915408035],[9.243809599540526,6.207173082400366],[8.018374441360763,-19.03339978977933]],"dyn_weights":[[5.8934981358999,-29.637374348419034],[7.21615797762008,3.5545861067804196],[2.356894805099973,3.991812587139852],[-20.256934693819215,-1.2412846887602123],[1.9211222008394615,-0.29713816524006254],[13.426355446920429,-0.408036389700507],[14.404784952680002,-5.141893937479784],[3.0994321853004227,21.714710706580874]]}]},"type_":"prey","pos":[438.62321304413905,426.8059450448168],"orientation":190.17008681299885,"health":1.0,"energy_copy":0.7749046250000002,"age":6.199237000000002,"gen":1358895,"fitness":6.199237000000002},"377698426":{"nn":{"node_layers":[{"biases":[13.150569599900678,6.868694840440419,-0.5300527461400423,-0.7788678297600057,26.110402115620523,-0.4962195548999437,-0.9735457165399677,3.444575839320649],"activation_ref":"sigmoid"},{"biases":[4.326560594700025,10.358583295260004],"activation_ref":"sigmoid"}],"connection_layers":[{"input_size":8,"output_size":2,"weights":[[-3.6411604794204147,31.78876494159831],[-16.744035100819964,-29.673906890861062],[37.77955853634028,4.549813899860969],[-4.987799311079141,32.943424767900076],[13.505741601820045,-3.1931453166395967],[14.468360532200808,-16.44857159344035],[9.175128460340527,6.186525989800365],[7.985067290680766,-19.079369748339335]],"dyn_weights":[[5.9297679797399026,-29.63434438073904],[-7.18191753710008,3.5324254425004193],[2.373869494299972,4.035828933859852],[20.25589737365922,-1.3353049772002124],[-2.0358667048794614,0.3116039836400626],[13.31854042528043,-0.5040059631405068],[14.480564859160005,-5.256264985239784],[3.158113467020423,21.804885937780874]]}]},"type_":"prey","pos":[372.99433060449394,988.7321979848002],"orientation":267.8444302917182,"health":1.0,"energy_copy":1.3040506250000001,"age":10.432405000000001,"gen":1358895,"fitness":10.432405000000001},"377698465":{"nn":{"node_layers":[{"biases":[13.187416178300674,6.882068740440419,-0.5788708705000425,-0.8478175270400057,26.07803924218053,-0.45081130553994375,-0.9969615231799676,3.474707654720649],"activation_ref":"sigmoid"},{"biases":[4.3588709127400245,10.348219819180006],"activation_ref":"sigmoid"}],"connection_layers":[{"input_size":8,"output_size":2,"weights":[[-3.714031640620415,31.756412383038306],[-16.764658379859966,-29.667170135141067],[37.758069753860276,4.536087428420967],[-5.02119628303914,32.992508352340074],[13.523138425820045,-3.3110468929195966],[14.502765153080809,-16.52282029676035],[9.225802318180525,6.204251654160365],[8.022694753520765,-19.08729506201933]],"dyn_weights":[[5.916534157379902,-29.67063896009904],[-7.14013243066008,3.573814389540419],[2.3406629501799716,3.990898810459853],[-20.24706283553922,-1.3018429702002126],[-2.053117827199462,0.2759527720000625],[13.40505846844043,-0.5124751997405069],[14.447255330840004,-5.2393454215597846],[3.196856336580423,21.674811524020875]]}]},"type_":"prey","pos":[68.66374546917862,841.2616447386481],"orientation":155.29283343813384,"health":1.0,"energy_copy":0.49404249999999994,"age":3.9523399999999995,"gen":1358895,"fitness":3.9523399999999995},"377698490":{"nn":{"node_layers":[{"biases":[13.304773457900684,7.123642653280421,-0.6964946847000426,-0.7925388804000052,26.11011898482052,-0.3717630481799435,-0.9172077828999673,3.4299262422006493],"activation_ref":"sigmoid"},{"biases":[4.304478614820026,10.52315109370001],"activation_ref":"sigmoid"}],"connection_layers":[{"input_size":8,"output_size":2,"weights":[[-3.615572624020415,31.652658065398303],[-16.75916082073995,-29.69760550118107],[37.809911568300315,4.394291447220967],[-5.005362785239145,32.971028972260086],[13.742290028460044,-3.1602559773195953],[14.558519510280808,-16.558408344840345],[9.06702672754053,6.279695901760364],[7.934056112080766,-19.086018940099326]],"dyn_weights":[[-5.866852949179901,-29.701454970539032],[-6.927177663300077,3.305189306260418],[-2.271389337979975,3.9018326702598523],[-20.15644104973921,-1.3122238130402122],[1.9911779270794618,0.31369203496006237],[-13.240386012600432,0.29690968054050726],[-14.512976839199997,-5.3339609270797865],[-2.93670813006042,21.792964572380896]]}]},"type_":"prey","pos":[934.0686828211881,930.5619116689987],"orientation":-3.160993561833209,"health":1.0,"energy_copy":0.098221375,"age":0.785771,"gen":1358894,"fitness":0.785771},"377698433":{"nn":{"node_layers":[{"biases":[13.309374220700684,7.134702202920421,-0.6396081108200423,-0.7272377987200053,26.114710885660514,-0.44666019553994335,-0.9892322990599673,3.38995077288065],"activation_ref":"sigmoid"},{"biases":[4.419671654100026,10.40112286854001],"activation_ref":"sigmoid"}],"connection_layers":[{"input_size":8,"output_size":2,"weights":[[-3.770992465660415,31.645044777198297],[-16.83691136365995,-29.66871833942107],[37.84061289018032,4.465004846860967],[-5.015719806159145,32.97863398398007],[13.759609476180044,-3.164187678479596],[14.464627404520808,-16.54289806340035],[9.170254216580531,6.394824452640364],[7.784786629280764,-19.021334293619326]],"dyn_weights":[[5.8264031398199,-29.71073440105903],[6.926827405980076,3.297085367180418],[2.302151508659976,3.9946619183398533],[-20.040348940579218,-1.2505244465202126],[1.9209582001994616,0.35102343824006244],[-13.336947794040434,-0.24936516930050723],[14.548886633800002,-5.336072004999788],[2.9029708306204207,21.75506325410089]]}]},"type_":"prey","pos":[305.62646379399564,141.92870353050486],"orientation":256.02283830945424,"health":1.0,"energy_copy":1.1898523749999999,"age":9.518818999999999,"gen":1358896,"fitness":9.518818999999999},"377698403":{"nn":{"node_layers":[{"biases":[-0.48103027556001465,-3.6574555914399354,0.5094666021801713,6.938649953700111,1.347503711099983,-12.178769055119954,-3.45963388350005,-6.167181471059954],"activation_ref":"sigmoid"},{"biases":[3.5565230865002126,-1.5241812626999753],"activation_ref":"sigmoid"}],"connection_layers":[{"input_size":8,"output_size":2,"weights":[[-2.0360809169199356,1.071505484320051],[2.134383845580181,6.5245467780601105],[-14.019154567539909,-4.543184182739887],[11.126364394840165,-10.634862497159945],[6.20084252264011,1.0234679776801208],[2.5720751392001135,-2.8560581543997214],[-8.053546014139974,0.16386289052012848],[-9.327805519119895,6.341000573379993]],"dyn_weights":[[-14.285138834440193,8.442136728619797],[-2.4483995722799863,2.47501425876008],[4.625360634340101,-4.167436293499926],[-5.430892224180023,1.0067661665799588],[-3.0776759117398225,4.232069840599933],[-3.959114959380085,-1.241075995879995],[18.393056796940485,-2.032507464280067],[-3.7999498564199246,-4.547487673919912]]}]},"type_":"predator","pos":[992.4345471052093,704.8207460983282],"orientation":-101.33116784877024,"health":0.9751789180000001,"energy_copy":2.0,"age":13.20448700000001,"gen":340722,"fitness":2.0},"377698368":{"nn":{"node_layers":[{"biases":[-0.4831799352000147,-3.646177532719935,0.49699708574017126,6.952227298980111,1.356388919299983,-12.180590694119955,-3.46468507226005,-6.183690450699954],"activation_ref":"sigmoid"},{"biases":[3.5408558939002126,-1.5070084229799754],"activation_ref":"sigmoid"}],"connection_layers":[{"input_size":8,"output_size":2,"weights":[[-2.048313106559936,1.0478776640000511],[2.1358122094601812,6.4906284862201105],[-14.00704504781991,-4.540054528979887],[11.129308939920165,-10.634874043919945],[6.234427712080109,1.0402070422801208],[2.580337536760114,-2.8777128688797213],[-8.074679400179974,0.19458098788012848],[-9.328161082919895,6.357879713499993]],"dyn_weights":[[-14.286672387040193,8.416635062619797],[-2.4654304756799865,2.49240824668008],[4.619229942460101,-4.1651031810599255],[-5.445472529860023,0.9751494050599587],[-3.0772519216598226,4.248803597959933],[-3.976513415020085,1.256605621719995],[18.360133932020485,-2.055959332600067],[-3.8081682823399245,-4.5364929165999115]]}]},"type_":"predator","pos":[137.25172260758117,207.07206115666122],"orientation":117.01087517523398,"health":0.7047456220000003,"energy_copy":0.0,"age":16.40302100000001,"gen":340722,"fitness":0.0},"377698341":{"nn":{"node_layers":[{"biases":[13.414830705820684,7.05818487756042,-0.6426356517400423,-0.7359552120800052,26.177177944900528,-0.4603742045799435,-0.9511931820599674,3.3695376655606495],"activation_ref":"sigmoid"},{"biases":[4.271675383020026,10.540623155420008],"activation_ref":"sigmoid"}],"connection_layers":[{"input_size":8,"output_size":2,"weights":[[-3.7102410500204157,31.567178210158303],[-16.89888511533995,-29.67508360922107],[37.8212067731803,4.478048712260965],[-5.070815596879143,32.94684117134009],[13.756791685740044,-3.215648028439595],[14.510191148440805,-16.516677078720342],[9.142815807140531,6.371825070600363],[7.879093733640765,-19.105597725899326]],"dyn_weights":[[5.862127701419897,-29.660997595899026],[-6.936142958620075,3.3179092018604175],[2.2451611196599752,3.9496452884598523],[-20.17725413197922,-1.3015432127602125],[1.9998232759194614,0.3858614858400624],[13.27628439200043,0.28375255954050727],[14.517413153159996,-5.394780791799787],[2.9645885046604192,21.828243932100897]]}]},"type_":"prey","pos":[834.6543913674611,830.2586109596995],"orientation":230.2305026725751,"health":1.0,"energy_copy":2.562705874999999,"age":20.50164699999999,"gen":1358894,"fitness":20.50164699999999},"377698257":{"nn":{"node_layers":[{"biases":[13.293409397340683,7.1093744254404205,-0.6583025731000423,-0.7350805561600053,26.057872588260516,-0.43673391117994337,-0.9907650755399672,3.4052821740406496],"activation_ref":"sigmoid"},{"biases":[4.409069820460027,10.386878941100008],"activation_ref":"sigmoid"}],"connection_layers":[{"input_size":8,"output_size":2,"weights":[[-3.747880761100416,31.644808091838303],[-16.83948361461995,-29.710252702781066],[37.84188729142031,4.468288671380966],[-5.015289818159146,32.943537882020074],[13.764262084580043,-3.1762698374395963],[14.474738980200808,-16.60123582628035],[9.15290053650053,6.388089327720365],[7.848422008600765,-19.01738449537933]],"dyn_weights":[[-5.811715990699899,-29.743832416499032],[6.879559654380075,3.370182261180418],[2.244047865819976,3.970060027219853],[-20.08866605097922,-1.2522563881602122],[1.9253279857194618,0.33988917836006244],[-13.335537989960434,-0.2493205339405072],[-14.51577162764,-5.309821053519787],[-2.89449940690042,21.742556999180895]]}]},"type_":"prey","pos":[619.5106021613825,812.6834351576953],"orientation":-9.487120621601193,"health":1.0,"energy_copy":0.2634859999999978,"age":34.107887999999974,"gen":1358895,"fitness":34.107887999999974},"377694731":{"nn":{"node_layers":[{"biases":[-0.4759134554400147,-3.649254724559935,0.5023606123401713,6.939865959740111,1.356733645779983,-12.192188570759955,-3.45209346918005,-6.166340376539954],"activation_ref":"sigmoid"},{"biases":[3.538081311940213,-1.5203659715399753],"activation_ref":"sigmoid"}],"connection_layers":[{"input_size":8,"output_size":2,"weights":[[-2.0304546376799357,1.053748368120051],[2.149327476660181,6.506336844300111],[-14.01325395557991,-4.524522352299887],[11.110889498760164,-10.619828449039945],[6.220227714240109,1.0254811033201208],[2.5727698839201136,-2.8751295001197215],[-8.061580146699974,0.17516037312012847],[-9.330910559679895,6.346069318539993]],"dyn_weights":[[-14.299828997720192,8.432274163459796],[-2.4678397850399865,2.47435712380008],[4.613328381020101,-4.166912758059926],[-5.432665407820023,0.9943323252999587],[-3.0750878881398225,4.239774773159933],[-3.9709633567800853,1.252791713239995],[18.373219691620484,-2.039944908840067],[-3.8026274936599247,-4.531251328039912]]}]},"type_":"predator","pos":[229.37783845019655,29.512964576669845],"orientation":26.73187427674231,"health":0.8831254200000009,"energy_copy":21.0,"age":554.4590560000005,"gen":340721,"fitness":48.0},"377698278":{"nn":{"node_layers":[{"biases":[-0.49359968624001466,-3.647381878279935,0.4936266731001713,6.932559046460111,1.354598778619983,-12.175630098279955,-3.46308623318005,-6.148354513459954],"activation_ref":"sigmoid"},{"biases":[3.549494918580213,-1.5177560440599753],"activation_ref":"sigmoid"}],"connection_layers":[{"input_size":8,"output_size":2,"weights":[[-2.0141795634399355,1.071797948080051],[2.162683317820181,6.518416637740111],[-14.022671624459909,-4.527361845779887],[11.122499936000164,-10.634103881679945],[6.234881675920109,1.0328593472801209],[2.5810483391201138,-2.8612838177597215],[-8.054503639259973,0.19402928328012847],[-9.348562305759895,6.333388801139993]],"dyn_weights":[[-14.313796999280193,8.416684670939796],[-2.4753421853199864,2.47684603160008],[4.618537933020101,-4.170713736699926],[-5.4509924528200235,0.9964308560599587],[-3.0692006046998226,4.2513981510799335],[-3.958172617180085,1.264544014399995],[18.354542593340483,-2.025019549360067],[-3.8116342148999247,-4.538985119599912]]}]},"type_":"predator","pos":[78.21082205567743,600.7369161509009],"orientation":109.83587172412892,"health":0.5499129160000009,"energy_copy":3.0,"age":31.56288699999997,"gen":340722,"fitness":3.0},"377697071":{"nn":{"node_layers":[{"biases":[-0.4797859931200145,-3.5525760573199356,0.5417044080601714,6.903795456140113,1.3769308536999822,-12.11889110007995,-3.3370468223800493,-6.048611799019957],"activation_ref":"sigmoid"},{"biases":[3.682202973220212,-1.4714321517399755],"activation_ref":"sigmoid"}],"connection_layers":[{"input_size":8,"output_size":2,"weights":[[-1.9906326003199353,0.9895832090800509],[2.174682075820184,6.521054196340108],[-14.178156605139913,-4.755643935899889],[11.00621653908017,-10.680989453519954],[6.229236843560108,1.1093793244801216],[2.536166832920114,-2.824726686039719],[-8.146557281899977,0.3873016486801283],[-9.114144062079895,6.471031811099988]],"dyn_weights":[[14.298703917120196,8.295803273859788],[-2.4684849535199875,-2.631467452160077],[4.461265161940101,4.128094791019926],[-5.54184747158002,0.8269729446999585],[3.2474770615798207,4.1725684072799325],[4.023694005260092,1.369922380359995],[18.404907822340505,-2.2026367374400686],[-3.9248476351799235,4.413637785679913]]}]},"type_":"predator","pos":[279.03132834618674,103.19657724438098],"orientation":-217.99748996712447,"health":0.1933291540000008,"energy_copy":17.0,"age":215.36984999999947,"gen":340725,"fitness":17.0},"377698385":{"nn":{"node_layers":[{"biases":[-0.47328532728001466,-3.630786535079935,0.5163597299001713,6.934141003180111,1.359805214099983,-12.187161126999955,-3.46284380286005,-6.176840231619954],"activation_ref":"sigmoid"},{"biases":[3.543668567420213,-1.5129558022999754],"activation_ref":"sigmoid"}],"connection_layers":[{"input_size":8,"output_size":2,"weights":[[-2.0492727447599357,1.065320350560051],[2.166348539580181,6.489722622900111],[-14.02106553953991,-4.516688793779887],[11.123840579080165,-10.621911343999944],[6.202629415640109,1.0143083845601208],[2.5866979092401134,-2.8726081398797216],[-8.046076115059973,0.16627952892012848],[-9.344423999239895,6.352999443979993]],"dyn_weights":[[-14.315389246920192,8.419585386499797],[-2.4737558813999865,-2.46385914028008],[4.616336430540101,-4.153296591259926],[-5.445424550460023,0.9873024343399588],[3.0914885399398226,4.258502427479933],[-3.957038660260085,1.264912999559995],[18.392751530740483,-2.042495338640067],[-3.8050291347799248,-4.530579317959912]]}]},"type_":"predator","pos":[211.55829076942817,94.83275751426207],"orientation":-224.54961681202096,"health":0.8984416600000003,"energy_copy":1.0,"age":14.958992000000007,"gen":340722,"fitness":1.0},"377698011":{"nn":{"node_layers":[{"biases":[-0.47487047076001454,-3.5655987117599355,0.5071078177801716,6.915875343700112,1.3525887895799822,-12.11087473811995,-3.3458172795800496,-6.049059732339957],"activation_ref":"sigmoid"},{"biases":[3.691494258420212,-1.4808307586199754],"activation_ref":"sigmoid"}],"connection_layers":[{"input_size":8,"output_size":2,"weights":[[-1.9951288569199355,1.0058252262000509],[2.1586398289801845,6.539307411380109],[-14.132349459659912,-4.736565436779889],[10.951250279600169,-10.695297755639954],[6.190311874760107,1.0857469068401213],[2.594811547880114,-2.8337526359997196],[-8.09426816441998,0.45670381584012837],[-9.170046896879894,6.377392375259987]],"dyn_weights":[[-14.296645682800198,8.285178494379789],[-2.4989157986799877,-2.6412035323600773],[4.4514791272601,4.1633252558199265],[-5.54542350346002,0.8668588291799585],[3.2763189510198214,4.204765757239933],[4.017748795820091,-1.3862940447199952],[18.477012588820507,-2.1461704749600683],[-3.999157865899923,-4.339780699799912]]}]},"type_":"predator","pos":[519.3498458265497,573.6799780225755],"orientation":-110.82580429829446,"health":0.18899840400000026,"energy_copy":2.0,"age":72.83342200000001,"gen":340724,"fitness":2.0},"377698480":{"nn":{"node_layers":[{"biases":[13.193744426660675,6.8848624006004195,-0.5943498995400425,-0.8042454634000056,26.06366664946053,-0.4870666673399437,-0.9778937256199675,3.451806040680649],"activation_ref":"sigmoid"},{"biases":[4.357749020540025,10.401452296580004],"activation_ref":"sigmoid"}],"connection_layers":[{"input_size":8,"output_size":2,"weights":[[-3.712375701180415,31.806003968398304],[-16.768195834059963,-29.70303829242107],[37.717167096020276,4.573197489220968],[-4.96936025355914,32.92804427610007],[13.513608450060046,-3.283348392559597],[14.493274588360809,-16.430920158840344],[9.204321947580526,6.234925496280366],[7.978223712000766,-19.054735544659334]],"dyn_weights":[[-5.9298161994199035,-29.619785713059045],[-7.1420121429800805,3.544270718140419],[2.3810136534999713,3.9726135665798528],[-20.240088812859224,-1.3567489581602126],[-2.0264495561194615,0.2770258274800625],[13.41987530576043,-0.48071953398050693],[14.451471205760004,-5.247732907919784],[3.196276589300423,21.708359590660873]]}]},"type_":"prey","pos":[813.2484415941507,575.1253636100512],"orientation":153.0121859187916,"health":1.0,"energy_copy":0.28150250000000004,"age":2.2520200000000004,"gen":1358896,"fitness":2.2520200000000004},"377695995":{"nn":{"node_layers":[{"biases":[-0.45140022072001473,-3.669730460359935,0.49444065290017125,6.883577455820112,1.356701168779983,-12.129958998599953,-3.4325911553000497,-6.145578730619953],"activation_ref":"sigmoid"},{"biases":[3.5770517997002127,-1.4801974568199752],"activation_ref":"sigmoid"}],"connection_layers":[{"input_size":8,"output_size":2,"weights":[[-2.053201455159935,1.0438561708400511],[2.152779151420181,6.497203811620111],[-14.021732999819909,-4.5039431708598885],[11.104843189080164,-10.596646900839946],[6.252537609000109,1.0543685559601208],[2.5706988612001136,-2.8640119889997213],[-8.030018533739975,0.20706060892012854],[-9.252669640319896,6.345387931259992]],"dyn_weights":[[-14.284737338240193,8.403313722699796],[-2.4429513186799863,-2.46361839728008],[4.608492198180101,-4.174899475539926],[-5.416993151180024,1.0093848918599588],[-3.070214193859823,4.273355121199933],[-3.9690693807400854,1.277772384999995],[18.326929992060485,2.0566399816400676],[3.789039078419924,-4.554593037159912]]}]},"type_":"predator","pos":[889.8828904564898,951.8100594997709],"orientation":7.641806232563722,"health":0.8006896720000005,"energy_copy":35.0,"age":369.8634990000013,"gen":340721,"fitness":35.0},"377698081":{"nn":{"node_layers":[{"biases":[-0.5064985767200145,-3.5862209919999355,0.5109743396201715,6.914811140460111,1.3312801440599822,-12.14460663935995,-3.3270165535400493,-6.037050520939958],"activation_ref":"sigmoid"},{"biases":[3.668815208700212,-1.4804599236199756],"activation_ref":"sigmoid"}],"connection_layers":[{"input_size":8,"output_size":2,"weights":[[-1.9967802239599355,0.9967086417200509],[2.154179018980184,6.5382669981401085],[-14.149860826979912,-4.757920956499889],[10.974224346440169,-10.714782497199954],[6.213927506200107,1.0925793870401213],[2.596207831160114,-2.8265433190797196],[-8.106785835859979,0.46164886412012834],[-9.192355404679894,6.397894337979987]],"dyn_weights":[[-14.285089925200198,8.310622845139788],[-2.4983839390799876,-2.6652049156800777],[4.4612469501401,-4.157319448139927],[-5.554373361340019,0.8902153172999584],[3.2547785987798212,4.194583576919934],[4.02496842178009,-1.3584402729599951],[18.481211485660506,-2.1537888687200684],[-3.989492721419923,-4.332624528719912]]}]},"type_":"predator","pos":[538.2873702493081,811.4377345468644],"orientation":-354.3035855117351,"health":0.30381844400000013,"energy_copy":2.0,"age":62.82749200000004,"gen":340724,"fitness":2.0},"377698475":{"nn":{"node_layers":[{"biases":[13.201677274380678,6.858612740840419,-0.5177458633000422,-0.8056040412000055,26.092034072020528,-0.4532928563799438,-0.9956156908999672,3.4234193385606484],"activation_ref":"sigmoid"},{"biases":[4.366050043460025,10.383281371260004],"activation_ref":"sigmoid"}],"connection_layers":[{"input_size":8,"output_size":2,"weights":[[-3.7181245354604147,31.749531825118304],[-16.79314378981996,-29.682030407301063],[37.772920994980275,4.549164825300969],[-5.0486378480391405,32.98153032350008],[13.593762420180047,-3.1913009151195966],[14.465717707640808,-16.46271777580035],[9.136274575740524,6.211384561800365],[7.995945994560768,-19.075967038779332]],"dyn_weights":[[-5.887734411939902,-29.68605512097904],[-7.12010063886008,3.48275371354042],[2.321377196179972,4.044830977099853],[-20.243492686499224,-1.3493504434802126],[-2.1164972833194615,-0.33705930908006254],[13.313528683320431,-0.5006629639405069],[-14.438989500240002,-5.240216118759783],[3.2102447044204223,21.66955401366087]]}]},"type_":"prey","pos":[35.08705035439304,275.2772386066318],"orientation":-161.97313501939533,"health":1.0,"energy_copy":0.31265675000000004,"age":2.5012540000000003,"gen":1358895,"fitness":2.5012540000000003},"377698466":{"nn":{"node_layers":[{"biases":[13.198712509500679,6.8405902536004195,-0.5129157805400423,-0.7963828241600055,26.09277759142053,-0.4511886809799438,-1.0043170720199672,3.4299138928806485],"activation_ref":"sigmoid"},{"biases":[4.339716497940025,10.390835214940005],"activation_ref":"sigmoid"}],"connection_layers":[{"input_size":8,"output_size":2,"weights":[[-3.7113362900604145,31.7460301474383],[-16.80140850645996,-29.672760288941063],[37.75179776110027,4.525880819180969],[-5.020547276959141,32.99254580686008],[13.593086352380046,-3.1967838857595963],[14.474383875920807,-16.452673235800347],[9.130172128140524,6.2501729264803645],[7.991866576680768,-19.074374769539332]],"dyn_weights":[[5.890953646579902,-29.698625068979045],[-7.11216414150008,3.4883222978204196],[2.333999349699972,4.044478959739853],[-20.27038762361922,-1.3508705477202128],[-2.1351551898794616,-0.31146486264006257],[13.315066241520432,-0.5042205848205069],[14.471113860440003,-5.266377383239783],[3.236270735620422,21.68237742970087]]}]},"type_":"prey","pos":[43.07155737641002,231.5968615788146],"orientation":79.97767426930287,"health":1.0,"energy_copy":0.49404249999999994,"age":3.9523399999999995,"gen":1358895,"fitness":3.9523399999999995},"377698437":{"nn":{"node_layers":[{"biases":[13.307560911860685,7.156586204920421,-0.7225226861000426,-0.7565765461600052,26.11342904222052,-0.41596180217994355,-0.8850601658199673,3.4418984038806495],"activation_ref":"sigmoid"},{"biases":[4.276188363060026,10.50656421430001],"activation_ref":"sigmoid"}],"connection_layers":[{"input_size":8,"output_size":2,"weights":[[-3.622429772380415,31.676474869998298],[-16.809581323299952,-29.643476063901065],[37.76076116430031,4.382577897700967],[-4.976504836959145,32.97098862382009],[13.752287610980044,-3.178812826719595],[14.600914676920807,-16.566619798880343],[9.094424682300529,6.285280140560363],[7.963017677840766,-19.05732817157933]],"dyn_weights":[[5.826084627659901,-29.69267164689903],[-6.924622113300077,3.2872486468204176],[-2.2171716315799754,3.896987110819852],[20.153085432139214,-1.2659663371602123],[2.0214352699594618,0.29572304644006236],[-13.244549555160432,0.31202526606050723],[-14.530369745199996,-5.320934454519787],[2.9525226690604196,21.804325013340893]]}]},"type_":"prey","pos":[184.47448056793408,420.62304102604685],"orientation":-115.27355542642043,"health":1.0,"energy_copy":1.0483136249999998,"age":8.386508999999998,"gen":1358894,"fitness":8.386508999999998},"377697936":{"nn":{"node_layers":[{"biases":[-0.4848202201600145,-3.5636374963999358,0.5577092591401714,6.906231480460113,1.3918488628199823,-12.114545257919948,-3.337470484700049,-6.049189927899957],"activation_ref":"sigmoid"},{"biases":[3.694682836500212,-1.4557962842999757],"activation_ref":"sigmoid"}],"connection_layers":[{"input_size":8,"output_size":2,"weights":[[-2.0081417018399352,1.0176661263600508],[2.1635445869401844,6.547374685660108],[-14.188270902659912,-4.73335212917989],[10.981703768160168,-10.715079837119953],[6.226277485040108,1.1272309608801216],[2.528560783280114,-2.821955023039719],[-8.158869743419977,0.3892947122801283],[-9.091402771679896,6.4646166512199885]],"dyn_weights":[[14.292282615280195,8.267858922259787],[-2.477656628079987,-2.645155627600077],[4.440637599140101,4.1524048212199265],[-5.53682226910002,0.8213045399799584],[3.259539424699821,4.198929781799933],[-4.021979910740091,1.383599726399995],[18.429145047100505,-2.1930887224800686],[-3.9154725812999236,4.405903595999913]]}]},"type_":"predator","pos":[52.237247179211444,26.174674975871238],"orientation":-74.47287940733332,"health":0.2897715680000006,"energy_copy":5.0,"age":83.70140899999997,"gen":340725,"fitness":5.0},"377698171":{"nn":{"node_layers":[{"biases":[13.174565794580678,6.872937437160418,-0.5626563969400423,-0.7428044127600055,26.094169367460527,-0.548000461779944,-1.0415455488599674,3.3902540916406485],"activation_ref":"sigmoid"},{"biases":[4.403442941860023,10.369370726180003],"activation_ref":"sigmoid"}],"connection_layers":[{"input_size":8,"output_size":2,"weights":[[-3.576926509140415,31.805775787158304],[-16.781163284419968,-29.678888307341076],[37.67540862394027,4.55530139274097],[-5.033354504959141,33.058358655220076],[13.465445760180046,-3.2801165725995967],[14.465388916520807,-16.505080919160346],[9.305973044700524,6.161674893960365],[7.945262309280766,-19.035097087739327]],"dyn_weights":[[5.8440726588999015,-29.684457395059038],[-7.141113003340079,3.53183521638042],[-2.4023092975799725,3.9182509422998524],[-20.23551667585922,-1.3223471718402122],[2.0177422595594616,-0.32489084800006246],[13.471053502960427,-0.45073639534050697],[14.478964485920004,-5.245451707119785],[-3.1083073507804224,21.700770393580882]]}]},"type_":"prey","pos":[881.5884114203745,586.2505221457061],"orientation":103.96442249724389,"health":1.0,"energy_copy":0.6554406249999997,"age":45.24352500000001,"gen":1358893,"fitness":45.24352500000001},"377697808":{"nn":{"node_layers":[{"biases":[-0.4969443354800147,-3.6319661985999354,0.5030960106201713,6.9157173171001105,1.354850440259983,-12.215457142599954,-3.46563415594005,-6.142642589099954],"activation_ref":"sigmoid"},{"biases":[3.555607119180213,-1.5389623396599752],"activation_ref":"sigmoid"}],"connection_layers":[{"input_size":8,"output_size":2,"weights":[[-2.017291290679936,1.023667470040051],[2.1565631805801813,6.50958828762011],[-14.03290120465991,-4.520258489099887],[11.130797598200164,-10.627664553399946],[6.186164508400109,1.0307293390801209],[2.5496579660401135,-2.8703248419997216],[-8.040846718139974,0.1525356354801285],[-9.322114315319894,6.320638485819993]],"dyn_weights":[[-14.231474065080192,8.411189264379797],[-2.4678690499999867,2.470023422280079],[-4.5868207797001,-4.139671018699925],[-5.429976655940024,1.002293893019959],[-3.057420690539823,4.2094979382799345],[-3.9454956653000854,1.255925137319995],[18.364634826220485,-2.0509642802000667],[3.8067268687799247,-4.532639610599912]]}]},"type_":"predator","pos":[427.0206209223198,297.8755482023462],"orientation":50.474044442749225,"health":0.3495701220000002,"energy_copy":7.0,"age":103.33721,"gen":340723,"fitness":7.0},"377696190":{"nn":{"node_layers":[{"biases":[-0.4737768305200147,-3.685775103039935,0.5139843574201713,6.91825998898011,1.361631987659983,-12.202545661199954,-3.43498120894005,-6.161067036619954],"activation_ref":"sigmoid"},{"biases":[3.510576679900213,-1.5365059110999753],"activation_ref":"sigmoid"}],"connection_layers":[{"input_size":8,"output_size":2,"weights":[[-2.0332342346799357,1.066293611720051],[2.1707831922601812,6.52522804350011],[-13.997666019099908,-4.532441462459888],[11.134698218960164,-10.615429226719945],[6.222561459200109,0.9983419056801207],[2.533023114600114,-2.8637124129997216],[-8.064134696259975,0.17515384392012848],[-9.333378737519894,6.329284354579993]],"dyn_weights":[[14.266637546600194,8.470910940819797],[-2.4728876920799863,2.45392084672008],[4.5998920184201015,-4.145414239499926],[-5.441317858900024,1.0033752950599588],[3.0890981128198227,4.251254970279933],[-3.962405826220085,1.285180195839995],[18.355915921860486,-2.0313052994800667],[3.7941640770999245,-4.534841167199912]]}]},"type_":"predator","pos":[93.60910217138765,647.4339494452993],"orientation":9.190346863866875,"health":0.4048180419999997,"energy_copy":29.0,"age":343.3167750000009,"gen":340722,"fitness":29.0},"377698452":{"nn":{"node_layers":[{"biases":[13.308664438140685,7.112443794160421,-0.6377310879400422,-0.7241161303600054,26.086022225700514,-0.44281375645994336,-1.0282541166199672,3.4241671377606497],"activation_ref":"sigmoid"},{"biases":[4.405021755420027,10.41293823622001],"activation_ref":"sigmoid"}],"connection_layers":[{"input_size":8,"output_size":2,"weights":[[-3.747142564300416,31.6516655818383],[-16.80478388893995,-29.724367477101065],[37.81182559662032,4.431104032180967],[-5.042826782799146,32.947516975860076],[13.761146883700043,-3.1534119945595966],[14.493577228720808,-16.61046948168035],[9.13864188874053,6.378761568760365],[7.8681213252007645,-19.031596050179328]],"dyn_weights":[[-5.8444582509398995,-29.724764131339033],[6.8740663755800755,3.3522372210204177],[2.273484613139976,3.9457095245398532],[-20.08775610709922,-1.2603899679602124],[1.914022692679462,0.3222006586000624],[-13.325265511520433,-0.23217770230050722],[-14.499674014759998,-5.317544429799788],[-2.8870437233804203,21.761493542460894]]}]},"type_":"prey","pos":[939.6602520103073,905.1435018437982],"orientation":-75.77901311524415,"health":1.0,"energy_copy":0.7929392500000002,"age":6.343514000000002,"gen":1358895,"fitness":6.343514000000002},"377698406":{"nn":{"node_layers":[{"biases":[13.182002115820678,6.8606747914404185,-0.5675024385000423,-0.7564230749600055,26.095328220820527,-0.555443331939944,-1.0404606020999674,3.3723749688006484],"activation_ref":"sigmoid"},{"biases":[4.421196319140023,10.357794206300003],"activation_ref":"sigmoid"}],"connection_layers":[{"input_size":8,"output_size":2,"weights":[[-3.585510593700415,31.792519967838302],[-16.772767599699968,-29.697776076061075],[37.68574122426027,4.5457850544209695],[-5.021984271079141,33.05613356042007],[13.462831436300046,-3.2898298252395968],[14.472569586840807,-16.507177984480347],[9.289101209460524,6.143290814280365],[7.929145796640766,-19.016137822259328]],"dyn_weights":[[5.860448095139901,-29.67199771085904],[-7.158785416940079,3.54529001730042],[-2.4034807608999724,3.9085733453798523],[-20.22076457221922,-1.3312342120802123],[2.0229345305994615,-0.3332145927200625],[13.474590726640427,-0.43841622014050696],[14.494164915640004,-5.251400475959785],[-3.0886233960604224,21.68402594318088]]}]},"type_":"prey","pos":[422.0978740359592,375.09399421978907],"orientation":160.51933788666696,"health":1.0,"energy_copy":1.6241381250000009,"age":12.993105000000007,"gen":1358894,"fitness":12.993105000000007},"377698200":{"nn":{"node_layers":[{"biases":[-0.4680016149600145,-3.503265682759936,0.5798208596201715,6.915712555980113,1.337249790859982,-12.131803667959948,-3.360802990540049,-6.093100516099956],"activation_ref":"sigmoid"},{"biases":[3.691580456500212,-1.5103024322599752],"activation_ref":"sigmoid"}],"connection_layers":[{"input_size":8,"output_size":2,"weights":[[-2.012224080519936,1.0085461587600508],[2.1276538195001846,6.512275860660107],[-14.116885382299913,-4.72733005081989],[11.022460648800168,-10.654409527119952],[6.191414748400107,1.1609990756401216],[2.465500432560114,-2.831266787359719],[-8.157476412179975,0.4203356363601283],[-9.174579840399897,6.3712006862599875]],"dyn_weights":[[-14.314902370160196,8.325862008739788],[-2.530846591879987,-2.676322051560077],[4.469474266740101,4.1274688680599265],[-5.56231248566002,0.7866795670199584],[3.2170492116998215,4.215663660239932],[3.969936719100091,1.352158858919995],[18.444123999180505,-2.2064179372000683],[-3.9324302362599233,-4.4293780415599135]]}]},"type_":"predator","pos":[840.128823105144,929.1458053296989],"orientation":-103.38294960305566,"health":0.2581144840000005,"energy_copy":0.0,"age":41.215862,"gen":340726,"fitness":0.0},"377698453":{"nn":{"node_layers":[{"biases":[13.204646942860677,6.878801996360418,-0.5748102707000424,-0.8474235405200056,26.06183905466053,-0.4596427330599437,-1.0014779786999675,3.4942258841606493],"activation_ref":"sigmoid"},{"biases":[4.343786659340024,10.391753685500005],"activation_ref":"sigmoid"}],"connection_layers":[{"input_size":8,"output_size":2,"weights":[[-3.688402296420415,31.772798288158306],[-16.785428334419965,-29.69391580102107],[37.73741297194027,4.537821775660968],[-5.010749525799141,32.97220870694007],[13.485528137580046,-3.291009797039597],[14.505380107720809,-16.493537165680348],[9.160014246780525,6.235453261280365],[8.009774433800768,-19.085563938219334]],"dyn_weights":[[5.917591621139903,-29.644687131179044],[-7.15241193222008,3.5643806512204192],[2.3902284442199715,3.9754338839398526],[-20.284629177739223,-1.3509570535202124],[-2.0227228003594617,0.2552773152400625],[13.424408974320428,-0.46883216878050693],[14.463742340920003,-5.213885362119784],[3.1969906423404226,21.742216129020875]]}]},"type_":"prey","pos":[592.9607494995556,260.1060385444528],"orientation":187.8067030592798,"health":1.0,"energy_copy":0.7749046250000002,"age":6.199237000000002,"gen":1358895,"fitness":6.199237000000002},"377698485":{"nn":{"node_layers":[{"biases":[13.194401406860676,6.882691963040419,-0.5929671778200424,-0.8079717386400056,26.08987013722053,-0.4693785976999437,-0.9752042954999675,3.460972575320649],"activation_ref":"sigmoid"},{"biases":[4.357711604020025,10.383898771060004],"activation_ref":"sigmoid"}],"connection_layers":[{"input_size":8,"output_size":2,"weights":[[-3.7001696179804147,31.804337835958304],[-16.764192623739962,-29.67812020242107],[37.70761412774027,4.579714679620968],[-4.991019588959141,32.89923835494007],[13.482943709540045,-3.264298932039597],[14.49185839092081,-16.460115724880346],[9.217505664780525,6.203946259360365],[8.009124788960767,-19.080549279779333]],"dyn_weights":[[-5.933687573939903,-29.608237186539043],[-7.12014129250008,3.556798614860419],[2.387238735379971,3.9823650243798525],[-20.237251054299225,-1.3758699458802126],[-2.0247513355194613,0.2449976096400625],[13.42327926732043,-0.4607816312205069],[14.449521358560004,-5.218502631199784],[3.188891082300423,21.720555552300873]]}]},"type_":"prey","pos":[700.5846032064948,636.4364402139763],"orientation":-160.3785691341998,"health":1.0,"energy_copy":0.211307625,"age":1.690461,"gen":1358896,"fitness":1.690461},"377697309":{"nn":{"node_layers":[{"biases":[-0.4754128450800147,-3.6318611926399353,0.4845479481401713,6.903009630740111,1.3465004908199831,-12.191547603639954,-3.46670519846005,-6.172401493339954],"activation_ref":"sigmoid"},{"biases":[3.584356799780213,-1.5597752719399751],"activation_ref":"sigmoid"}],"connection_layers":[{"input_size":8,"output_size":2,"weights":[[-2.019662124679936,1.0598101226800511],[2.1569238017001813,6.51524002954011],[-14.03282112613991,-4.490254964539887],[11.146058359360163,-10.638066424039947],[6.215024132800109,1.0281736868801208],[2.5750681336401136,-2.8584008483597216],[-8.022804217379974,0.1596469771201285],[-9.324936827439894,6.315964212899993]],"dyn_weights":[[-14.225354010560192,8.404003862619795],[-2.4614874182399866,2.4915769690400795],[4.5795365023001,-4.1651066154199246],[-5.411807848020024,1.007946464779959],[-3.052575223419823,4.2268888433199345],[-3.9438074879400853,1.2514196222399951],[18.351244130260486,-2.0505498303200667],[3.831579550859925,-4.541957492959912]]}]},"type_":"predator","pos":[927.3041409855706,808.7417882768926],"orientation":138.800983401425,"health":0.7959714200000008,"energy_copy":21.0,"age":179.39732799999965,"gen":340723,"fitness":21.0},"377696749":{"nn":{"node_layers":[{"biases":[-0.49453477072001467,-3.649362432159935,0.5004132436201714,6.963915190820111,1.3844062190599828,-12.207632135919955,-3.45234710550005,-6.174303153539953],"activation_ref":"sigmoid"},{"biases":[3.526643159820213,-1.5166924960999753],"activation_ref":"sigmoid"}],"connection_layers":[{"input_size":8,"output_size":2,"weights":[[-2.0472762617599356,1.027575663280051],[2.1659679373001812,6.511188672700111],[-14.00089133309991,-4.518810288299887],[11.083344161760163,-10.662958441319946],[6.22975883280011,1.0052184695601207],[2.586296589800114,-2.8569909352797214],[-8.036384597019973,0.1843420059601285],[-9.349114584999894,6.304741577619993]],"dyn_weights":[[-14.297468597520192,8.427367986939796],[-2.4469146557999863,-2.4563800434400793],[4.610482186580101,-4.186380664099926],[-5.438137006340023,0.9733885472599588],[-3.079910328179823,4.2403679461999335],[3.947386332900085,1.266331134279995],[18.356773532460487,-2.001561600440067],[3.7785287575399247,-4.525887210959913]]}]},"type_":"predator","pos":[207.60625610413612,122.32825650682733],"orientation":-268.43569054034845,"health":0.6806319880000012,"energy_copy":22.0,"age":260.54704999999984,"gen":340722,"fitness":22.0},"377698487":{"nn":{"node_layers":[{"biases":[13.201522882740676,6.876968958960418,-0.5965518737800424,-0.8037560584000055,26.056817188100528,-0.44996627017994373,-0.9856926434199674,3.489166746160649],"activation_ref":"sigmoid"},{"biases":[4.376826904020025,10.360658883020003],"activation_ref":"sigmoid"}],"connection_layers":[{"input_size":8,"output_size":2,"weights":[[-3.7046670960204144,31.816407049278304],[-16.755565029659962,-29.710778693741066],[37.77794098982028,4.589060016180968],[-4.99408933695914,32.94300848090007],[13.485205684220045,-3.263509772519597],[14.47861834388081,-16.493265470040345],[9.237028239780525,6.232408415240365],[7.999967333280766,-19.061602742699332]],"dyn_weights":[[5.913699723579902,-29.621524036579043],[-7.172535761060081,3.554966411700419],[2.369485939179971,4.010831591099852],[-20.219813623379224,-1.3553494963602126],[2.028501066959462,0.23515971548006248],[13.423832727200429,-0.4707638784605069],[14.453008953920005,-5.239666506959784],[3.192593430340423,21.725055179020874]]}]},"type_":"prey","pos":[892.2227684067025,86.38029579353324],"orientation":-188.76140694945582,"health":1.0,"energy_copy":0.17984075,"age":1.438726,"gen":1358896,"fitness":1.438726},"377698113":{"nn":{"node_layers":[{"biases":[-0.48817401008001454,-3.5762284776799356,0.5260902441801715,6.950821626220112,1.3461425631399822,-12.13001233291995,-3.3241326591000493,-6.036983227419958],"activation_ref":"sigmoid"},{"biases":[3.700013363140212,-1.5086191671399756],"activation_ref":"sigmoid"}],"connection_layers":[{"input_size":8,"output_size":2,"weights":[[-2.0043824409199353,1.015707294400051],[2.1617108316201845,6.544241218900108],[-14.145264198499913,-4.74313867269989],[10.974154785240168,-10.700203169239954],[6.208091110000107,1.0758403319201213],[2.5644497236001143,-2.82925642575972],[-8.10706712797998,0.4630662354801284],[-9.198180512599894,6.383000358579987]],"dyn_weights":[[-14.262868337800198,8.295057003779789],[-2.5201243239999878,-2.6583295073600777],[4.4401281526201,4.182747930099927],[-5.54909958066002,0.8812370671799584],[3.278682400819821,4.217462360959933],[4.017011336060091,-1.353047806199995],[18.45081264050051,-2.1467317846800684],[-4.013531608259923,-4.318471914719913]]}]},"type_":"predator","pos":[202.4264854712055,963.4642499407491],"orientation":-24.750297749941645,"health":0.8335555060000013,"energy_copy":4.0,"age":58.23638300000001,"gen":340724,"fitness":4.0},"377697879":{"nn":{"node_layers":[{"biases":[-0.5013996714800145,-3.559769843799936,0.5755499023001714,6.933027444860113,1.3829110564199822,-12.143915000599948,-3.3628720120600493,-6.072337571259957],"activation_ref":"sigmoid"},{"biases":[3.712960279580212,-1.4805061597799756],"activation_ref":"sigmoid"}],"connection_layers":[{"input_size":8,"output_size":2,"weights":[[-1.9844517355999352,0.9977752183600509],[2.175742796220184,6.5474627689801075],[-14.168791553259913,-4.74266552853989],[10.994437571400168,-10.700389957599954],[6.241885959560109,1.0972630403201216],[2.5095337913201137,-2.818110724959719],[-8.154911761939976,0.4173748014801283],[-9.128658468159895,6.439833924299989]],"dyn_weights":[[14.275307630600196,8.280683203539787],[-2.4873169744799872,-2.6185471461200773],[4.460803309540101,4.156184284419926],[-5.54883104354002,0.8209769491399584],[3.271847946539821,4.185154398959933],[4.020907950940091,1.389264241759995],[18.429328124740504,-2.213441177880069],[-3.9008271332599236,4.437338884279913]]}]},"type_":"predator","pos":[114.34866386367479,903.6342008102581],"orientation":-7.9707258140915,"health":0.7207687260000004,"energy_copy":7.0,"age":92.897877,"gen":340725,"fitness":7.0},"377698492":{"nn":{"node_layers":[{"biases":[13.302146218660685,7.106432722360421,-0.6912431754600427,-0.7522157540800052,26.135958030660518,-0.4080683044199435,-0.9115186302199674,3.429574033360649],"activation_ref":"sigmoid"},{"biases":[4.3345402273000255,10.49346143886001],"activation_ref":"sigmoid"}],"connection_layers":[{"input_size":8,"output_size":2,"weights":[[-3.6378500213404155,31.681144477598302],[-16.75243473921995,-29.707205779901066],[37.83133863822031,4.366684807980967],[-5.022509549839145,32.98705186194008],[13.740129681140044,-3.1603420732395953],[14.574777681400807,-16.598204475880344],[9.08560829726053,6.306728730840364],[7.908325522880766,-19.080273770979325]],"dyn_weights":[[5.870380578099901,-29.709751044059033],[-6.958371279740076,3.310547520900418],[2.2938627008599752,3.9296226335798523],[-20.183905553739212,-1.3167704774002122],[1.9901975929994618,0.30221871148006235],[-13.285687966280431,0.31557914094050726],[-14.514719722239997,-5.323940119359786],[-2.92964705090042,21.780976811220892]]}]},"type_":"prey","pos":[311.60580368138443,128.27441759037848],"orientation":-22.24262699875442,"health":1.0,"energy_copy":0.034108875,"age":0.272871,"gen":1358894,"fitness":0.272871},"377697611":{"nn":{"node_layers":[{"biases":[-0.48439782008001453,-3.5466199731999355,0.5715918294601714,6.907733411620113,1.3634793854199823,-12.118295274759948,-3.3499646942600494,-6.066713358299957],"activation_ref":"sigmoid"},{"biases":[3.701386583340212,-1.4658002764599756],"activation_ref":"sigmoid"}],"connection_layers":[{"input_size":8,"output_size":2,"weights":[[-1.9730537692399353,1.002144010720051],[2.1567414049401843,6.551831178220108],[-14.180183049659913,-4.74531186709989],[11.006194611600169,-10.704801198919954],[6.242614813080109,1.1041547531201217],[2.515705110520114,-2.797666999479719],[-8.170451255939977,0.4205016686001283],[-9.096748399879894,6.446188186299988]],"dyn_weights":[[14.271675376440196,8.289949548579786],[-2.4781054611999873,-2.620572645120077],[4.438754032980101,4.145805158099926],[-5.52801598146002,0.7994532571399585],[3.2322854458198207,4.179039366159933],[4.006557358940092,1.383549644039995],[18.406676105860505,-2.209851139760069],[-3.9190963480999237,4.413872061919913]]}]},"type_":"predator","pos":[490.7238981488554,260.33984594327706],"orientation":-197.9746319698413,"health":0.6738580900000006,"energy_copy":9.0,"age":135.50323900000018,"gen":340725,"fitness":9.0},"377698227":{"nn":{"node_layers":[{"biases":[-0.4380763480800145,-3.531904113679936,0.5635912445001714,6.913491777540113,1.355344109779982,-12.125279988639948,-3.368366270540049,-6.105686865179956],"activation_ref":"sigmoid"},{"biases":[3.6837779689802117,-1.533957516739975],"activation_ref":"sigmoid"}],"connection_layers":[{"input_size":8,"output_size":2,"weights":[[-1.9896115688799358,1.0213533724400508],[2.1370426801001843,6.499131081820108],[-14.110167437539912,-4.71365554897989],[11.015132117040167,-10.638641688559952],[6.201944650400107,1.1917470666001218],[2.469465940720114,-2.814716625479719],[-8.171902829899976,0.43857613756012825],[-9.159787807959896,6.368128782459987]],"dyn_weights":[[-14.318182530040197,8.31309450765979],[-2.552412765639987,-2.695029924280077],[4.465640452900101,4.140114688699926],[-5.53077111006002,0.7966912602199584],[3.2229482591398213,4.220612393999932],[3.970394712660091,1.3683863943999952],[18.442087170180507,-2.1861281699600683],[-3.9164661498199234,-4.411736306439913]]}]},"type_":"predator","pos":[599.5513181826778,550.4961690729934],"orientation":-116.64273739488945,"health":0.3071519920000004,"energy_copy":0.0,"age":38.491555999999996,"gen":340726,"fitness":0.0},"377698472":{"nn":{"node_layers":[{"biases":[13.201921017980677,6.901443810760418,-0.5569255952600423,-0.8104985646400056,26.14019027018053,-0.5477074319799438,-1.0062766313799671,3.419718733200649],"activation_ref":"sigmoid"},{"biases":[4.359411855820024,10.297077612180003],"activation_ref":"sigmoid"}],"connection_layers":[{"input_size":8,"output_size":2,"weights":[[-3.6464500956204144,31.873705457598305],[-16.736727810539968,-29.731138043781076],[37.72745400954026,4.58605091590097],[-5.07468756995914,33.04245451902006],[13.498180636740047,-3.2295735529595966],[14.431545352080802,-16.50266953440035],[9.246921971860528,6.206251674760366],[8.033090853840763,-19.06473849577933]],"dyn_weights":[[5.8715913579399,-29.620608745459034],[-7.22854447090008,-3.5726995529404197],[2.3469872045799725,3.989764363539852],[-20.237659946379218,-1.3031821299202124],[1.9375742658794615,-0.2926431465600626],[13.400283300320428,-0.415747728540507],[14.45792840548,5.164867854799784],[3.078521510060423,21.720388276500877]]}]},"type_":"prey","pos":[716.8702436705865,346.9134915636931],"orientation":3.288474268251832,"health":1.0,"energy_copy":0.351023625,"age":2.808189,"gen":1358895,"fitness":2.808189},"377698059":{"nn":{"node_layers":[{"biases":[-0.5113212249600145,-3.5853441653999356,0.5370802608201715,6.926281117020111,1.318398863059982,-12.12006157655995,-3.3197586357800493,-6.055291658779957],"activation_ref":"sigmoid"},{"biases":[3.662835454260212,-1.4916803258999756],"activation_ref":"sigmoid"}],"connection_layers":[{"input_size":8,"output_size":2,"weights":[[-1.9996019109999355,0.9974392332800509],[2.1606282413001843,6.522118190340108],[-14.155789859939912,-4.724515941939889],[10.973650878880168,-10.730667531599954],[6.190502320840107,1.0963022054401212],[2.564237378200114,-2.82955846279972],[-8.125598449739979,0.45862944196012834],[-9.173975199359894,6.385222551699988]],"dyn_weights":[[-14.269223203000198,8.272286344939788],[-2.5063691255599876,-2.6572462802800776],[4.4407091221001,4.176701886899926],[-5.543069811260019,0.8764688141799585],[3.2508629350998213,4.224154986919934],[4.021979445180091,-1.390686641279995],[18.470766863340508,-2.1202082592800684],[-4.018169553299923,4.350590478159913]]}]},"type_":"predator","pos":[233.55575458930832,956.5144210303885],"orientation":-337.85092230153066,"health":0.08303501600000046,"energy_copy":1.0,"age":64.83138800000003,"gen":340724,"fitness":1.0},"377698488":{"nn":{"node_layers":[{"biases":[13.119868825060678,6.86330384264042,-0.4861453889400423,-0.7558579178000057,26.107699974740523,-0.4734699179399437,-1.0436112741399677,3.4568000364406486],"activation_ref":"sigmoid"},{"biases":[4.382169526500025,10.377762444380005],"activation_ref":"sigmoid"}],"connection_layers":[{"input_size":8,"output_size":2,"weights":[[-3.6497551993804147,31.81232554879831],[-16.705045030699964,-29.694696156021063],[37.80392219110028,4.534977198980969],[-5.003234939879142,32.96727611622007],[13.552076517740044,-3.263368144359597],[14.490526363880809,-16.460966111520346],[9.179732838300529,6.200945637680365],[7.943693713240767,-19.066802516499333]],"dyn_weights":[[-5.904277492899903,-29.629915451739038],[-7.13764330746008,3.497971801540419],[2.3401735370199717,4.029678907459853],[-20.28610310729922,-1.3666338806802127],[-2.0441888069994616,0.27848152668006254],[-13.354421467840432,-0.49576268838050686],[14.451757092680005,-5.2401606417597835],[3.155726408100423,21.778099074500872]]}]},"type_":"prey","pos":[964.9407128171649,286.4216384535225],"orientation":80.19651112616671,"health":1.0,"energy_copy":0.151399125,"age":1.211193,"gen":1358895,"fitness":1.211193},"377698311":{"nn":{"node_layers":[{"biases":[13.295370204220683,7.103102995000421,-0.6977940269800427,-0.7829229865200051,26.11565636498052,-0.4042226504999435,-0.9467928633399673,3.4686854373206493],"activation_ref":"sigmoid"},{"biases":[4.320380933740026,10.48277423534001],"activation_ref":"sigmoid"}],"connection_layers":[{"input_size":8,"output_size":2,"weights":[[-3.6446813240204152,31.6518848981583],[-16.75026999073995,-29.70393915986107],[37.78974298598031,4.403090908580967],[-5.016127126799145,32.996137704420086],[13.744953455860044,-3.160991815679595],[14.553461171880807,-16.570094536200344],[9.07182899582053,6.299693590760364],[7.908380255680766,-19.050037147299324]],"dyn_weights":[[5.857112635419901,-29.695296124219034],[6.924223958420076,3.2933795101004177],[-2.2500507020999754,3.8982837320998525],[-20.18251374241921,-1.3238510080802124],[1.976358041319462,0.28223966828006236],[-13.243691423400433,0.3166984251005073],[-14.525861739439996,-5.303689300599787],[-2.93766645518042,21.81039545390089]]}]},"type_":"prey","pos":[3.206232391769516,121.46242641425079],"orientation":-99.97948181311203,"health":1.0,"energy_copy":0.13479249999999748,"age":25.078339999999972,"gen":1358893,"fitness":25.078339999999972},"377698094":{"nn":{"node_layers":[{"biases":[13.310506474380684,7.08178622756042,-0.7267763587000426,-0.7996491855200052,26.11288926046052,-0.42229807981994355,-0.9076664150599673,3.453268463400649],"activation_ref":"sigmoid"},{"biases":[4.307369256060025,10.46192052986001],"activation_ref":"sigmoid"}],"connection_layers":[{"input_size":8,"output_size":2,"weights":[[-3.612431262780415,31.6615755249583],[-16.77081340029995,-29.714243775421068],[37.77735279350031,4.4167984753809675],[-4.993641196359146,32.993071433020084],[13.744888481700043,-3.1612261775195956],[14.555760056600807,-16.581851869640346],[9.04207173830053,6.294162059040364],[7.909024038400766,-19.054764103779327]],"dyn_weights":[[5.888744504059901,-29.705531270219034],[-6.923199508940077,3.314765923820418],[-2.247706075699975,3.896893911219852],[-20.167240133619213,-1.3173318338802125],[2.007092563559462,0.26925980948006234],[-13.278849095600432,0.35687535034050727],[-14.501064622799998,-5.326390659359787],[-2.93268391910042,21.828636845900892]]}]},"type_":"prey","pos":[983.3435563711986,559.0537539932469],"orientation":-255.778192854784,"health":1.0,"energy_copy":0.5335483750000022,"age":60.268387000000025,"gen":1358893,"fitness":60.268387000000025},"377698334":{"nn":{"node_layers":[{"biases":[13.175448422060676,6.857973890760419,-0.5553733487000424,-0.8342917390000055,26.090138237180533,-0.45265515681994367,-0.9843974987799674,3.467026644120649],"activation_ref":"sigmoid"},{"biases":[4.369134417820025,10.389084319780006],"activation_ref":"sigmoid"}],"connection_layers":[{"input_size":8,"output_size":2,"weights":[[-3.6956271820204147,31.799854623278303],[-16.754889394419965,-29.71551954486107],[37.747535557620274,4.544788527140968],[-4.996322650199141,32.95121639706007],[13.497786171780046,-3.260240757439597],[14.483718059120807,-16.485980755880348],[9.163381588220526,6.212754127600365],[7.993679301920767,-19.052799330299333]],"dyn_weights":[[5.946242188899903,-29.678682909339045],[-7.14678291062008,3.5391928177004193],[2.3855171909399715,3.9786872361798524],[-20.250843011139224,-1.3262231256802126],[-2.015981161479462,0.24373133364006244],[13.39531582704043,-0.4841076305005069],[14.456937939480003,-5.233924827439784],[3.172854079860423,21.708391197940873]]}]},"type_":"prey","pos":[66.07208053316172,735.4844922190082],"orientation":26.774816044334752,"health":1.0,"energy_copy":2.759281749999999,"age":22.074253999999993,"gen":1358895,"fitness":22.074253999999993},"377698400":{"nn":{"node_layers":[{"biases":[13.165582262580678,6.8741408749604185,-0.5632475291400423,-0.7241031885200055,26.094622224700526,-0.556312079859944,-1.0499985859399674,3.3909294512406487],"activation_ref":"sigmoid"},{"biases":[4.3896033241000225,10.364541408180003],"activation_ref":"sigmoid"}],"connection_layers":[{"input_size":8,"output_size":2,"weights":[[-3.573013812580415,31.786747051478304],[-16.78910388213997,-29.669248955621075],[37.67392413530027,4.57287356202097],[-5.046516190879141,33.04676655862008],[13.462947617940046,-3.2988800403195966],[14.472835682440806,-16.508374036040344],[9.286084943780525,6.172639919000365],[7.952933344000766,-19.051647909619327]],"dyn_weights":[[5.8292982623399014,-29.674272641699037],[-7.122759207260079,3.5399620528204196],[-2.4052727447399724,3.9218882056998523],[-20.22223810709922,-1.3262653148402122],[2.0343731901994615,-0.32361779532006246],[13.453710620600427,-0.443769659860507],[14.498295230280004,-5.241308925599785],[-3.1252150664204223,21.68920075482088]]}]},"type_":"prey","pos":[418.81599223930675,922.0726345149268],"orientation":-234.50628494856585,"health":1.0,"energy_copy":1.6505608750000011,"age":13.20448700000001,"gen":1358894,"fitness":13.20448700000001},"377698443":{"nn":{"node_layers":[{"biases":[-0.4769066794000147,-3.656693656439935,0.4843278871401713,6.952929595060111,1.353467153859983,-12.197808582439954,-3.44749259746005,-6.1727904578199535],"activation_ref":"sigmoid"},{"biases":[3.555154641860213,-1.5223958605799752],"activation_ref":"sigmoid"}],"connection_layers":[{"input_size":8,"output_size":2,"weights":[[-2.013784929079936,1.040863185240051],[2.163461713420181,6.502051825300111],[-13.993583087339909,-4.512141848619887],[11.110387880200165,-10.612562314039945],[6.214534962640109,1.0103662700401208],[2.5576026246001136,-2.8875772640397215],[-8.077038072139974,0.16921378776012846],[-9.345826343159894,6.354925424619992]],"dyn_weights":[[-14.313980176480193,8.444795502219796],[-2.4751698176399866,2.48021686992008],[4.625098859220101,-4.157728695979926],[-5.447739997900023,1.0076187501799587],[-3.0829913490598226,4.228783886679933],[-3.9855822914200854,1.259314169279995],[18.357113734140484,-2.021194085720067],[-3.800111446659925,-4.5249298711199115]]}]},"type_":"predator","pos":[302.0455526010999,190.216727222013],"orientation":5.761932043963007,"health":1.2398221340000002,"energy_copy":2.0,"age":7.858113,"gen":340722,"fitness":2.0},"377698082":{"nn":{"node_layers":[{"biases":[13.184177476780675,6.876559530440419,-0.5890059040200424,-0.8073115502000056,26.07544431146053,-0.4564467808999437,-0.9858037728999675,3.482006083560649],"activation_ref":"sigmoid"},{"biases":[4.367311342460025,10.383733339300004],"activation_ref":"sigmoid"}],"connection_layers":[{"input_size":8,"output_size":2,"weights":[[-3.702672555940415,31.799644489318304],[-16.761091789699964,-29.69180245102107],[37.74138950906028,4.584049939660968],[-4.98928599823914,32.93494883586007],[13.499978621380045,-3.256525980719597],[14.476871139800808,-16.465843884240346],[9.204181939220526,6.215444769440365],[8.004187159280766,-19.078982900819334]],"dyn_weights":[[5.908628678259903,-29.625841359819045],[-7.1534813795400805,3.556325596460419],[2.3803912991399714,3.9849469455798525],[-20.234014614819223,-1.3538452635602125],[-2.0010187781594615,0.2558076625600625],[13.42665158368043,-0.4876115628605069],[14.443099242360004,-5.2376683123997845],[3.194855161780423,21.717251948340873]]}]},"type_":"prey","pos":[850.8109272717488,370.14545575934096],"orientation":115.8829104386994,"health":1.0,"energy_copy":0.8469877500000047,"age":62.77590200000004,"gen":1358894,"fitness":62.77590200000004},"377698286":{"nn":{"node_layers":[{"biases":[-0.4909525916400147,-3.635680017919935,0.5030601103801713,6.93408578958011,1.340918148299983,-12.206269592399954,-3.45216506698005,-6.1786185950999535],"activation_ref":"sigmoid"},{"biases":[3.530413165420213,-1.5387637340199753],"activation_ref":"sigmoid"}],"connection_layers":[{"input_size":8,"output_size":2,"weights":[[-2.025527364679936,1.034432071640051],[2.134273064580181,6.513593788420111],[-14.01126173853991,-4.534835972819887],[11.128772532640165,-10.618525805959944],[6.23758470200011,1.0287931682001208],[2.5757963201201135,-2.8590386170797215],[-8.071703753219975,0.17846604484012846],[-9.317167277639895,6.328303337899992]],"dyn_weights":[[-14.310632084000192,8.446803741499796],[-2.4604772211199863,-2.45958442848008],[4.606124187700101,-4.160131844099926],[-5.434938797820023,0.9866865352199587],[-3.0896643184198225,4.234245517079933],[-3.9779197686600853,1.234323876479995],[18.381961500860484,-2.0551186968400668],[-3.7858529688999245,-4.539993321559912]]}]},"type_":"predator","pos":[269.8164590807913,179.64351666314232],"orientation":-21.259415123745903,"health":0.4621962340000008,"energy_copy":0.0,"age":29.877986999999965,"gen":340722,"fitness":0.0},"377698372":{"nn":{"node_layers":[{"biases":[13.223410330900677,6.919236229120418,-0.5502387682200423,-0.8065425680800056,26.13249032930053,-0.5247001883799437,-0.9988198820199673,3.3938757022406487],"activation_ref":"sigmoid"},{"biases":[4.357088836340024,10.293813464180003],"activation_ref":"sigmoid"}],"connection_layers":[{"input_size":8,"output_size":2,"weights":[[-3.664615735940415,31.850061487518303],[-16.730414191699968,-29.732463428701077],[37.71956350254026,4.55878375502097],[-5.043947635279141,33.009665558700064],[13.475088469900047,-3.208129846399596],[14.438555658440803,-16.48874281404035],[9.223323201820527,6.216741284560365],[8.023962183360762,-19.066974212579332]],"dyn_weights":[[5.871228716099901,-29.633282271219034],[-7.220590641580079,3.55736201554042],[2.367573780579973,3.961524916739852],[20.243031046779215,-1.2767105134002126],[1.9602220725994615,-0.2756092411200626],[13.40067527644043,-0.44296437682050704],[14.45048519008,-5.167817560359784],[3.104507696020423,21.735766140420875]]}]},"type_":"prey","pos":[847.3006482566002,836.3051332400223],"orientation":228.20098740848175,"health":1.0,"energy_copy":2.032381000000001,"age":16.259048000000007,"gen":1358895,"fitness":16.259048000000007},"377696710":{"nn":{"node_layers":[{"biases":[-0.49356635796001463,-3.662128117279935,0.5165104204201714,6.945189141580111,1.3851165040999829,-12.199929749879955,-3.44020595654005,-6.172073374499954],"activation_ref":"sigmoid"},{"biases":[3.563388472500213,-1.5024888772999754],"activation_ref":"sigmoid"}],"connection_layers":[{"input_size":8,"output_size":2,"weights":[[-2.0189824298799355,1.051935280000051],[2.1569849475001814,6.5154713509801105],[-13.99521085705991,-4.5183549536998875],[11.093013252200164,-10.660372269599945],[6.24607115096011,1.0171107058401208],[2.564444754080114,-2.8478126462797215],[-8.047802304419973,0.1946634602401285],[-9.321267088199894,6.323585547299993]],"dyn_weights":[[-14.282019325360192,8.410758146619797],[-2.476060514039986,2.4343341344800793],[4.622300974820101,-4.177236397779926],[-5.432377987980023,1.0035578132599587],[-3.060854630139823,4.267969148319933],[-3.961028610540085,1.280039902439995],[18.377026672940485,-1.990861531320067],[3.7840997693799245,4.5275702425599125]]}]},"type_":"predator","pos":[96.09409786024942,667.5770491380441],"orientation":-42.37986147209788,"health":0.9549774280000001,"energy_copy":24.0,"age":266.5421410000001,"gen":340722,"fitness":24.0},"377698397":{"nn":{"node_layers":[{"biases":[13.303131378220687,7.074565721800419,-0.6911220303000424,-0.5976604852400055,26.111511126100527,-0.6178915016199433,-0.9786775169799674,3.4356585863206486],"activation_ref":"sigmoid"},{"biases":[4.3385353803800255,10.429366192020014],"activation_ref":"sigmoid"}],"connection_layers":[{"input_size":8,"output_size":2,"weights":[[-3.730370932060418,31.68536766619831],[-16.807443341299965,-29.67855462626107],[37.86159311946026,4.601906958980969],[-5.015822152599142,33.01072554154007],[13.511519940740047,-3.251102321879596],[14.564498068000809,-16.500759834400345],[9.258239626420531,6.181236497720368],[7.949370540360764,-18.95601365405933]],"dyn_weights":[[-5.984334500619898,-29.61039566757903],[-7.17602180622008,3.39329492522042],[-2.4233320965799723,3.865070921259852],[-20.288677467579216,-1.2227025928802122],[-2.0250517152394623,0.43010619624006247],[-13.356563103880429,-0.5099860887805068],[-14.466660547519998,-5.358720982999787],[2.9442435048604225,21.844574003980885]]}]},"type_":"prey","pos":[143.10313904660103,233.22154514160323],"orientation":289.91403871907215,"health":1.0,"energy_copy":1.664034500000001,"age":13.312276000000008,"gen":1358894,"fitness":13.312276000000008},"377698378":{"nn":{"node_layers":[{"biases":[13.207792235420678,6.908300611360418,-0.5703472457400424,-0.8004295378400056,26.095661616020532,-0.5703075353799437,-1.0146368982199672,3.3546952836406487],"activation_ref":"sigmoid"},{"biases":[4.395425460180024,10.315739334100003],"activation_ref":"sigmoid"}],"connection_layers":[{"input_size":8,"output_size":2,"weights":[[-3.6985381053004147,31.874975553638304],[-16.723014020259967,-29.713770743301076],[37.72998436250026,4.551496486540971],[-5.034346345119141,33.01010360718006],[13.502925568300046,-3.2140963899595962],[14.452432374320802,-16.485334839840352],[9.263661529580528,6.216895903440366],[7.986846424600762,-19.06431518797933]],"dyn_weights":[[5.875125941939901,-29.630374948099035],[-7.243743440420079,3.55330944790042],[2.358353062099973,3.9950360144198522],[20.274033015019217,-1.2630654126002123],[1.9292617597594615,-0.2867373314400626],[13.439802087680428,-0.450234032260507],[14.428364398080001,-5.142458563079784],[3.081509940020423,21.709084449500875]]}]},"type_":"prey","pos":[594.1998605717608,787.7865892707144],"orientation":346.0082417395601,"health":1.0,"energy_copy":1.932569625000001,"age":15.460557000000009,"gen":1358895,"fitness":15.460557000000009},"377698440":{"nn":{"node_layers":[{"biases":[13.263270653620685,7.111495888840422,-0.7210617862600425,-0.7988233938800052,26.13906443234052,-0.3686657327399435,-0.9323734059799673,3.4282077022806487],"activation_ref":"sigmoid"},{"biases":[4.332480572060026,10.509081573180012],"activation_ref":"sigmoid"}],"connection_layers":[{"input_size":8,"output_size":2,"weights":[[-3.6055841033004152,31.5975928625183],[-16.76750117669995,-29.669600247621062],[37.71725378662032,4.362258142180966],[-5.025166309879145,33.00179420482009],[13.754691195180046,-3.1559950267595953],[14.567941157000806,-16.575524444360344],[9.069519771500529,6.291170859000364],[7.922784738120765,-19.04397800641933]],"dyn_weights":[[5.818062057419901,-29.757038156779036],[-6.899033869140077,3.2854592148204183],[-2.2313618906999753,3.915777969299852],[-20.17229242729921,-1.3521464292002126],[1.992300536799462,0.25374613996006246],[-13.200626473240433,0.2615979634605072],[-14.49397975864,-5.292381693639786],[-2.9400868849004196,21.828777285740895]]}]},"type_":"prey","pos":[730.5009837506077,261.4504812326784],"orientation":-177.82097179589098,"health":1.0,"energy_copy":1.0098441249999999,"age":8.078752999999999,"gen":1358894,"fitness":8.078752999999999},"377698448":{"nn":{"node_layers":[{"biases":[13.283826825740684,7.104401104240421,-0.6747202513800422,-0.7528703491600054,26.042871844020514,-0.42745528313994335,-1.0102978548199673,3.4174640892806494],"activation_ref":"sigmoid"},{"biases":[4.417368793300026,10.377584750860008],"activation_ref":"sigmoid"}],"connection_layers":[{"input_size":8,"output_size":2,"weights":[[-3.733586470580416,31.654893093278304],[-16.83608775445995,-29.716691963141066],[37.852719484140316,4.454530564820966],[-5.030511387079146,32.92738950270007],[13.750478479940043,-3.1631508141195965],[14.481512774160809,-16.613313254760353],[9.16461217894053,6.400975789760365],[7.847163040520765,-19.02973230865933]],"dyn_weights":[[5.801641222379899,-29.735694832819032],[6.868415684060075,3.365075445620418],[2.229631089779976,3.9620699588598534],[-20.08923634249922,-1.2603966740802122],[1.9108872362394618,0.35147613392006244],[-13.333752124760434,-0.24807886506050722],[-14.512594757119999,-5.3038544446397875],[-2.8840326950604203,21.732044110300894]]}]},"type_":"prey","pos":[852.4533154366692,551.8468505954996],"orientation":47.3727771606994,"health":1.0,"energy_copy":0.9083238750000001,"age":7.266591000000001,"gen":1358896,"fitness":7.266591000000001},"377698429":{"nn":{"node_layers":[{"biases":[13.23435131306068,6.8548003785204195,-0.5107357871000423,-0.8231912264800055,26.101552313220527,-0.4627489145799438,-1.023347713419967,3.4138220191206483],"activation_ref":"sigmoid"},{"biases":[4.350749341260025,10.378048996220002],"activation_ref":"sigmoid"}],"connection_layers":[{"input_size":8,"output_size":2,"weights":[[-3.6804990436604146,31.7751563846383],[-16.758310101059962,-29.687239039581065],[37.758327440100274,4.557666682020969],[-5.043974924559141,32.96329901390008],[13.572709315300047,-3.2164336649595966],[14.425493257000808,-16.471139375680348],[9.155167114380523,6.243235005160365],[8.026009218960768,-19.06175577073933]],"dyn_weights":[[5.894308115059902,-29.668253206979042],[-7.1100358865000794,3.482696233140419],[2.312678577699972,4.0319717780198525],[-20.260873944019224,-1.3414696553602126],[-2.0927635571194614,0.3307500748400626],[13.318593057120431,-0.4982678285405069],[14.454693399680002,-5.248114619879783],[3.2110507030204225,21.66189453066087]]}]},"type_":"prey","pos":[87.60623095107067,744.5505315723756],"orientation":8.107556068461474,"health":1.0,"energy_copy":1.2495362499999998,"age":9.996289999999998,"gen":1358894,"fitness":9.996289999999998},"377698436":{"nn":{"node_layers":[{"biases":[13.214380467220677,6.898558248160418,-0.5994495233000423,-0.7468712394400056,26.068123483260532,-0.5704955695399441,-1.0579853164999673,3.379424269160648],"activation_ref":"sigmoid"},{"biases":[4.428861894340023,10.365345268900002],"activation_ref":"sigmoid"}],"connection_layers":[{"input_size":8,"output_size":2,"weights":[[-3.6153946074604146,31.755266562878305],[-16.742206666579968,-29.660458333941076],[37.69531217758027,4.55668188570097],[-5.040452677959141,33.04393399406007],[13.465361782140045,-3.282869270479596],[14.456078068400807,-16.490490004560346],[9.338550591940525,6.190561289360366],[7.936705977400765,-19.00856684133933]],"dyn_weights":[[5.863846063219901,-29.665037087299037],[-7.165885954060079,3.5448429477004195],[-2.3693700837799723,3.9243235785398523],[-20.250764474179217,-1.313633297840212],[-1.9911092731194615,-0.3297408595600625],[13.466867685600427,-0.46323079854050697],[14.439355790520004,-5.207225526439784],[-3.0638167735804225,21.745098958860886]]}]},"type_":"prey","pos":[361.8228230584973,949.5475603871774],"orientation":150.81558762840893,"health":1.0,"energy_copy":1.054284625,"age":8.434277,"gen":1358894,"fitness":8.434277},"377698420":{"nn":{"node_layers":[{"biases":[13.158932364220677,6.872933648680419,-0.49534332646004237,-0.7965303942000056,26.079578391940526,-0.48007155533994367,-1.0123429194199676,3.4270856022006484],"activation_ref":"sigmoid"},{"biases":[4.314347030980025,10.371768437500005],"activation_ref":"sigmoid"}],"connection_layers":[{"input_size":8,"output_size":2,"weights":[[-3.6372915224204148,31.823423785358308],[-16.766855288899965,-29.701485435941063],[37.77534920098028,4.542001472860969],[-5.005568827039141,32.95590085362007],[13.495510435940044,-3.232469419319597],[14.46989817600081,-16.437238510400352],[9.169153269140528,6.194382800520365],[7.999559964280766,-19.080120818179335]],"dyn_weights":[[5.879619607419903,-29.67296843021904],[-7.17315771522008,3.550157724500419],[2.346031805139972,4.006478084739852],[20.27570501581922,-1.3475582055202124],[-2.0271981500794616,0.28240631892006257],[13.335778873880429,-0.5042096600205068],[14.481945670880004,-5.2604736451997836],[3.147587550740423,21.762453071100875]]}]},"type_":"prey","pos":[457.89737341738106,47.841664656167566],"orientation":221.57106349592303,"health":1.0,"energy_copy":1.3975182500000005,"age":11.180146000000004,"gen":1358894,"fitness":11.180146000000004},"377698268":{"nn":{"node_layers":[{"biases":[13.133897446980678,6.865002533400419,-0.5010166423800423,-0.7751466472800057,26.107006408220524,-0.4586350157399437,-1.0317051848999677,3.4384614063606485],"activation_ref":"sigmoid"},{"biases":[4.379776238980025,10.364755372380005],"activation_ref":"sigmoid"}],"connection_layers":[{"input_size":8,"output_size":2,"weights":[[-3.6629794662604147,31.82673097671831],[-16.719217009299964,-29.695122438421063],[37.79933672002028,4.548407162820969],[-5.015774710319142,32.95153106822007],[13.537782874460044,-3.250538425919597],[14.497083002120808,-16.480641954120347],[9.174178230620528,6.202654638320365],[7.957227897320767,-19.084225842339333]],"dyn_weights":[[-5.8996392853799025,-29.64532930229904],[-7.15254055934008,3.512098611700419],[2.357961041539972,4.018961634419853],[-20.28660519653922,-1.3511728121202127],[-2.0631573138394614,0.28480921188006253],[13.356572897080431,-0.49136430054050684],[14.450941352320005,-5.259996235119783],[3.1374836706604228,21.77505810246087]]}]},"type_":"prey","pos":[915.4014149440977,286.41661447552065],"orientation":164.9554586322533,"health":1.0,"energy_copy":0.16644999999999688,"age":33.33159999999997,"gen":1358894,"fitness":33.33159999999997},"377698384":{"nn":{"node_layers":[{"biases":[13.224707567100678,6.9152443083604185,-0.5370393639800423,-0.8075679315600056,26.112833837660528,-0.5817673029799438,-0.9751154760999672,3.396729889400649],"activation_ref":"sigmoid"},{"biases":[4.3805343831400245,10.304161524500005],"activation_ref":"sigmoid"}],"connection_layers":[{"input_size":8,"output_size":2,"weights":[[-3.651791215620414,31.854291952278302],[-16.733126036579968,-29.707258624021073],[37.69201878062026,4.565010893300971],[-5.07747698363914,33.02862487682006],[13.517791884580047,-3.2264611235995964],[14.452745879960803,-16.45369169368035],[9.255394972540527,6.205801758960366],[8.014282253640763,-19.03820811301933]],"dyn_weights":[[5.8804455582599005,-29.646369026699034],[7.18977654570008,3.5372494827404197],[2.382675819339973,4.014181418699852],[-20.267007771139216,-1.2568297304802123],[1.9393067937994615,-0.29371343540006256],[13.428482661880428,-0.396366734980507],[14.410048208840001,-5.152109144839784],[3.128751898900423,21.701234030220874]]}]},"type_":"prey","pos":[686.4577557383303,495.4776604917454],"orientation":-17.905298439824122,"health":1.0,"energy_copy":1.869874000000001,"age":14.958992000000007,"gen":1358895,"fitness":14.958992000000007},"377697359":{"nn":{"node_layers":[{"biases":[-0.4842604083200147,-3.6481024016399353,0.4893617998201713,6.924606321660111,1.382024075019983,-12.192238014839953,-3.47576877438005,-6.164714742339954],"activation_ref":"sigmoid"},{"biases":[3.5678105516602128,-1.5633994384199752],"activation_ref":"sigmoid"}],"connection_layers":[{"input_size":8,"output_size":2,"weights":[[-2.010195895559936,1.062385488440051],[2.1339366863401814,6.4937054932601095],[-14.025672571299909,-4.520860683259888],[11.133914007720163,-10.635234783159946],[6.184573869920109,1.0129997445201209],[2.5702676915601135,-2.8537551757597215],[-8.040441316979974,0.15316537988012852],[-9.318694669319894,6.334273273699992]],"dyn_weights":[[-14.252816871360192,8.407435980819796],[-2.4657078971999864,2.4759649058800792],[4.5915330517001,-4.153647504859925],[-5.425130111180024,0.9988885470599589],[-3.039695433099823,4.228160677079934],[-3.928461449340085,1.241611579039995],[18.328209685060486,-2.035630273360067],[3.807700674419925,-4.520751066799912]]}]},"type_":"predator","pos":[838.8964882642567,495.67090340583525],"orientation":98.78612502478262,"health":0.5969044720000014,"energy_copy":12.0,"age":171.54453699999974,"gen":340723,"fitness":12.0},"377697434":{"nn":{"node_layers":[{"biases":[-0.4993413819200147,-3.6435046851199355,0.48752277510017133,6.90917993802011,1.376651776619983,-12.224798109919954,-3.45636564426005,-6.171293529899954],"activation_ref":"sigmoid"},{"biases":[3.559319132700213,-1.5444115019799751],"activation_ref":"sigmoid"}],"connection_layers":[{"input_size":8,"output_size":2,"weights":[[-2.0211141845999356,1.058237599280051],[2.1274644279401813,6.51367240338011],[-14.00558925001991,-4.4940201763398875],[11.107744950280164,-10.626816147479946],[6.187384881800109,1.0267422845201208],[2.5412173674001135,-2.8763886637197214],[-8.051599789179974,0.1450286112001285],